0.10538,0.085117,0.050672,0.13938,0.013901,0.10071,0.18086,0.1367,-0.05141,-0.056434
0.018659,0.16954,0.15476,0.070621,0.28584,0.060564,0.05082,-0.021625,-0.063913,0.037089
-0.050026,0.13373,-0.0094606,0.11628,0.096179,0.10884,0.027596,-0.17283,-0.12146,0.051765
-0.037539,0.062179,0.092339,-0.075369,0.12449,-0.045374,-0.040476,0.078933,0.11408,0.040799
-0.036302,-0.12896,-0.12251,0.032192,0.060705,0.0054718,-0.0058316,-0.03602,0.09382,0.0078779
0.068123,0.23241,0.13386,0.16357,-0.11578,0.10458,-0.18093,0.0047137,0.082367,-0.064814
0.10139,-0.13216,0.0076963,-0.064779,-0.18989,-0.10649,-0.06576,0.063114,-0.18168,0.036616
0.1645,-0.068623,0.1243,0.067213,-0.0080221,0.056606,0.11008,-0.19393,-0.17346,0.025481
0.10382,-0.0016349,0.063709,0.1269,-0.10159,0.047361,-0.12003,-0.035764,0.15575,0.017319
-0.10779,0.074667,-0.06459,-0.10406,-0.14446,0.15526,-0.077749,0.058775,0.0081167,0.062298
0.1006,0.027344,-0.097366,0.048795,-0.013863,0.19682,0.051124,-0.22806,0.052361,-0.017014
0.012645,-0.080307,-0.2308,-0.090675,0.043202,0.13092,0.031796,-0.11169,-0.034281,-0.11925
-0.070917,-0.099467,-0.011481,-0.04747,0.2253,-0.11254,0.078364,-0.081649,-0.17147,-0.077029
-0.020085,-0.15018,-0.014919,-0.066609,-0.045958,-0.16365,0.093043,-0.048533,-0.0055943,0.071317
-0.014434,-0.038123,-0.039518,-0.050202,0.0090487,-0.13418,-0.032941,0.066502,-0.026592,0.10504
0.00019629,-0.028794,0.091461,-0.030889,0.26081,0.072469,0.23731,-0.13283,0.26818,-0.063569
0.014172,-0.014043,-0.0012175,-0.08369,-0.10372,-0.052971,-0.013686,-0.012616,-0.11547,-0.13501
-0.01355,-0.038113,0.068899,-0.062832,0.02531,-0.10719,0.088604,0.063291,-0.038335,-0.1033
-0.044465,0.050337,0.076094,0.05009,-0.02666,-0.018815,-0.013494,0.046998,-0.096648,0.10312
0.12325,-0.01405,0.027099,0.16703,0.13175,-0.010433,0.025938,0.0063516,0.19834,0.093709
0.14471,-0.058665,-0.088573,-0.15417,0.01117,-0.13617,-0.14534,0.055625,0.070682,0.080313
0.054511,-0.027689,0.0574,-0.027201,0.12714,0.0024954,0.037203,0.15756,-0.12174,0.099304
0.0069841,0.16396,-0.042585,0.034165,0.041178,-0.10899,-0.029586,0.012563,0.032161,-0.0029103
0.14222,0.0065049,-0.145,0.048437,0.075792,-0.083546,-0.1477,0.16256,-0.12887,0.016131
-0.03688,0.10613,0.097398,0.095268,-0.16723,0.090289,0.027874,0.17998,-0.031919,0.073409
-0.030137,-0.038021,0.24461,0.013135,-0.073349,-0.053523,-0.23161,-0.048137,0.30379,0.094168
0.0056775,-0.070133,-0.079887,-0.17419,-0.13232,-0.069855,0.038454,-0.039254,0.033821,0.26037
0.099611,0.13932,0.0016135,0.066776,-0.15116,0.15,0.10169,0.060741,-0.10769,-0.09832
-0.010187,0.061194,0.12323,0.089816,0.091144,0.10277,-0.061808,-0.075157,0.023574,0.01147
0.054923,-0.060336,-0.21316,-0.054932,0.10439,0.043486,0.042853,-0.16554,-0.067303,0.044901
-0.010013,0.13758,-0.1924,-0.03175,-0.013704,0.031187,0.03177,0.027174,-0.1022,-0.11811
0.022301,-0.023637,-0.024661,-0.058269,-0.09904,-0.090757,-0.066709,0.043544,-0.092952,-0.15147
-0.1978,-0.0066369,0.10477,-0.016421,0.10444,-0.068134,0.0086269,0.019721,0.011633,0.016637
0.13967,-0.0050407,0.33877,-0.093513,0.18247,0.078529,-0.11852,-0.0962,0.077494,-0.072021
0.10066,-0.015513,0.32124,0.11881,0.070341,0.0060228,0.068719,-0.03922,-0.0072376,-7.6074e-06
-0.10603,0.028353,0.10166,-0.11131,-0.082227,-0.054211,0.09765,0.10288,-0.1293,-0.097558
-0.24749,-0.14308,0.064108,-0.038725,-0.044948,0.20707,-0.0029193,0.018214,-0.076139,-0.010178
0.16523,0.056076,-0.064311,0.1308,0.068842,-0.060255,-0.05484,-0.012127,0.17677,0.0098261
0.0057303,-0.24194,-0.18919,0.038344,0.005953,-0.067244,0.19841,-0.056054,-0.066203,-0.22681
0.09232,-0.0017261,-0.0097692,-0.036198,0.10264,-0.05185,-0.1738,-0.031306,-0.045504,0.07576
0.058171,-0.1124,0.017827,-0.042654,-0.0982,-0.24111,0.14265,0.0082443,0.12556,-0.20767
0.041205,0.045713,0.0097844,0.038711,0.15362,0.051963,0.088735,0.031161,-0.13284,0.025822
0.11736,-0.101,0.16571,0.090278,-0.028788,0.10573,0.11269,-0.07021,0.070523,0.0022192
0.0476,0.0868,0.011138,0.071778,-0.07113,0.053696,0.13095,-0.099578,-0.043696,0.02368
-0.1705,-0.070262,0.16018,0.17361,-0.1175,-0.12017,-0.25114,0.004383,-0.072463,0.15572
0.067967,-0.094273,0.077009,-0.10088,0.085577,-0.12442,0.047043,0.016304,0.096435,-0.15742
-0.034034,0.027236,0.080764,-0.018004,-0.033618,0.087199,0.0038762,0.0034175,0.01407,-0.070216
0.019393,-0.036432,-0.14051,-0.20265,-0.027419,-0.063855,0.0038273,-0.061575,0.033014,-0.077899
0.021959,-0.05264,0.079413,0.040894,-0.03773,0.11542,-0.072463,-0.166,0.033646,0.15847
0.034322,-0.055485,0.065696,0.073433,-0.10397,-0.11342,-0.16223,-0.017172,0.021663,0.13448
-0.055771,0.084722,-0.069896,0.0081967,-0.07084,0.053668,-0.096644,0.086575,-0.085523,0.072315
-0.057144,-0.049267,0.038272,-0.16865,-0.011919,-0.096348,0.037246,0.18107,-0.11585,-0.15913
-0.10742,-0.011313,0.04539,-0.20617,0.21694,-0.053445,0.0059675,0.05167,0.052371,-0.047057
0.1097,-0.059594,0.055144,0.18209,-0.037663,-0.067754,0.058917,0.033607,-0.054372,0.053713
0.009393,-0.017657,0.072276,-0.12491,0.079869,0.12523,0.078176,0.046281,0.16757,0.036042
0.045322,-0.078824,0.11698,0.093632,-0.094203,0.080071,-0.11111,0.010803,-0.029633,-0.066369
0.10348,0.051581,0.0080642,-0.017156,0.087311,0.019404,-0.0014968,-0.081247,0.038096,0.15414
-0.1156,0.026464,0.054286,-0.0078369,0.0896,0.12876,0.050481,-0.060956,0.18775,-0.058962
-0.11348,0.084729,0.0010722,-0.061037,0.071552,-0.095794,-0.082605,-0.11479,-0.0046345,0.039595
-0.017627,0.025338,0.098598,0.056888,0.03716,-0.17154,0.14611,-0.014573,0.035646,0.20445
0.069062,0.032695,-0.059723,-0.01572,-0.18252,0.043612,0.087844,0.018402,-0.019219,0.17727
-0.086893,0.019069,0.1053,-0.10685,-0.01416,0.0060673,-0.03786,0.084055,0.15312,-0.020051
-0.075154,0.15474,-0.12154,-0.031252,0.060139,0.0068095,0.0092152,-0.040861,0.025571,0.077232
0.046681,-0.012698,0.08844,-0.0022187,-0.181,-0.09259,0.061183,-0.09553,0.11636,0.1719
0.026159,-0.035971,-0.013849,-0.014039,-0.042007,0.07076,-0.066153,0.033088,-0.035923,-0.097443
0.055015,0.027983,0.030689,0.044411,0.11512,0.049093,-0.18875,-0.13741,-0.16168,0.097191
0.068468,-0.040147,-0.034324,0.039838,-0.023185,-0.13816,0.042135,-0.085705,-0.0051661,0.18604
0.10316,-0.13255,-0.012684,-0.25183,0.11637,-0.010672,0.0057868,-0.14204,0.11881,0.098626
-0.17495,-0.059964,0.031646,-0.082127,-0.037155,0.11436,-0.12228,0.025117,0.075235,0.12418
0.017168,-0.056566,0.083296,-0.020249,0.12064,-0.022295,0.13595,0.057186,-0.023209,-0.001139
0.036826,0.046796,0.088553,0.045854,0.015538,0.20127,0.052394,-0.096651,-0.00042725,-0.13148
-0.17014,0.053232,0.035197,0.068492,0.067826,0.0071908,-0.0050833,-0.023358,-0.093137,-0.074259
0.0092634,-0.020825,0.12306,0.054456,-0.14544,-0.024832,0.056957,0.065403,0.070192,0.15827
0.10668,0.023292,0.034932,-0.037517,-0.14934,-0.12821,0.0098115,0.022566,-0.081223,0.013698
-0.15211,-0.089099,0.122,0.14418,0.038893,0.00093088,-0.061235,-0.026056,0.032389,0.098204
0.0021357,-0.0098865,0.16983,-0.097518,-0.048161,0.074451,-0.17473,0.012149,-0.11797,-0.10577
-0.059431,-0.030672,-0.135,-0.13353,-0.18364,0.20111,-0.048222,-0.017112,0.00396,-0.18173
0.070571,0.069096,-0.11338,0.074041,-0.046108,-0.084001,0.032186,-0.12829,0.15642,-0.20992
-0.11238,0.086349,0.12468,0.099558,-0.035557,-0.021802,-0.098494,0.050689,0.012067,0.028496
-0.1131,-0.054894,-0.015164,0.097042,-0.085477,0.0077288,-0.10176,0.0776,0.040868,-0.2179
0.12947,-0.19301,0.047717,0.052231,-0.12468,0.033538,0.13531,0.025302,-0.02719,0.14552
0.048223,0.0060742,0.1565,0.087478,0.022177,0.04301,0.068185,0.035148,-0.12601,0.11656
0.137,0.11689,-0.063864,0.015807,0.033563,0.14799,0.072209,0.03952,0.12884,0.030795
0.086708,0.11145,-0.097264,0.15657,-0.080249,0.071091,-0.21486,0.034242,0.14913,0.10471
0.061541,0.062719,0.0090446,0.13528,0.13237,-0.055985,-0.055095,-0.045449,0.034686,-0.010691
0.012011,0.099231,0.018841,0.0092528,-0.048741,0.24032,0.12133,0.04004,0.0384,-0.18357
-0.13218,-0.093122,0.052286,0.078252,-0.19807,-0.05507,0.033919,0.049527,0.032635,-0.012613
-0.00068089,-0.12569,0.050468,0.111,0.0022903,0.042464,-0.20446,0.13769,-0.13924,-0.067805
0.020622,0.04592,-0.14254,0.14999,0.081362,0.14923,0.088762,-0.16908,0.013287,0.1265
0.050663,-0.015477,-0.020471,-0.012234,-0.18876,0.15599,0.0088979,-0.15328,0.07276,0.034179
-0.091278,-0.11941,-0.02704,0.13655,0.19871,-0.10548,0.10022,0.064342,-0.12332,0.033755
-0.0046448,0.06491,-0.24217,0.15082,-0.021064,-0.048521,-0.22211,0.10647,0.10926,-0.060211
0.15451,0.13236,-0.14269,0.15047,-0.073928,-0.097225,0.057233,0.040817,-0.089227,-0.10789
-0.058713,0.02402,0.069858,0.14128,0.025392,-0.04714,-0.047368,-0.086621,-0.013755,0.009906
0.00018993,0.022265,-0.11831,-0.0025062,-0.1028,-0.061812,0.038529,0.0039791,-0.095303,-0.075427
-0.021931,0.00017137,0.0035776,0.050118,0.049579,-0.17727,-0.20559,0.17317,-0.053237,0.095375
-0.13027,-0.086479,-0.20964,0.092056,0.11817,0.0063136,0.046359,0.1664,0.077089,-0.077786
0.011459,-0.012707,0.0097865,-0.055503,0.037425,0.025551,-0.24642,0.052841,-0.10126,-0.093018
-0.0009677,0.071098,0.067831,-0.13735,0.0026074,-0.032169,0.021975,-0.16411,0.033763,-0.028327
-0.25591,-0.12736,0.097375,0.055896,-0.1572,-0.039195,-0.0039013,0.018501,-0.028338,0.099722
0.21679,0.095296,-0.044387,0.014257,-0.075208,-0.016976,0.0062241,-0.19567,0.021169,-0.058218
0.12816,0.12553,-0.093571,0.043909,-0.0025467,-0.21359,0.084874,0.021944,-0.042579,-0.0081732
0.10642,-0.0087211,0.073575,0.011086,-0.21032,-0.12558,-0.043121,-0.012598,0.11921,-0.14455
0.066884,-0.011682,-0.021643,-0.06753,-0.11452,-0.092696,-0.049981,0.072943,0.14375,0.014364
-0.073638,0.13676,0.0070176,0.11215,0.0080654,0.0034925,0.0088309,-0.018292,-0.0040515,-0.039398
-0.146,0.046969,0.13676,0.15886,-0.12673,-0.00085601,0.13337,-0.10732,-0.20181,-0.048689
-0.049233,0.043375,0.17918,0.050229,-0.077965,-0.056063,-0.04712,-0.035361,-0.00084139,0.0014619
0.049954,-0.015447,-0.089986,-0.0053295,0.029491,0.056365,-0.071403,-0.014505,0.13246,-0.027936
0.19105,-0.081618,-0.049268,0.013073,0.018395,0.025051,-0.14449,-0.14985,0.011539,-0.017335
-0.10021,-0.045133,0.0084888,-0.021426,0.011854,0.085362,0.15976,0.030788,-0.036343,0.30003
0.18676,0.041313,0.067034,-0.13813,0.24405,-0.0042515,0.071636,-0.090551,-0.010149,0.10611
-0.10523,-0.091764,0.13422,0.026506,0.06706,0.0094451,0.041897,0.11146,-0.30006,0.16897
0.080365,-0.0030747,0.05677,0.10621,-0.067953,0.062095,0.14398,0.04863,-0.022037,0.16665
-0.0072668,-0.073604,-0.042855,0.0058548,0.0048529,0.0030637,0.022691,-0.049952,-0.046462,-0.02875
-0.1952,-0.1341,0.10024,-0.05646,0.11605,0.10699,-0.068495,-0.11148,-0.038988,-0.048701
0.24997,0.163,0.058151,0.066265,0.18087,-0.0622,-0.037196,-0.16821,-0.006314,-0.16692
-0.12072,0.088394,-0.017003,0.12073,0.06899,0.045343,0.06673,0.0894,-0.14191,-0.097531
-0.086053,-0.020917,0.085285,0.030536,-0.073321,-0.015618,0.19556,0.11808,-0.15895,-0.03379
-0.076285,0.10785,0.055339,0.027404,0.09688,0.01822,0.048616,-0.0030154,0.055001,-0.026233
-0.075194,-0.0090111,0.17763,0.054418,0.087461,-0.13865,-0.090969,-0.07638,-0.085783,-0.0080946
-0.036757,0.021485,-0.051951,-0.020361,0.11476,0.0080489,-0.048923,0.027852,-0.076211,-0.044775
-0.029369,0.020878,0.099918,0.024077,0.042688,-0.31929,0.028822,0.020341,0.056669,-0.18599
0.13038,0.0058065,0.080509,0.090241,-0.038077,-0.14818,-0.044274,0.090247,-0.050342,-0.10545
0.037685,-0.023175,-0.11684,-0.048549,-0.019866,0.15424,-0.18173,0.28716,0.04813,0.09222
0.0035856,-0.025588,-0.018465,0.043411,-0.068197,0.13357,-0.11855,0.024828,-0.011988,-0.082417
-0.15101,-0.09807,0.0080327,-0.023232,0.12279,-0.027171,-0.11492,-0.0027578,-0.06805,-0.11058
0.046642,0.092337,0.084446,0.04279,0.088475,-0.13179,-0.15456,-0.15123,-0.044368,-0.032819
-0.066721,-0.052704,-0.20955,-0.081203,0.20921,-0.06959,-0.089529,-0.11687,-0.12899,0.021113
-0.10723,-0.015312,-0.10095,-0.15383,0.071794,-0.038529,-0.040048,0.083443,0.036,-0.052562
-0.0014081,-0.10801,0.041843,-0.23069,-0.041528,0.10765,-0.14868,-0.064366,0.081888,-0.055522
-0.12143,0.0023273,-0.17023,0.13303,0.055455,0.14348,-0.070511,-0.19559,0.039141,-0.050674
-0.20103,0.14951,-0.010987,0.19826,0.050701,-0.12964,0.055407,0.033089,-0.010803,0.080609
-0.044942,-0.11182,-0.035461,0.25104,0.010832,-0.069281,0.015611,0.034745,-0.13482,0.035911
-0.068385,0.070905,0.17185,0.2266,-0.11227,-0.059467,0.019688,0.029894,-0.21915,-0.11048
0.10981,-0.15063,-0.040019,-0.062406,0.12728,0.091022,-0.027891,0.063479,-0.10151,-0.11379
-0.025585,0.051587,0.29432,0.079216,-0.01597,-0.032983,0.04633,-0.079198,0.081864,-0.22198
0.14061,0.15116,0.077849,0.23513,-0.04047,0.034739,-0.07166,0.037781,0.042586,0.078888
-0.052494,0.0083522,0.078895,0.10492,0.0024519,-0.10096,-0.012669,-0.019016,-0.044724,-0.015906
0.062619,-0.12159,-0.01662,-0.015205,0.10619,0.071693,-0.22821,0.032337,-0.09756,-0.0047937
0.049037,0.17189,-0.03127,-0.04682,0.011857,-0.12447,0.031795,-0.087547,-0.10487,0.018021
0.039213,-0.105,0.081478,-0.036529,-0.11366,0.045706,-0.20059,0.02669,-0.090437,-0.13083
-0.096929,-0.067297,0.118,0.025813,-0.028085,-0.093726,-0.075338,-0.020715,-0.025416,-0.092731
0.0060152,0.043811,0.14593,0.018536,-0.080621,0.31217,0.13096,0.19421,-0.039016,0.018474
-0.012658,0.037506,0.13753,-0.089457,-0.02718,0.024966,0.16714,-0.011788,-0.081083,-0.032342
-0.057754,-0.0077044,0.13277,-0.047069,-0.12417,-0.083517,0.15613,0.041801,-0.11055,-0.207
-0.055955,0.024947,0.10656,-0.061851,0.038879,-0.033586,-0.11132,0.020089,-0.0077902,-0.082799
-0.090587,0.03411,0.12692,0.08473,-0.0088156,0.084512,-0.11287,-0.11091,0.0079392,0.0030654
-0.073476,-0.047232,-0.020914,0.11942,-0.040282,-0.059224,-0.080428,0.057914,-0.066246,0.048421
-0.13395,-0.026808,0.040359,0.070912,-0.014383,-0.20824,-0.042993,0.057846,-0.23855,-0.075568
-0.19572,-0.078074,-0.0059583,-0.10938,0.16696,0.026539,-0.044266,0.17973,-0.17992,-0.084567
-0.15346,-0.078352,-0.21075,-0.025357,-0.12969,-0.082926,0.035098,0.009141,0.038988,-0.13178
-0.11453,-0.073667,-0.16353,0.0070181,0.039049,-0.13383,-0.057865,-0.029187,-0.046021,-0.020406
0.055282,-0.011036,-0.18723,-0.097603,0.057171,0.13835,0.052079,0.077528,-0.1496,0.037373
-0.049542,-0.11653,-0.13331,-0.19926,-0.0086213,0.0038671,0.00016352,0.077282,0.15377,-0.11349
0.25332,-0.085225,-0.20973,-0.12096,0.16303,-0.17943,-0.014575,0.0043527,0.0071305,0.044153
-0.059023,-0.056575,-0.1624,0.0025293,-0.040859,0.082128,-0.13235,-0.015066,-0.046482,-0.25768
0.29493,0.0039595,-0.1194,-0.078234,0.049662,0.059349,-0.088747,-0.090863,-0.1177,-0.095672
0.11276,-0.024441,-0.0083068,-0.0082961,-0.019942,-0.15209,-0.079904,-0.085002,-0.13771,-0.066267
-0.12854,-0.034171,0.12706,0.012112,-0.14553,0.059577,-0.001993,-0.1806,0.064628,0.0906
0.17384,-0.099916,0.3753,0.22651,-0.21008,-0.02328,-0.076195,-0.082237,-0.29076,-0.1179
-0.17702,-0.20314,0.37867,0.27166,-0.12535,-0.19044,-0.24959,-0.046921,-0.075287,0.24618
0.060519,-0.1171,0.049128,0.2075,-0.10185,-0.00036976,0.10977,0.054308,-0.06661,-0.094137
0.29563,-0.09182,-0.0082888,0.22155,0.0073506,-0.086569,-0.097248,-0.10323,-0.0086556,-0.13286
0.021175,0.13688,-0.029823,0.14555,0.1042,-0.063857,0.053619,0.051092,-0.055766,0.16466
0.048659,0.095474,0.020916,-0.056963,0.053461,-0.12245,-0.28587,0.099648,0.15188,-0.038651
0.067152,0.036595,-0.00011736,0.12149,-0.04702,0.12786,0.24594,0.1377,0.10585,-0.0052595
-0.037582,0.10966,0.085471,0.10445,-0.1954,0.03947,-0.11721,0.0068551,-0.15406,0.0456
0.080319,0.0080171,-0.13531,0.030453,-0.082274,-0.0073573,-0.078937,-0.090343,0.031654,-0.10126
-0.037487,-0.05689,-0.065608,-0.023967,0.035267,0.020035,-0.033767,-0.041856,0.058071,-0.14706
0.087849,0.085832,-0.1351,-0.056784,-0.10611,0.14204,0.030608,-0.079079,-0.017389,-0.06492
-0.099801,-0.067836,0.0089603,-0.15646,-0.00051637,-0.022953,-0.10591,-0.0017594,0.018872,0.0070548
0.0067379,-0.078071,-0.077082,0.0028946,0.14726,-0.069094,0.09659,-0.16428,0.13036,0.11508
-0.030343,0.051284,0.12197,0.063634,0.1601,0.032657,-0.20178,-0.068168,0.019907,0.12143
-0.12024,-0.081347,-0.024041,0.044478,0.0040758,0.071072,0.0016686,-0.1033,0.15759,0.036123
-0.046605,-0.14335,0.14728,-0.052455,0.15812,-0.091692,-0.034632,0.017095,-0.12889,0.078801
-0.18444,-0.13444,-0.088066,-0.032242,0.044225,-0.20375,-0.11642,0.087198,-0.10062,0.1793
-0.17548,-0.12081,0.0088053,0.16305,0.090127,-0.22934,-0.29289,0.11022,-0.074133,-0.024559
-0.1851,-0.17922,0.055626,0.11801,0.071692,-0.16821,-0.089642,0.011416,0.010541,-0.023451
-0.15926,-0.1031,-0.020083,0.1432,-0.10626,0.10079,-0.17531,0.023059,-0.0037004,-0.1461
0.058983,0.030383,-0.16789,-0.19239,-0.049122,0.082254,0.018876,-0.14078,0.03738,0.093799
0.080514,0.19643,-0.40588,-0.25742,0.071813,-0.050684,-0.051615,0.13566,-0.031488,-0.10508
0.24394,-0.080633,-0.14802,-0.10468,0.26084,0.032132,0.053687,-0.2184,-0.065054,-0.045816
0.22805,0.026054,-0.1486,-0.037833,-0.038415,0.048818,0.013013,-0.02859,-0.067672,-0.15414
0.12584,0.11151,-0.20413,-0.056187,0.055579,-0.1806,-0.10474,-0.28893,-0.037954,-0.18119
0.050401,-0.060532,0.06475,-0.18304,0.26494,-0.19494,-0.1648,-0.15913,-0.092507,0.05861
0.16038,-0.080756,0.09813,-0.14407,0.11119,-0.21492,-0.25518,-0.11699,-0.35215,-0.12972
0.090745,-0.094204,0.23641,-0.12201,-0.084653,0.011522,-0.17753,-0.073953,-0.31992,-0.17526
0.14273,-0.12219,0.32971,-0.23501,-0.12895,0.14254,-0.32003,-0.038724,-0.46854,-0.038874
-0.043068,-0.21264,0.37059,-0.047154,-0.022001,0.17169,-0.19025,-0.18885,-0.034163,-0.14673
0.18579,-0.060464,0.23938,0.08185,-0.21598,-0.037717,-0.12191,0.011694,-0.17096,-0.047597
0.1056,-0.071112,0.096495,0.084446,-0.045987,-0.05018,-0.10655,-0.18896,-0.025215,-0.040451
0.087336,-0.1113,0.032075,0.19956,-0.23881,-0.060794,-0.0814,-0.14943,-0.19064,-0.1957
-0.076984,-0.010561,-0.099034,0.11842,-0.0047544,-0.14556,-0.083868,0.075965,-0.091322,-0.03405
-0.10656,0.070273,0.037348,0.068259,-0.0082428,-0.09859,0.051637,0.13797,0.076387,0.25199
-0.021061,0.048969,0.061586,0.058215,0.097084,0.03982,0.13674,0.077385,-0.11017,0.069671
-0.0011439,-0.00044923,-0.15613,0.20097,-0.088373,0.089308,0.10014,-0.12729,0.17484,0.089011
-0.14609,0.070275,-0.057908,-0.02518,0.054543,-0.0030286,-0.13131,0.077295,-0.14862,0.1289
0.011045,0.10792,0.094407,0.26636,0.095581,0.022979,0.013157,0.12209,-0.12405,0.058317
-0.076866,-0.01408,-0.036158,0.18578,-0.071459,-0.077458,0.03951,0.015273,0.042994,0.012699
0.040426,-0.035703,-0.051859,0.12581,0.027909,-0.048839,-0.089737,-0.01895,-0.15434,0.12905
0.094497,0.059873,0.0048192,-0.18517,-0.0073784,-0.071798,-0.023823,-0.10955,-0.25841,-0.13034
-0.24022,-0.026995,0.21526,-0.10244,-0.047913,0.015929,0.039889,-0.08366,0.022143,0.099609
-0.11891,0.13895,0.02515,-0.15349,-0.075208,-0.10607,-0.18329,0.056647,-0.20027,-0.28334
-0.065518,-0.19567,0.16627,0.019532,-0.09156,0.066757,-0.15422,0.017727,-0.13414,-0.26605
-0.26692,-0.23053,0.16812,-0.11136,-0.10501,-0.10966,-0.086909,0.14064,-0.12804,-0.21143
-0.3069,-0.16364,0.070488,-0.12685,-0.10601,0.037584,-0.14516,0.20718,0.029938,-0.23653
-0.22949,-0.026973,-0.15042,0.0053704,-0.19736,-0.05565,0.041789,0.035063,-0.064899,-0.36077
0.08152,-0.039525,-0.35428,-0.30553,-0.060488,0.043364,0.018964,0.051499,-0.080427,-0.01364
0.17625,-0.048273,-0.24762,-0.39832,0.23221,0.17718,-0.10199,-0.047716,-0.084602,-0.00040118
-0.03455,0.049028,-0.2857,-0.19812,0.080223,-0.066444,0.092191,-0.18729,-0.3516,-0.0097382
0.027632,-0.10109,-0.22865,-0.12773,0.22846,-0.022289,-0.052219,-0.20616,-0.21097,-0.061527
0.10863,-0.062307,-0.10293,-0.04304,0.27257,-0.3537,-0.20558,-0.158,-0.17264,-0.21676
0.25813,0.068895,-0.079377,-0.12026,0.43399,-0.19686,-0.1929,-0.21153,-0.22345,-0.23094
0.28451,-0.0036309,0.067408,-0.15068,0.2709,-0.076736,-0.23368,-0.0090882,-0.24959,-0.19501
0.51187,-0.22679,0.19984,-0.046536,0.0047857,0.042922,-0.33609,-0.23174,-0.074194,-0.16337
0.18856,0.010806,0.26311,-0.27581,-0.19055,0.22525,-0.19119,-0.20878,-0.33482,-0.23999
-0.15119,-0.065389,0.20369,-0.043389,-0.35957,0.28511,-0.10989,-0.304,-0.27044,-0.18868
0.24501,-0.060075,0.23663,0.091236,-0.036096,0.078345,-0.068711,-0.128,-0.14487,-0.24022
-0.054148,-0.14875,0.23863,-0.004391,-0.29258,0.10047,-0.041624,-0.058139,-0.18648,-0.14451
-0.03411,0.17887,-0.076215,0.20355,-0.055472,-0.052998,-0.035426,-0.12421,-0.02551,0.085324
0.096786,-0.079726,0.040709,0.063841,-0.073841,0.030089,-0.1014,-0.017067,-0.032859,0.11552
0.00057128,-0.048938,-0.13253,0.14359,-0.052089,-0.099207,-0.12147,-0.13925,-0.046556,0.043955
-0.0049097,-0.011952,0.11393,-0.14475,-0.18075,0.089925,0.016297,-0.066262,0.024017,0.053412
-0.0028204,0.021575,-0.056891,0.0012231,0.067089,-0.055017,-0.067876,0.13414,0.0069743,-0.02132
-0.13396,0.22128,-0.033695,0.056979,-0.004319,-0.11094,0.012424,0.20146,0.080285,-0.043191
-0.12855,0.13525,0.068413,-0.1048,-0.022897,0.11408,-0.057918,0.041106,-0.01609,-0.031704
-0.16765,-0.0080341,-0.040724,-0.14766,0.12652,0.093307,-0.021962,0.0037729,0.10866,0.11237
0.074596,0.13297,-0.18442,-0.065118,0.038837,-0.064511,0.10204,0.052787,0.077609,-0.055328
-0.098405,-0.065248,-0.14752,-0.045647,0.12576,-0.10507,-0.089334,-0.1711,0.013736,0.015281
-0.22407,-0.15896,-8.5024e-05,0.098919,0.085718,0.095734,-0.30835,0.047859,0.13233,0.028218
-0.00048877,-0.12264,0.18975,-0.053186,-0.089666,-0.094675,-0.13786,-0.04116,-0.16055,-0.19282
-0.094953,-0.14755,0.052146,0.17844,-0.014025,0.061839,-0.15161,-0.10943,-0.10791,-0.31882
-0.22059,-0.12772,0.037145,-0.013433,0.065778,0.26546,-0.047583,0.15078,-0.073032,-0.18696
-0.10823,-0.11425,-0.12726,-0.25523,-0.11364,0.087147,-0.080874,0.156,0.10195,-0.31003
-0.064918,0.01439,-0.0053433,-0.27879,-0.023088,-0.11503,0.040981,0.16442,-0.13638,-0.28038
-0.013231,-0.13901,-0.35012,-0.074979,-0.042787,0.069971,0.063377,0.18761,-0.087364,0.056197
-0.067304,0.01957,-0.44263,-0.31094,0.025633,0.2521,0.043848,0.06085,-0.078518,0.16164
-0.0098182,-0.14074,-0.32327,-0.037009,0.057831,0.017852,0.075865,-0.053367,-0.16965,0.27317
0.042517,-0.10314,-0.39708,-0.16784,-0.044914,0.081857,-0.13725,-0.067075,-0.28274,0.23888
0.15968,-0.013806,-0.15924,-0.19495,0.13774,-0.31302,0.068628,-0.557,-0.36349,0.02031
0.24801,-0.15048,0.042377,-0.094305,0.3422,-0.49258,-0.026077,-0.15045,-0.37278,-0.19939
0.41514,-0.11402,0.24816,-0.12829,0.45952,-0.35147,0.099964,-0.25255,-0.25281,0.11698
0.22557,-0.23198,0.015461,-0.088613,0.21075,0.029495,0.23999,-0.094398,0.013939,-0.39493
0.15194,-0.13822,0.13166,-0.10164,-0.37355,0.19291,-0.074493,-0.0086738,0.381,-0.17738
0.011147,-0.23854,0.1766,-0.234,-0.30308,0.33566,0.099019,-0.39056,-0.041051,-0.25627
0.12023,-0.09647,0.17181,0.094032,-0.22373,-0.0052396,-0.074816,-0.18808,-0.048449,-0.33973
-0.018169,-0.10223,-0.061996,0.012257,-0.176,0.090321,-0.1827,-0.23138,-0.10655,-0.15523
0.10971,0.020769,-0.10412,0.12081,-0.15942,-0.00081177,-0.028615,0.0058413,0.11864,-0.039866
-0.094144,-0.1713,-0.21746,0.19898,-0.29036,0.055411,-0.13728,0.15385,0.018152,0.073395
-0.11527,0.029583,0.028584,-0.033145,0.04696,0.10343,-0.078328,0.039139,0.033363,-0.0061877
0.16062,-0.0033116,-0.11574,0.128,0.070566,-0.15111,-0.061031,0.077011,-0.013581,0.037764
0.083827,-0.12894,-0.016252,0.09774,0.069022,0.04018,-0.087623,0.10706,0.08087,0.17389
0.056782,-0.19594,0.020611,-0.074669,-0.037779,-0.13293,0.063119,-0.094978,-0.060493,-0.010997
0.00066418,-0.15048,-0.084558,0.031541,-0.13145,-0.19229,0.097601,-0.05866,0.18606,-0.05786
-0.059979,-0.093375,0.12762,-0.091433,0.027961,0.129,-0.062278,0.14002,0.10702,-0.14432
0.098574,-0.03453,-0.016679,0.11926,-0.13325,-0.02014,0.076908,-0.035775,0.010452,0.085573
0.083872,-0.0028423,-0.018254,-0.0362,-0.089322,0.0006499,-0.13795,0.077064,-0.016638,-0.058452
-0.23522,-0.18515,0.22906,0.098876,0.045617,-0.12511,0.015386,0.096845,-0.27119,0.087035
-0.18489,-0.26474,0.28139,0.057467,0.028792,0.033373,-0.1687,-0.046004,-0.15741,-0.13937
-0.067783,-0.19692,0.11447,0.067546,-0.042184,0.03044,-0.24031,0.1119,-0.080193,-0.27335
0.049503,-0.3403,0.0065133,0.027384,0.070966,0.24435,0.011727,0.073051,0.10209,-0.37759
-0.067805,-0.18111,0.11657,-0.2894,0.00032479,-0.061702,-0.0835,0.1793,0.10699,-0.31718
0.071783,-0.26731,-0.33512,-0.42777,-0.06675,0.097847,-0.14078,0.15061,0.19259,-0.28787
-0.10003,-0.096347,-0.61029,-0.1087,0.018781,0.3494,-0.049389,0.037997,0.044871,0.20638
0.024645,-0.21837,-0.55121,-0.27626,-0.049664,0.2057,-0.17222,0.1148,-0.2278,0.17104
-0.042521,-0.19018,-0.28796,-0.30502,0.36822,0.060677,-0.20305,-0.3341,-0.36812,0.42302
-0.092126,-0.32161,-0.091675,-0.10697,0.23597,0.1909,0.037196,-0.27381,-0.28393,0.13954
0.17385,-0.052588,-0.039811,0.13635,0.10229,-0.16935,-0.027037,-0.4061,-0.36682,0.30787
0.12564,-0.22605,0.22472,-0.10166,0.13543,-0.34731,0.13705,-0.24082,-0.45889,0.018849
0.11116,-0.25947,0.025471,-0.10025,0.31295,-0.31023,-0.034707,-0.01282,0.061694,-0.16465
0.099688,-0.28953,-0.067269,-0.23536,0.086995,-0.11656,0.22357,-0.13505,0.44894,-0.2003
0.14285,-0.10034,0.17544,-0.16889,-0.30259,-0.089137,0.18445,-0.075546,0.30939,-0.23451
0.19261,-0.23588,0.057922,-0.27072,-0.18421,0.22666,0.0046456,-0.28562,0.37139,-0.20741
-0.086144,-0.14907,0.022089,-0.023906,-0.088758,0.12889,-0.011779,-0.18792,-0.051291,-0.13875
0.085999,-0.0055873,-0.036239,-0.056006,-0.10069,0.015271,-0.27274,-0.113,-0.15281,-0.29925
0.014849,-0.014539,-0.25052,0.12868,-0.12154,-0.026768,-0.1442,-0.13186,-0.064926,-0.36654
-0.077277,-0.062175,-0.088069,0.17503,-0.038052,-0.02809,-0.080023,-0.052186,0.15524,0.1172
-0.13438,0.11619,-0.12676,0.061169,-0.049257,-0.0011467,-0.12979,0.20671,-0.022879,-0.10031
-0.11235,0.042202,0.018352,-0.054953,-0.11358,-0.069964,0.32843,0.1475,-0.22304,-0.11328
-0.067399,0.13558,0.027831,-0.13745,-0.065856,-0.04278,0.11861,0.054089,0.080924,0.047763
-0.09197,-0.2679,0.082525,0.085066,-0.078519,0.053202,0.092513,-0.11855,-0.01675,-0.10827
-0.070642,-0.027662,-0.051106,0.085806,-0.085585,0.071418,0.002154,0.0026779,0.16438,-0.067193
-0.064213,-0.014989,0.15217,-0.01003,-0.059688,-0.0057685,-0.17313,-0.01014,0.11294,-0.15392
-0.17091,-0.071008,-0.0036493,0.21428,-0.25629,-0.021813,-0.074564,-0.25478,-0.12748,-0.020622
-0.20196,0.12255,0.096426,0.059984,-0.11294,0.098994,-0.063852,-0.047462,-0.026608,-0.12485
-0.39037,-0.14351,0.19261,0.10042,-0.19039,-0.091074,0.013717,-0.020042,-0.32618,-0.055451
0.0080245,-0.23377,0.40371,0.034504,-0.068317,0.056254,-0.19408,-0.1553,-0.22406,-0.16738
-0.15324,-0.17514,0.083589,0.226,-0.024062,0.24927,-0.12504,-0.19151,-0.069258,-0.42451
-0.0073573,-0.41063,0.17122,0.084599,0.072964,0.1374,-0.045553,0.1398,-0.032823,-0.3393
-0.10254,-0.092559,-0.068322,-0.15573,0.042651,-0.03206,-0.11289,0.19047,0.11154,-0.2822
-0.048213,-0.16852,-0.26504,-0.51416,-0.34333,0.04878,-0.27214,-0.12075,0.31633,0.073649
-0.092402,-0.0095745,-0.40201,-0.60802,-0.15769,0.099614,-0.10873,-0.042067,0.068781,0.21435
0.07216,-0.23915,-0.56076,-0.5971,0.11732,0.36037,-0.025934,-0.17727,-0.24782,0.20733
0.07617,-0.27261,-0.56307,-0.044402,0.41251,0.30076,-0.084208,-0.16412,-0.18192,-0.012389
0.19623,-0.1516,-0.44935,-0.23965,0.3709,0.40087,0.21236,-0.33923,-0.28119,0.34495
-0.0017063,-0.30937,0.046992,0.24507,0.063826,0.14635,0.03499,-0.40207,-0.26472,0.38222
-0.049206,-0.34786,0.32477,-0.070838,0.055019,-0.054994,-0.047393,-0.24998,-0.0012055,0.042119
-0.086007,-0.34826,0.086285,-0.46768,0.1569,-0.59529,0.13131,-0.17772,0.32257,-0.02613
-0.079942,-0.19747,0.043874,-0.27021,0.059635,-0.31673,0.38312,-0.19905,0.55285,-0.16045
0.35737,-0.023328,0.10057,-0.16873,-0.29483,-0.12021,0.33265,-0.20611,0.41864,-0.24034
0.081378,0.024399,0.074994,-0.36988,-0.2698,0.18782,0.31555,-0.10909,0.13269,-0.25797
0.10135,0.13077,0.13542,-0.039719,-0.13037,-0.046992,0.11549,-0.20136,0.13379,-0.1263
0.055171,-0.0020636,-0.024613,-0.13182,-0.33905,0.22811,-0.149,-0.15454,-0.18196,-0.33225
0.1674,-0.046817,-0.2402,0.076844,-0.15992,0.019497,-0.36383,-0.070875,-0.061793,-0.11989
-0.095448,-0.075733,-0.19874,0.27597,0.044016,0.12396,-0.13002,0.073956,0.17625,-0.12052
-0.12336,-0.17803,-0.15129,0.077052,-0.12393,-0.054792,0.29162,0.18893,-0.085703,0.098676
0.014808,0.015403,0.1529,0.11668,-0.05912,-0.028049,-0.017566,0.14487,0.035461,-0.05073
-0.03177,-0.029885,-0.055741,0.0065168,0.15626,-0.13738,-0.062255,0.012232,0.066264,0.055205
0.024165,0.1336,0.054163,-0.068031,-0.12049,-0.036529,0.08046,-0.12892,-0.071018,0.083567
0.14169,-0.043123,-0.12262,0.051296,0.079835,-0.080504,-0.067949,-0.0092267,0.094783,0.10699
0.061764,0.086777,0.18826,0.0051739,-0.11199,-0.028252,-0.04098,0.18726,0.068788,-0.10001
-0.091695,-0.096056,0.034495,0.22607,-0.10027,-0.031449,0.0096247,-0.026058,-0.16983,-0.1337
-0.078627,0.0088056,0.25567,-0.059731,-0.036,-0.0017287,0.0062749,-0.13143,-0.1152,0.1289
0.086143,-0.024709,0.41389,-0.025917,-0.05383,0.10282,0.022821,-0.12927,-0.14006,-0.030856
-0.18415,-0.1868,0.26626,-0.086255,-0.063639,0.13765,-0.082915,-0.2977,-0.17246,-0.36257
0.073359,-0.18804,0.19387,0.36591,0.12733,-0.07256,-0.17165,0.13023,-0.013797,-0.45215
0.21047,-0.57015,0.071278,0.16761,-0.088325,0.11135,-0.28171,0.27004,0.19464,-0.19533
0.010948,-0.30943,-0.0043025,-0.095193,-0.22277,0.07108,-0.18943,0.099772,0.4713,-0.21065
-0.14245,-0.2421,-0.20675,-0.55962,-0.2332,0.10762,-0.14703,0.13141,0.28235,0.26387
0.022425,-0.2975,-0.56731,-0.54805,0.04576,0.39928,-0.19285,-0.054902,0.2264,0.16606
0.16784,-0.18553,-0.63879,-0.21181,0.23551,0.12921,0.064938,-0.053052,0.19058,0.072648
0.10942,-0.33891,-0.5686,-0.062987,0.2764,0.41813,0.28053,-0.37058,-0.04399,-0.036977
0.0072195,-0.33383,-0.20196,0.27564,0.36104,0.46248,0.0063944,-0.50278,-0.19531,0.20304
-0.1514,-0.27764,0.18175,0.022098,0.28156,0.27511,-0.036104,-0.32664,-0.095165,0.40815
-0.33018,-0.37756,0.32484,-0.20424,-0.049315,-0.11826,-0.031875,-0.23876,0.094686,0.066678
-0.17427,-0.26056,0.17165,-0.32739,0.16376,-0.3291,0.11532,-0.19084,0.5101,-0.026978
-0.40769,0.0013558,0.049913,-0.33304,0.24831,-0.36283,0.16908,-0.20569,0.35319,-0.11974
-0.029054,-0.026572,0.12627,-0.43316,-0.24032,-0.25216,0.29607,-0.21265,0.11674,-0.20788
0.24677,-0.21005,0.27377,-0.28792,-0.28259,-0.10653,0.42177,-0.099958,-0.12536,-0.13302
0.052002,0.10826,0.098204,-0.26797,-0.20912,-0.15031,0.14824,-0.15299,-0.2977,-0.25758
-0.067494,-0.1501,-0.17265,-0.077368,-0.25781,-0.086381,-0.20029,-0.074305,0.018204,-0.26691
0.21776,-0.19046,-0.38134,0.073789,-0.25577,0.11912,-0.39724,-0.10832,0.38195,-0.21282
-0.050508,-0.0080843,-0.24538,0.0019332,-0.27763,-0.053487,-0.33574,-0.011845,0.092713,-0.074183
0.012537,-0.064265,-0.16266,0.03735,-0.21974,0.02953,-0.083968,0.051036,-0.039356,0.14933
-0.025329,-0.10007,-0.01026,0.0094251,0.11486,0.058407,-0.034581,0.1918,-0.01817,-0.12996
-0.099088,-0.15797,-0.041261,0.1196,0.00039962,-0.15111,-0.010124,-0.14719,0.029283,-0.13333
-0.089674,-0.062231,0.16051,0.092474,0.16281,-0.012022,-0.062328,-0.26305,-0.0010722,0.11051
-0.12374,-0.21873,0.073111,-0.078385,-0.089827,-0.050989,0.067543,-0.044754,0.039647,0.20057
0.011924,0.030814,0.0087798,-0.18186,-0.11503,-0.054787,0.0099471,0.071104,-0.11233,0.02367
0.038173,-0.054954,-0.11913,-0.055277,0.055395,0.036729,-0.11275,-0.0076515,0.021038,-0.012073
-0.11702,-0.15063,0.18899,0.12364,-0.27245,-0.099396,-0.12478,-0.043624,-0.20721,0.075825
-0.036094,-0.10076,0.39976,-0.037358,-0.2182,-0.11846,0.049072,-0.18165,-0.32532,-0.31729
0.044516,0.16762,0.30645,0.074126,0.11214,-0.074735,-0.049386,-0.19609,-0.010889,-0.27601
-0.12347,-0.16582,0.049683,0.26003,-0.011572,0.10971,-0.27932,0.025077,0.006746,-0.52211
-0.104,-0.23296,0.0061014,0.08501,-0.32096,-0.022155,-0.27722,0.22523,0.031139,-0.11525
-0.094712,-0.027463,0.14812,-0.22277,-0.39704,-0.26408,-0.10507,0.082103,0.24536,0.21046
-0.089388,-0.076399,-0.35713,-0.40744,-0.20465,-0.024174,-0.13515,-0.011016,0.2138,0.37851
-0.13647,-0.15962,-0.49297,-0.39554,-0.021208,0.34635,-0.059915,0.13925,0.15034,0.1534
-0.12465,-0.19248,-0.43772,-0.1119,0.17605,0.31236,0.099258,-0.010049,0.1771,-0.32595
-0.15343,-0.16411,-0.41082,0.33964,0.28645,0.18382,0.21554,-0.24835,0.27589,-0.16339
-0.10944,-0.13915,-0.15707,0.26239,0.21161,0.38194,-0.11795,-0.55441,0.42888,0.048085
-0.33699,-0.1659,0.42248,0.18329,0.17483,0.078469,-0.094524,-0.57055,0.44517,0.12529
-0.40218,0.0086329,0.13852,-0.29154,-0.11961,-0.16913,-0.039088,-0.32659,0.35763,0.020786
-0.33441,-0.056276,0.20274,-0.2977,0.3734,-0.29822,0.11704,-0.12163,0.10153,-0.046447
-0.24101,0.14723,0.32329,-0.29828,0.043098,-0.44046,0.10997,-0.30651,0.089116,-0.1572
-0.16505,0.014,0.0083369,-0.37081,-0.4508,-0.10298,0.26717,-0.035196,-0.10058,-0.15421
-0.070651,0.15515,0.1275,-0.29458,-0.23255,-0.068635,0.31661,0.014223,-0.12497,-0.18212
-0.27346,-0.18573,0.028978,-0.27789,-0.17904,-0.12145,0.33841,0.03255,-0.20347,-0.11873
0.1182,-0.15262,0.19372,0.095,-0.2694,0.14068,-0.090931,0.015321,-0.089276,-0.21413
0.25677,-0.19474,-0.063792,0.034896,-0.1361,0.24667,-0.32318,-0.075997,0.2447,-0.45666
-0.16154,0.092907,-0.10992,0.10925,0.07393,0.27557,-0.11183,0.14759,0.20693,-0.18752
-0.13989,-0.14257,-0.051286,0.020809,-0.21642,-0.27575,-0.18841,0.22101,-0.17982,0.29172
-0.039916,-0.14334,-0.088777,-0.11856,-0.1224,0.022064,-0.066683,0.11247,0.10625,0.055642
0.0055376,0.02607,0.15365,-0.11899,-0.019735,0.15812,0.046499,0.12753,-0.045488,0.014161
-0.0061154,-0.12078,-0.16065,0.033837,-0.1659,-0.11558,-0.00047279,-0.17763,-0.017841,-0.10525
-0.083147,-0.10501,-0.098897,0.15338,-0.14978,-0.023081,-0.025729,0.11579,-0.087642,-0.13453
0.094592,0.041949,-0.063852,0.03746,-0.16323,-0.085849,0.0065992,-0.052894,0.063569,-0.011695
-0.10211,-0.0068583,-0.11902,0.1329,-0.26738,-0.24265,-0.099234,-0.17817,-0.13094,0.11533
-0.14535,0.060573,0.11251,-0.05182,0.068492,-0.26541,0.092361,-0.054106,-0.15122,0.025357
-0.10087,-0.026416,0.43679,0.047478,-0.053084,-0.1298,-0.13096,-0.27714,-0.48207,-0.23345
-0.020859,0.068133,0.21226,0.073174,-0.042834,-0.011914,-0.21852,-0.28145,0.02035,-0.37788
0.37687,-0.053149,-0.017885,0.12705,-0.44604,0.046308,-0.13945,-0.16566,-0.012236,-0.18671
-0.11663,-0.0097829,0.043142,0.098313,-0.59858,-0.22573,-0.20046,0.13146,0.1019,0.20506
0.090077,-0.041089,-0.040549,-0.37323,-0.33905,-0.27638,-0.12094,0.043941,0.014872,0.45828
-0.093458,-0.16283,-0.467,-0.68956,-0.24765,0.32597,-0.12502,0.10268,-0.079452,0.17121
0.066776,0.039165,-0.53677,0.021489,-0.21309,0.16971,0.032831,0.15034,-0.077389,-0.091481
-0.16227,0.12928,-0.53658,0.10628,-0.28322,0.019288,-0.21197,-0.13501,0.12701,-0.32259
-0.28613,0.24255,-0.25798,0.29219,0.15147,0.14563,-0.10239,-0.13317,0.015916,-0.16295
-0.34616,0.10052,-0.082739,0.16114,0.11365,0.16144,-0.17695,-0.73073,-0.04371,0.3044
-0.4689,0.16493,0.088116,0.053194,-0.051147,-0.075176,-0.3185,-0.56522,0.25177,-0.16277
-0.43385,0.18433,0.25778,-0.27963,0.17168,-0.21273,-0.12442,-0.39794,0.39918,-0.13833
-0.57021,0.48593,0.046463,-0.37022,0.2671,-0.38884,0.06299,-0.14852,0.043627,0.010247
-0.31625,0.25393,0.059436,-0.37118,0.12031,-0.18329,-0.26638,-0.082823,0.077602,-0.15135
-0.2092,0.21257,0.0014397,-0.45576,-0.16337,-0.16771,0.0722,-0.01376,-0.21774,-0.091577
0.044623,-0.063156,0.095838,-0.43256,-0.21133,-0.015355,0.41574,-0.12083,-0.17448,-0.041332
-0.17864,-0.0043244,-0.041886,-0.18289,-0.15575,0.03117,0.45206,0.14739,-0.39931,-0.23161
0.060246,-0.040737,-0.40503,0.029814,-0.18271,0.054022,-0.21224,-0.035667,-0.25303,-0.43804
0.068241,-0.029099,-0.31047,0.15467,0.077,-0.059669,-0.41576,-0.019014,0.32795,-0.45118
-0.16551,-0.1498,-0.17923,0.35904,-0.063291,0.28235,-0.076615,-0.018287,0.30577,-0.1232
-0.13928,-0.0033857,-0.060713,-0.055755,-0.19728,-0.093667,-0.14274,0.38915,0.049755,0.1367
-0.03325,0.13002,-0.072177,-0.10239,-0.19454,-0.044352,0.065264,0.041388,-0.0088288,0.11248
-0.15552,-0.07059,0.065223,-0.10564,0.098834,0.015577,-0.035619,-0.11527,0.029201,-0.063451
0.051327,-0.090247,0.12959,-0.09756,-0.070255,-0.1712,-0.080298,-0.031222,-0.031921,0.023227
0.16109,0.007034,0.073704,-0.011239,-0.02591,0.14962,0.032045,0.20488,-0.056355,-0.060351
-0.06253,-0.076885,-0.024557,0.034247,-0.019578,0.013305,0.018483,-0.029348,0.059582,0.058986
-0.09352,0.068996,0.044072,0.01935,-0.13369,0.0078917,0.20517,-0.085628,-0.027701,-0.18186
-0.14922,-0.10216,0.35604,-0.11732,-0.1646,-0.23138,-0.019857,-0.035563,-0.30365,0.10734
0.062518,-0.18652,0.37677,0.17564,-0.31122,-0.10167,-0.23854,-0.18841,-0.21192,-0.35443
-0.029583,-0.10701,0.29909,0.068718,-0.37711,-0.094788,-0.066455,-0.2386,-0.079566,-0.32175
0.10469,-0.20836,-0.010225,0.037044,-0.48195,-0.18053,-0.19858,-0.085519,-0.064104,0.051549
0.050005,-0.25455,0.17056,-0.091974,-0.53102,-0.093559,0.03237,-0.15023,0.16919,0.36982
0.062576,0.10185,-0.085966,-0.31307,-0.64048,-0.11614,-0.014495,0.073629,0.063626,0.30544
-0.038799,0.16581,-0.424,-0.059139,-0.26549,-0.043605,0.015776,-0.11011,-0.38989,-0.2368
0.0076405,0.29471,-0.51891,0.14099,-0.35157,0.075691,-0.032722,0.13812,-0.4202,-0.2504
-0.46741,0.44388,-0.36552,0.18355,-0.080363,-0.16247,-0.33484,0.064573,-0.48452,-0.13565
-0.258,0.29499,-0.45201,0.16281,-0.14495,-0.21891,-0.23052,-0.26678,-0.024357,0.014747
-0.35278,0.11729,-0.21857,-0.025039,-0.41701,-0.09986,-0.36021,-0.4179,0.00011284,0.16376
-0.51345,0.21377,-0.11767,-0.033276,-0.14273,0.12921,0.092141,-0.3159,0.085298,0.10066
-0.44297,0.26603,0.23182,-0.31204,0.23353,-0.066957,-0.041439,-0.25809,0.22724,-0.10837
-0.63614,0.31106,0.13635,-0.41476,0.2576,-0.42204,-0.12469,-0.10271,-0.070825,0.1094
-0.33235,0.22036,-0.088164,-0.3783,0.14131,-0.28448,-0.20739,0.058286,-0.25442,-0.21639
-0.074053,0.11555,0.24685,-0.40348,0.017928,-0.072564,0.027603,0.059332,-0.23863,-0.16232
-0.33911,-0.093934,-0.052979,-0.073129,-0.094839,-0.13813,0.14786,0.06207,-0.1511,-0.21475
-0.11217,-0.063611,-0.29915,0.093355,-0.19441,-0.12454,0.23699,-0.10293,-0.22682,-0.13627
-0.15758,-0.01988,-0.24721,-0.17064,0.070505,-0.15315,0.044048,0.029326,-0.27827,-0.21648
0.05484,-0.013177,-0.12586,-0.087995,0.011275,0.089081,-0.23455,-0.1906,0.16637,-0.311
0.15972,-0.029475,-0.11076,0.025341,-0.042961,0.16129,-0.43345,0.10029,0.14956,-0.3747
-0.019318,-0.072177,-0.0073821,0.092699,-0.17956,-0.23593,0.0982,0.15389,-0.11551,0.0013964
-0.034587,-0.088918,-0.10412,-0.15738,-0.075801,-0.071023,0.14552,0.13108,0.064051,0.13678
0.025545,-0.13918,-0.015052,0.17635,0.18626,-0.053212,0.074521,0.060727,0.02812,0.0097497
-0.090645,0.0090874,-0.0098311,-0.0039751,0.059647,-0.06857,0.09771,0.097489,-0.10997,0.0017499
-0.15046,-0.02141,-0.04791,-0.15031,-0.095501,-0.095372,-0.082331,0.13254,-0.11131,-0.034701
-0.22046,0.0060185,-0.0039104,-0.044775,-0.2067,0.071643,0.14193,0.14523,-0.077211,0.28917
-0.043213,-0.28495,-0.14179,-0.073786,-0.17565,-0.25762,0.29453,-0.20936,0.045033,-0.083984
-0.26809,0.079853,0.16729,0.20779,0.029757,-0.17326,0.32587,-0.04652,-0.24119,-0.071764
0.084326,-0.0029493,0.19911,-0.22523,-0.10287,-0.21218,0.14072,-0.3729,-0.18207,-0.38005
-0.064088,-0.2198,0.20662,-0.16024,-0.44883,-0.20114,0.039156,-0.1987,0.031206,-0.030524
0.21909,-0.28559,0.2149,0.050094,-0.47473,-0.053789,-0.0449,-0.31393,0.10993,0.41699
0.1041,-0.13774,0.38066,0.0015694,-0.64976,-0.066736,-0.015144,-0.064982,0.25533,0.51231
0.020381,0.023953,0.22587,-0.12372,-0.4503,0.17876,-0.14575,0.22936,-0.11893,0.24386
-0.14708,0.099301,-0.30633,0.452,-0.33954,-0.23089,-0.1127,0.16216,-0.48834,-0.22735
-0.12823,0.21457,-0.33575,0.19647,-0.22317,-0.016942,-0.41672,0.074179,-0.45608,-0.48371
-0.25406,0.12527,-0.073115,0.097224,-0.21503,-0.1377,-0.38145,0.058224,-0.19663,-0.19441
-0.47908,0.084896,-0.20465,-0.052636,-0.26239,-0.19125,-0.082838,-0.15236,-0.083194,0.045803
-0.51306,0.28825,-0.2479,0.097232,-0.2319,-0.076344,0.010193,-0.2506,0.10085,0.33624
-0.44521,-0.15399,0.14407,0.047798,0.29157,0.046471,0.28583,-0.19129,0.051673,-0.058553
-0.48467,-0.21929,-0.035207,-0.14594,-0.00080805,-0.37549,-0.073456,-0.34401,0.13895,0.00032635
-0.30779,0.17447,-0.015666,-0.12948,0.36665,-0.10208,-0.34841,0.064317,-0.10479,0.0654
-0.40542,-0.098016,0.035733,-0.28182,0.09693,0.020894,-0.20271,0.071854,-0.14101,-0.12352
-0.20651,-0.038637,0.21531,0.054445,-0.023545,0.10465,-0.048519,0.056004,0.098982,-0.13343
-0.18564,0.014986,0.1891,0.035288,-0.078288,-0.15708,0.15193,0.021694,-0.3441,-0.35808
-0.12389,-0.29643,-0.16034,-0.027207,-0.27857,-0.13392,0.055196,-0.10383,-0.32102,-0.034681
0.0015345,0.10919,-0.098803,0.096752,0.098855,0.036303,0.17936,0.037972,-0.26411,-0.25632
-0.12304,0.093579,-0.017356,-0.13278,0.060079,0.033487,-0.30754,-0.10344,0.16188,-0.27452
0.17664,-0.18811,-0.021736,-0.20029,-0.19603,0.20033,-0.059145,0.16656,0.036483,-0.10646
-0.075129,-0.072974,-0.088501,0.059646,-0.15845,-0.2741,-0.1175,0.26491,0.047585,0.27893
-0.15053,0.038476,0.069608,-0.13215,-0.091875,-0.029103,-0.12606,0.16223,0.058161,0.14956
-0.10081,-0.086605,0.03284,-0.00086508,0.024169,-0.080495,-0.10401,0.0064098,0.13283,-0.051158
-0.14457,-0.064002,-0.112,-0.012154,0.040365,0.074114,0.055351,0.064054,0.077288,-0.096617
-0.095138,-0.051928,-0.085007,-0.077363,-0.035424,0.0073546,0.051473,-0.088375,0.035392,0.11086
0.04149,-0.035772,0.03961,0.0048987,0.045955,-0.24046,0.021701,0.1358,-0.089246,0.22122
-0.16947,-0.087684,-0.20794,-0.066783,-0.053228,0.039287,0.12357,0.069464,0.074942,-0.033019
-0.10601,0.109,0.14762,0.24022,-0.033033,-0.30101,0.22508,-0.084456,-0.24152,-0.14855
0.061578,0.030012,0.20164,-0.13857,0.060413,-0.3648,0.18094,-0.1869,-0.15081,-0.40442
0.12961,0.021137,0.2167,-0.033327,-0.21861,-0.20203,0.097138,-0.30243,0.18589,-0.13307
0.29432,-0.28999,0.017226,-0.17101,-0.43683,0.0071348,0.1078,-0.29821,0.10371,0.3275
0.084241,-0.063011,-0.048355,-0.027358,-0.29056,-0.13535,-0.11327,-0.17623,-0.18038,0.3757
-0.0098985,0.0018215,-0.063405,0.042007,-0.0038597,-0.50875,-0.17421,0.2431,-0.4538,-0.17912
0.0077464,0.12014,-0.25764,0.4456,0.081004,-0.13647,-0.35491,0.26953,-0.46008,-0.26223
-0.21564,0.062321,-0.097741,0.25721,-0.021663,-0.36533,-0.45464,0.13466,-0.29242,-0.35191
-0.39774,0.014772,-0.14278,0.13534,0.01502,-0.23084,-0.43088,-0.024125,-0.03678,-0.076264
-0.20914,-0.13835,-0.14844,0.085773,0.11839,-0.2278,-0.050447,-0.18252,0.17415,0.021122
-0.42539,-0.038065,-0.061136,-0.021942,-0.054359,-0.17178,-0.066013,0.011318,0.071863,0.1527
-0.3651,-0.30408,-0.25398,-0.076557,0.22888,-0.18727,-0.10926,-0.16904,-0.32454,0.27726
-0.35989,-0.25068,-0.027539,0.0023459,0.18437,-0.07234,0.083928,0.059856,-0.10585,0.15418
-0.40536,-0.20928,0.20347,0.054418,0.41598,-0.16766,-0.27896,-0.10158,-0.085586,-0.15237
-0.12165,-0.21789,0.13838,-0.041223,-0.071187,-0.024825,-0.053902,0.073698,-0.044036,0.13882
-0.37563,-0.1602,0.0323,0.11168,-0.16201,-0.21027,0.0020119,-0.060624,-0.17245,-0.21122
-0.17218,-0.23769,0.055525,-0.088079,-0.17653,-0.12027,0.1733,-0.094676,-0.28329,-0.33528
-0.062466,-0.010954,-0.039009,0.0038879,-0.11955,-0.23038,0.090016,-0.19216,-0.34027,-0.1677
0.063633,-0.11881,-0.22444,0.041615,0.023132,0.16914,0.16462,-0.2072,-0.3371,-0.31407
-0.024633,0.18347,-0.009263,-0.044798,-0.05114,0.094205,-0.25162,-0.10063,0.17253,-0.3656
-0.12668,0.022659,0.078122,0.006546,-0.082659,-0.047711,-0.27749,0.15493,0.088873,-0.040717
-0.10138,0.10734,-0.016289,0.021057,-0.1898,-0.020117,-0.095954,0.15458,-0.034317,0.33609
-0.0052567,0.011267,-0.043064,0.028236,-0.16992,0.12481,-0.1171,-0.032904,-0.053047,0.13747
-0.030111,0.14459,-0.10172,-0.098638,-0.14244,-0.07112,0.10822,0.13359,0.15837,0.050841
-0.14716,-0.0060003,0.0070128,-0.19788,0.020391,-0.1389,-0.039404,-0.01045,0.14439,-0.10705
0.10329,-0.015847,-0.10723,0.099452,0.054848,-0.11168,0.13431,0.086884,-0.056071,-0.080797
-0.083418,-0.072228,-0.10796,0.047256,0.025529,0.027574,0.078739,-0.059755,0.056848,0.087473
0.098552,0.016966,-0.074123,0.057821,-0.082532,-0.078841,0.35727,0.0096895,-0.16123,0.119
-0.16898,0.036008,0.088219,0.13283,-0.22664,-0.21771,0.33797,-0.1891,-0.35331,0.0285
-0.073976,-0.01359,0.22296,-0.052159,-0.20913,-0.22175,0.2333,-0.33195,0.22346,-0.31536
0.18266,-0.17263,0.024481,-0.05646,-0.14298,-0.088405,0.21549,-0.24412,0.23471,-0.1386
0.18092,-0.18578,-0.0010226,-0.078192,-0.25362,-0.098292,0.013978,-0.30931,0.12673,0.22873
0.11199,-0.24771,-0.18343,-0.10382,-0.23535,-0.10491,-0.36969,-0.021034,-0.30115,0.29715
0.36829,-0.012459,0.051497,-0.0098479,-0.082697,0.0087305,-0.3279,0.20134,-0.29771,-0.0086156
-0.070554,-0.16745,-0.23018,0.14659,0.011072,-0.54253,-0.42302,0.32629,-0.31457,-0.19431
-0.17928,0.037301,-0.1695,0.16572,0.10285,-0.42472,-0.4854,0.27966,0.0015421,-0.17249
-0.28184,0.038307,-0.099123,0.1586,0.063244,-0.1574,-0.22184,0.075848,0.34846,0.026356
-0.21308,-0.23106,0.0092407,0.14679,0.012689,-0.28941,-0.10527,0.024003,0.21617,0.068669
-0.29921,-0.17273,-0.11543,-0.13917,0.38023,-0.22083,-0.036737,0.074826,-0.24375,0.23999
-0.19207,-0.25205,-0.035799,0.19517,0.16521,-0.080848,0.022734,0.10863,-0.43207,0.14164
-0.32702,-0.32225,-0.075514,-0.040668,0.24465,0.037177,-0.15072,-0.015452,-0.3608,0.094901
-0.14157,-0.12765,-0.13625,0.053382,0.14334,0.13307,-0.25447,-0.18242,-0.10059,-0.0057982
-0.18854,-0.14146,0.049848,0.051241,0.064536,-0.020666,0.080235,-0.17442,-0.12495,-0.026918
-0.11959,-0.22571,0.043421,0.049075,-0.29643,-0.08554,0.16239,-0.21625,-0.043582,-0.23371
-0.2238,-0.1561,-0.012208,-0.025446,-0.039148,-0.084565,0.23913,-0.22105,-0.26767,-0.074067
-0.18353,-0.11506,-0.11021,-0.11226,-0.08012,0.054021,-0.074134,-0.054989,-0.14021,-0.22856
-0.072306,0.095432,-0.092338,-0.028714,0.052276,-0.071911,-0.13556,-0.29152,-0.20209,-0.059706
-0.094528,-0.11364,-0.0275,-0.17733,0.0082296,0.15722,-0.16892,-0.06854,0.255,-0.3465
0.035145,0.039592,0.026372,-0.046375,-0.040275,0.097741,-0.16161,-0.13483,0.12025,0.038023
-0.10725,0.0011126,-0.045395,-0.036135,-0.20828,0.07065,0.083883,0.068246,-0.011036,0.11503
-0.1056,-0.10533,0.18625,-0.09191,-0.14022,-0.16992,-0.030701,0.06637,-0.048569,0.13907
0.032174,-0.16597,-0.1019,-0.11891,0.10638,0.12673,0.018296,-0.014644,-0.054115,-0.050069
-0.089566,-0.089092,-0.13406,0.11998,-0.023552,-0.16641,-0.044944,0.10134,-0.048573,0.069558
0.096976,-0.0095779,0.16308,-0.041596,-0.11907,0.12681,-0.026964,-0.033299,-0.035357,-0.052298
-0.21076,0.018604,-0.17062,0.046028,0.093186,-0.0070063,0.18794,0.12303,0.11364,-0.047437
-0.22948,-0.0027471,-0.06139,-0.0023335,-0.0066509,-0.25095,0.48836,-0.075466,-0.0354,-0.10988
0.093857,-0.01868,-0.041065,0.033251,-0.053768,-0.33545,0.31233,-0.17513,-0.38587,-0.22733
-0.057324,-0.077937,-0.032335,0.061906,0.020045,-0.18444,0.29566,-0.21832,-0.049022,-0.37203
0.085396,-0.030574,-0.083228,-0.24816,0.19695,0.096655,0.070166,-0.13899,-0.033023,-0.16807
0.14882,0.11373,-0.0074658,-0.05308,-0.0098913,0.064746,-0.28412,-0.22813,0.10165,0.0070169
0.061698,0.2532,-0.062808,0.087175,-0.20438,-0.094951,-0.47102,-0.0090707,-0.2784,0.010167
0.41754,-0.10378,-0.026547,0.13396,-0.17375,-0.066557,-0.43901,0.15325,-0.3181,-0.22316
0.3325,-0.19366,-0.19322,0.10189,-0.13874,-0.24872,-0.46397,0.34251,-0.24964,-0.26677
0.090529,-0.075226,0.0082112,0.25317,-0.010618,-0.43133,-0.33511,0.2581,0.38043,0.19471
0.064085,-0.036811,-0.068388,0.14928,0.026175,-0.31547,0.03931,-0.1093,0.40089,0.24507
0.090049,-0.24794,-0.13979,-0.06953,-0.14915,-0.01739,-0.0096848,-0.071668,0.18811,0.27165
-0.078843,-0.20377,-0.12901,0.10853,0.052857,-0.053456,-0.072976,-0.077105,-0.53276,0.098072
-0.37585,-0.32651,-0.055793,0.1831,0.070773,0.18094,-0.06323,0.086433,-0.32876,-0.068684
-0.17217,-0.30196,-0.14084,0.089045,0.4421,0.085457,-0.066653,0.20191,-0.35242,-0.19518
-0.28873,-0.30342,0.029671,0.16594,0.28604,0.089049,0.0065352,-0.0037389,-0.22482,0.04695
0.00024678,-0.1136,-0.13143,-0.051915,-0.19722,0.07757,0.23049,-0.28313,-0.24332,-0.18762
-0.059712,-0.35748,-0.11618,-0.010219,-0.045411,-0.062699,0.1452,-0.081533,-0.46189,-0.37331
0.01624,-0.035185,-0.12241,0.024027,-0.026339,-0.054415,0.22875,-0.11043,-0.30788,-0.27344
-0.22217,-0.34761,0.18716,0.021061,0.06517,0.2044,-0.062105,-0.074862,0.089891,-0.25421
0.040078,0.012537,-0.12474,-0.045585,0.23969,0.30721,-0.11444,-0.15296,0.052524,-0.027549
-0.10286,0.11985,-0.088238,-0.028923,0.21091,-0.057966,-0.21035,-0.083669,-0.03398,0.14268
0.10506,-0.039373,-0.15254,-0.12263,0.10191,-0.17998,-0.14288,-0.017497,0.093359,0.16779
-0.020156,0.0087017,-0.096208,0.085467,-0.16766,0.10243,0.11234,0.061067,0.043029,0.077008
0.098468,-0.049504,-0.04362,0.10355,0.090854,0.037273,0.097573,0.037042,-0.25088,0.18318
-0.14649,0.076792,0.012424,-0.016057,-0.11908,0.20101,0.191,-0.033708,-0.034322,0.014233
0.086346,0.032049,0.023604,0.011078,-0.010616,-0.035223,-0.041495,-0.13655,-0.20291,-0.012119
-0.059787,0.023094,-0.089868,0.090942,-0.036442,-0.017766,-0.17962,-0.012239,0.11619,-0.10793
-0.2017,0.066828,-0.030952,-0.0070046,0.088822,-0.032427,0.23664,-0.064901,0.082978,-0.02829
-0.045334,-0.1134,0.020541,-0.072528,0.065,-0.11423,0.42109,-0.075556,0.10453,-0.082811
-0.025114,0.059085,0.022852,-0.022705,0.090798,-0.070811,0.34813,-0.092976,-0.037336,-0.082794
0.07005,0.049696,-0.069602,-0.10188,0.23072,-0.074933,0.028767,-0.1753,-0.077247,-0.41761
0.12346,0.1988,-0.24849,-0.17037,0.053532,0.44763,-0.09708,-0.4269,-0.10903,-0.36355
0.022193,0.14716,-0.034261,0.11913,0.17045,0.27259,-0.375,-0.21766,-0.21808,-0.33864
-0.12898,0.073457,0.040922,-0.14416,-0.027478,-0.072902,-0.37962,-0.028289,-0.14497,-0.027427
-0.091572,-0.10222,-0.036761,0.059899,-0.12949,-0.024225,-0.54668,-0.028048,-0.1114,-0.26784
-0.016448,-0.15985,-0.070944,0.1032,-0.02049,-0.28226,-0.57759,-0.12197,0.16202,-0.0022599
0.075379,-0.25488,0.13568,0.05942,-0.057049,-0.55124,-0.25392,0.15294,0.32023,0.12073
0.084865,-0.042283,0.13075,-0.079768,-0.18565,-0.36234,-0.01935,0.0017965,0.318,0.3037
-0.055479,-0.15551,0.0077136,-0.20433,-0.12829,-0.15104,-0.080554,0.16462,-0.23549,0.10942
-0.02252,-0.10295,-0.26044,-0.062705,-0.025605,-0.024349,-0.044988,0.19852,-0.24667,-0.017663
-0.13903,-0.32195,-0.30741,-0.07502,0.11421,-0.12798,0.018616,0.075751,-0.32596,-0.16133
-0.044475,-0.079378,-0.10256,0.085997,0.21624,-0.019648,0.077781,0.21204,-0.31251,-0.14878
0.15648,-0.10445,-0.25488,0.036762,0.050476,-0.16975,-0.034354,0.0027491,-0.21098,-0.19115
0.06227,-0.14479,-0.19406,0.091717,-0.30595,-0.068657,0.20526,-0.18275,-0.17367,-0.28725
-0.090114,-0.18789,-0.028979,0.02704,-0.39278,-0.31592,0.025237,-0.088872,-0.0577,-0.1948
-0.040721,-0.23132,0.25389,-0.059169,-0.29865,0.046687,0.071732,-0.11228,-0.14064,-0.054504
-0.16893,-0.12517,0.06085,-0.089241,-0.021374,0.12455,0.082664,-0.043649,-0.15022,-0.079602
-0.23627,-0.013045,0.089587,-0.24774,0.12059,0.18491,-0.17696,-0.25206,0.082336,-0.15515
0.017674,0.050329,-0.040862,-0.20195,-0.068354,-0.086234,-0.061094,-0.033494,-0.17422,-0.043012
0.033107,-0.073739,-0.10382,-0.11337,0.020928,-0.1979,-0.16067,-0.26971,-0.093113,0.069658
0.052249,0.0014195,-0.031015,-0.033198,-0.14475,-0.04619,-0.083663,-0.097547,-0.068736,-0.0025773
0.02502,-0.018563,0.044582,0.042344,-0.14156,0.0011547,0.1062,0.07707,0.05724,-0.037344
-0.0089729,-0.062433,-0.075656,0.022831,0.011225,-0.089654,0.017083,-0.047772,-0.13811,-0.064607
0.012339,0.083676,0.15833,0.085703,-0.13941,-0.1095,0.055657,0.04659,-0.0044202,0.052262
0.19218,0.036013,0.1821,0.0048208,-0.13819,-0.04444,0.088044,0.056666,0.050146,0.050045
-0.042693,-0.055444,-0.097755,0.10227,-0.042228,-0.18897,-0.049455,-0.063363,-0.033689,-0.048171
-0.1785,-0.10572,-0.022251,-0.018408,-0.26119,-0.24997,0.28869,0.077075,0.051797,-0.15212
0.040627,-0.0089951,0.0029126,-0.12588,-0.069347,-0.25943,0.089002,-0.0092855,-0.14978,-0.033284
0.13613,0.0080573,-0.013107,-0.056483,-0.081128,0.026808,0.086266,-0.10559,0.054627,-0.31721
0.1566,-0.0039571,0.051446,-0.012757,-0.0132,0.11141,-0.10268,-0.1229,-0.23616,-0.4094
0.11359,0.00948,-0.10062,0.035877,0.067755,0.10582,-0.17759,-0.23079,-0.21704,-0.16333
0.076135,-0.17779,0.021431,0.07465,0.060496,0.51864,-0.31431,-0.10682,0.032786,-0.19214
0.22318,-0.28034,-0.18397,0.12322,-0.040979,0.012886,-0.33124,0.21422,0.12192,-0.36507
0.087745,-0.22642,0.048827,-0.014011,0.13678,-0.24227,-0.48211,0.27168,0.35125,0.024961
0.027193,-0.010515,0.18248,-0.071737,-0.15255,-0.4373,-0.45116,0.034313,0.32807,0.044726
-0.079842,-0.19691,-0.0051606,-0.094719,-0.33561,-0.43695,-0.094915,0.23333,0.26677,0.11811
0.19412,0.10715,-0.090777,0.060689,-0.10146,-0.024394,0.1978,-0.036588,-0.07795,0.057221
0.20908,-0.082579,-0.27843,-0.13128,0.010649,0.0091251,0.12474,-0.04765,-0.16861,-0.32023
0.1528,-0.18635,-0.14894,-0.14481,0.025085,-0.031251,0.14955,0.093743,-0.22995,-0.32552
0.040976,-0.070709,-0.17485,-0.10567,0.1,-0.24867,0.30788,-0.26439,-0.39895,-0.34276
-0.018226,-0.095113,-0.031947,-0.084181,-0.24417,0.00071956,0.33624,-0.29503,0.021896,-0.061297
-0.040387,-0.12232,0.096458,-0.060067,-0.26665,0.011603,0.084367,-0.23965,-0.26701,-0.034668
-0.064202,-0.044934,0.033124,0.021854,-0.25128,0.20131,-0.091914,-0.012043,-0.13856,-0.10216
-0.24664,-0.3052,-0.019649,-0.20016,0.064417,0.094317,-0.16557,0.047102,-0.084326,-0.24971
-0.23446,-0.3723,0.1496,0.099731,0.00048774,0.096594,0.065181,-0.17485,-0.20079,-0.016185
-0.14199,-0.010016,-0.0091414,-0.014715,-0.15356,-0.01497,-0.30437,-0.15709,-0.093632,-0.049665
0.029223,-0.11575,0.23554,-0.11868,-0.16869,-0.047445,-0.064899,-0.039594,0.070956,-0.050633
-0.21593,0.054663,-0.022253,-0.090785,-0.13411,-0.082918,-0.082189,0.030693,-0.0083884,-0.17776
0.04658,0.059627,0.036295,-0.096678,-0.017218,0.077754,-0.018149,0.20623,-0.055798,-0.19011
0.04142,0.10178,0.039501,-0.16118,0.16664,0.20605,-0.18011,0.029391,-0.22242,0.058624
-0.10587,0.064606,-0.01125,-0.024817,-0.07147,-0.12293,-0.1471,0.080888,-0.020897,0.050162
-0.094601,0.077143,-0.1829,0.11934,-0.018037,-0.019007,0.15835,-0.042625,0.015295,-0.037802
-0.058852,-0.027793,0.2087,-0.15636,-0.15948,-0.021362,-0.17547,-0.098878,0.15123,0.063488
-0.096464,0.22378,0.028583,-0.17452,0.11974,-0.19403,0.21172,0.013232,0.069283,0.031672
0.0060311,0.014781,-0.069474,-0.023271,0.041995,0.008904,0.06172,0.025085,0.099979,-0.13903
-0.086655,0.094971,-0.082038,-0.27278,0.086463,-0.0058194,-0.02372,-0.10325,-0.18109,-0.14769
-0.12842,0.16641,0.10438,-0.27048,0.14083,0.080719,-0.18665,0.027319,-0.060854,-0.088176
0.026966,-0.073708,0.04005,-0.22129,-0.0047531,0.26938,-0.32225,0.0020731,0.031635,-0.28502
0.045846,0.26689,0.032046,0.015552,0.31963,0.15395,-0.22002,-0.10559,-0.022913,-0.35357
-0.1801,-0.29747,-0.057792,0.0066693,0.12223,0.067646,-0.38905,0.14445,0.16817,-0.36832
0.25148,-0.10634,-0.15527,0.026499,-0.093082,0.078195,-0.34547,0.067062,0.20531,-0.24104
0.10956,-0.048708,0.026897,0.0033389,-0.20382,-0.31364,-0.29254,0.023772,0.34089,-0.14991
-0.050819,-0.13948,0.03659,-0.037495,-0.094001,-0.4376,-0.1954,-0.024777,0.30975,-0.15583
0.067692,-0.24653,0.0081149,-0.065973,0.013497,-0.2898,0.011201,0.093584,-0.087594,0.065831
0.19888,-0.1437,-0.1139,-0.17999,0.013371,-0.3621,0.29459,-0.050032,-0.15285,-0.096765
0.19701,-0.050111,-0.25053,-0.32989,0.11143,-0.26403,0.10725,-0.013747,-0.016436,-0.072
-0.0043565,-0.040948,-0.099718,0.0018831,-0.086959,-0.20048,0.086097,0.044373,-0.23614,-0.30899
0.17472,-0.055999,-0.11339,-0.10543,-0.20036,-0.14155,0.16665,-0.079231,-0.16162,-0.057357
-0.0010081,-0.13998,0.018037,0.034434,-0.21108,-0.05703,-0.12542,-0.09861,-0.26344,-0.1169
-0.12862,-0.090861,0.056056,-0.16457,-0.31832,0.24849,0.0063601,-0.33649,-0.070536,-0.23086
-0.021822,0.088075,0.10251,0.088663,-0.26926,0.13882,-0.15222,-0.20634,-0.10134,-0.11444
-0.085662,-0.05198,0.10675,-0.09678,-0.11937,-0.00074887,-0.12412,-0.14354,-0.29127,-0.12468
0.07603,-0.10779,0.28508,-0.11267,-0.16592,0.11904,-0.19048,0.056314,-0.1985,0.015967
0.029638,-0.022861,0.14839,-0.012958,-0.11104,0.09457,0.10264,-0.046458,-0.10635,0.074834
-0.099685,0.089467,0.074622,0.20602,-0.05429,0.073797,-0.10957,-0.2239,-0.27675,0.036778
0.048625,-0.035975,-0.07741,-0.10138,-0.042803,-0.027598,-0.021688,0.11002,-0.12271,0.059481
-0.021148,0.083588,-0.069132,0.16867,-0.11789,-0.16085,-0.061061,0.022634,-0.079043,0.046541
-0.12867,-0.08032,0.057271,0.050543,-0.054421,0.051004,0.0052954,0.0028583,0.055037,-0.12227
0.015763,-0.071093,0.044522,-0.089294,-0.023574,0.031299,-0.0035802,-0.04653,-0.022891,0.05704
-0.00074153,-0.080069,-0.1326,0.076421,-0.036175,-0.099716,0.073815,0.12109,-0.11368,-0.087175
-0.052865,-0.18164,-0.15002,0.022182,0.069914,0.18721,-0.119,-0.084431,-0.025989,0.061536
0.00049563,0.14278,0.099924,-0.046994,-0.091138,-0.040627,0.013215,0.21917,0.074152,-0.10944
-0.099037,0.12374,0.013843,-0.0502,0.04886,0.088359,-0.18483,-0.018897,-0.015571,0.10975
0.16654,-0.024702,-0.053633,-0.33175,0.17073,-0.027293,-0.05251,-0.12033,-0.23636,0.030601
-0.22491,0.084478,-0.0053742,-0.22874,0.25195,0.32973,-0.034575,-0.18887,0.11104,-0.038561
-0.21005,0.13571,-0.039344,-0.14134,0.16922,0.13226,-0.13085,-0.080006,-0.065549,-0.24939
0.0021912,-0.12982,0.013567,-0.03704,0.2211,0.14155,-0.327,-0.093599,0.1153,-0.13557
-0.11175,-0.24161,0.017047,-0.081426,-0.022165,0.33342,-0.24008,-0.06201,0.47161,-0.34259
0.032227,-0.19617,-0.20149,0.042377,0.063387,0.0017008,-0.36747,-0.0073748,0.54254,-0.33276
0.15004,0.019829,0.020679,-0.10593,-0.16919,-0.13321,-0.27621,0.10626,0.36584,-0.17752
0.37123,-0.008901,-0.03887,-0.030433,-0.19316,-0.19023,-0.10901,-0.067206,-0.12005,-0.01621
0.25746,-0.048574,-0.065244,-0.22474,-0.19396,-0.28322,-0.23094,0.018043,-0.21177,0.046126
0.22413,0.072381,-0.071605,-0.11253,-0.28554,-0.044119,-0.072767,-0.0625,-0.13493,-0.082418
-0.083873,-0.15946,-0.2089,-0.035603,-0.02621,-0.31824,0.029511,0.026487,-0.092642,-0.0788
-0.058736,-0.17362,-0.059416,0.046085,-0.023869,-0.30878,0.12767,-0.20781,0.060487,-0.038417
0.092322,-0.037673,-0.11095,0.019306,0.11245,-0.24769,0.036079,0.019009,0.1203,-0.17105
-0.21614,-0.0048726,0.1234,0.036754,-0.049098,-0.13235,-0.08449,-0.1968,-0.023684,0.044298
0.093081,-0.025141,0.24764,0.1252,-0.052377,0.10337,-0.12762,-0.22097,-0.23486,0.037723
-0.069188,-0.15526,0.30355,0.12659,-0.19754,0.00061348,0.12694,-0.016923,-0.12374,0.074573
0.080855,-0.12466,0.19796,-0.064947,0.046847,0.040472,-0.028493,0.085367,0.18638,-0.056381
-0.21653,-0.08318,0.22398,-0.016627,-0.030729,-0.0002338,-0.16277,-0.10679,0.010357,-0.16321
0.021242,0.0005645,-0.015635,0.10937,-0.076115,-0.055986,-0.00091479,-0.025522,-0.013565,-0.088677
0.019501,0.014601,0.049695,-0.011604,0.091601,-0.057081,-0.23196,-0.16942,-0.10143,0.055743
0.11181,0.021761,0.10766,0.0091669,0.052313,-0.10471,0.089022,-0.19481,0.034142,-0.051411
-0.036019,-0.074638,-0.21192,0.14649,-0.026279,0.007272,-0.21644,0.10375,-0.0544,0.034175
-0.13877,0.056204,0.046216,0.089203,0.019243,-0.026036,0.056311,0.07566,0.043501,-0.073447
-0.074773,0.10497,-0.24599,-0.065707,-0.05045,0.079451,-0.17308,-0.0023196,0.11365,0.011058
-0.052625,-0.019879,-0.030486,0.0003798,-0.084693,-0.30285,-0.021842,-0.051758,0.17657,-0.018657
-0.032371,-0.034435,0.039823,-0.11241,0.020944,0.18293,-0.13132,-0.12422,-0.0016749,0.039378
-0.021318,0.05048,-0.1673,-0.02487,-0.02716,-0.11394,0.027717,-0.055712,0.23728,-0.16666
0.025339,-0.082703,0.07277,0.089867,-0.039115,0.082772,-0.108,0.14948,0.17089,0.13173
0.23487,0.16124,-0.00039657,-0.18872,0.053781,-0.17648,-0.092728,-0.03938,-0.11303,-0.026114
-0.10831,-0.084255,0.014935,-0.020845,0.022018,0.21385,0.096716,0.025368,0.11693,-0.059037
-0.17261,-0.010331,-0.040936,-0.22148,0.080758,0.092823,-0.23221,-0.015697,0.024566,0.078901
0.071119,-0.13139,-0.13706,-0.22066,0.25309,0.60603,-0.10225,-0.1995,-0.078463,-0.11352
0.18559,-0.14802,-0.02837,-0.16068,-0.19214,0.40637,-0.28065,-0.2199,0.33378,-0.050063
-0.027126,-0.11795,-0.071085,-0.29673,-0.12007,0.16767,-0.22774,0.075686,0.4467,-0.21346
-0.042055,0.060877,-0.23485,-0.084233,-0.18167,-0.20992,0.010675,-0.011163,0.2186,0.011491
0.28303,-0.052083,-0.02893,-0.1695,0.13443,-0.25138,0.010642,0.23711,-0.0021703,0.0049941
0.19106,-0.012488,-0.014555,-0.23125,-0.10232,-0.18602,0.034463,-0.067454,-0.16456,-0.018626
0.23753,-0.027558,-0.0078435,-0.040417,0.10965,-0.19332,0.17167,0.0072924,0.18312,-0.038848
0.20553,0.095427,-0.0532,-0.092535,0.0012452,-0.19851,0.022526,-0.050318,0.057984,0.036497
0.23536,-0.23757,-0.014668,-0.069185,0.0032697,-0.23911,0.058816,-0.1036,0.091631,-0.13294
0.0018509,0.041142,-0.19741,-0.010593,-0.13829,-0.16238,0.038085,-0.12922,-0.0070746,-0.13083
0.066334,-0.016574,0.38054,-0.026521,-0.14618,0.055507,-0.056038,-0.16422,-0.093096,0.034251
-0.063426,-0.18113,0.11486,-0.079674,-0.063612,0.064177,0.010107,0.013461,0.070488,0.030529
-0.16129,-0.037649,0.079498,-0.056565,-0.10239,-0.055685,-0.23827,-0.11012,-0.17055,0.052558
-0.053854,-0.08507,0.21252,-0.067423,0.18414,0.1706,-0.13567,-0.13332,0.028674,-0.039819
-0.14319,-0.057057,0.091057,-0.066277,-0.1321,0.0089418,-0.16687,-0.028745,-0.068016,0.0017766
0.24321,0.049053,-0.063509,-0.12412,0.14585,0.14814,-0.1878,-0.083059,0.0046954,-0.1462
-0.041971,0.0013893,0.06443,-0.154,0.048332,-0.073658,0.048945,-0.03302,0.065945,-0.13048
-0.015759,0.06903,-0.042223,-0.11126,-0.035767,0.15595,-0.045175,-0.19486,0.093206,0.041526
-0.024646,0.17191,-0.1125,0.052786,-0.1041,0.025764,-0.10564,-0.12351,-0.035216,-0.10725
-0.011775,0.069548,0.16479,0.00054423,-0.074786,0.065421,-0.019987,0.006087,-0.02967,0.013671
0.12171,-0.012087,-0.030668,0.089986,-0.067844,-0.12757,-0.17386,-0.077295,-0.25151,-0.15582
-0.13866,-0.070777,-0.077404,0.118,-0.13501,0.0084527,-0.12233,-0.064474,-0.14741,-0.044645
-0.076783,0.18418,-0.13542,-0.07637,0.15247,0.18804,0.03124,0.18485,0.20699,-0.09387
0.1013,-0.038177,-0.031204,-0.10567,-0.081449,0.0017305,-0.17305,0.12822,0.031676,0.055633
0.046977,0.1049,0.14895,-0.18606,-0.12179,0.0084829,0.11871,-0.022339,0.054088,0.00093798
-0.017838,0.07719,0.047717,-0.049153,0.0065937,0.091989,-0.16449,-0.12076,-0.13851,0.0249
0.075356,0.054066,-0.11359,-0.011,0.061733,0.17095,-0.0315,-0.10643,-0.067179,-0.18734
-0.14107,0.021343,-0.05831,0.01971,-0.064603,0.21662,-0.13441,0.19937,-0.20486,-0.18546
-0.051237,-0.10239,0.041257,-0.10119,-0.018097,0.3781,-0.12935,-0.07298,-0.14161,-0.16472
-0.079617,-0.0077384,0.10012,-0.14428,-0.024008,0.49217,-0.06217,-0.051708,0.050988,0.0042467
0.19472,-0.087031,-0.1015,-0.030668,0.065205,0.27609,0.0011463,-0.052171,0.011048,-0.025549
0.11006,-0.012355,-0.12416,-0.097346,-0.075351,-0.090822,0.082775,0.080009,-0.10098,-0.015431
0.13502,-0.0059109,0.010464,-0.0072182,0.064524,0.057454,-0.027796,-0.11454,-0.15156,-0.09537
0.010912,-0.055741,-0.1454,-0.018751,-0.18049,-0.053781,0.029067,-0.11014,-0.10434,-0.11642
0.080927,-0.13036,0.077829,-0.13649,-0.070586,-0.075402,0.029712,-0.2056,0.10172,0.093549
0.14217,-0.055397,-0.092281,-0.049552,-0.018885,0.057903,0.17127,-0.1757,0.17562,0.038694
0.11559,0.10617,-0.035927,0.028045,-0.26871,-0.21647,0.11084,0.016916,-0.10383,-0.12592
-0.076301,0.19214,-0.096007,0.11362,0.010888,0.10539,-0.16664,-0.044593,0.01305,0.12927
0.073417,-0.026723,0.066749,0.012905,-0.073223,0.021434,-0.14625,0.014272,-0.037404,-0.20332
0.053118,0.031144,0.2109,0.15066,-0.13004,0.028476,-0.21044,-0.099051,-0.15524,0.012579
-0.17675,0.027217,0.19813,-0.076364,0.11233,0.087751,-0.14884,0.025116,-0.11152,0.066841
-0.13245,-0.22442,0.21122,0.0058726,0.007052,-0.15786,0.035806,0.054393,-0.19986,0.016388
0.15433,-0.026077,-0.082047,-0.039297,-0.089241,0.20189,-0.076986,0.18911,0.079587,-0.096072
-0.053875,-0.094078,-0.0081669,0.0053385,-0.033795,-0.0078206,0.13425,-0.0091311,-0.0032157,0.025376
-0.11412,-0.15917,0.00066983,-0.10892,-0.14368,-0.22729,0.049597,-0.019938,0.10753,-0.021158
-0.036961,-0.070119,-0.0026618,-0.010349,-0.10531,-0.16415,0.032084,0.0073117,-0.07504,0.020223
0.12441,0.16813,0.021626,-0.031536,0.13638,0.12727,0.20952,0.006261,-0.040791,-0.031476
0.042881,0.0091219,0.018019,-0.037326,0.20058,0.01801,-0.039013,-0.01709,0.053204,0.051372
-0.22504,-0.10744,-0.052052,-0.036425,0.075906,-0.0053922,0.036881,0.1875,-0.0019126,-0.050151
-0.055121,0.071617,-0.023958,-0.025827,-0.0737,0.031131,0.061225,0.12386,0.14391,-0.12993
-0.15912,0.04917,-0.069302,0.00088412,0.034343,-0.097602,-0.064319,-0.051887,-0.087015,0.090962
-0.061115,-0.030947,-0.068491,0.12959,-0.054262,0.036503,0.018675,0.082761,0.14877,0.097671
-0.19,0.055934,0.09326,-0.037907,-0.070489,-0.051014,-0.14178,0.1244,-0.033286,0.083914
0.066639,-0.035676,-0.12458,-0.00053371,0.09881,0.039565,0.10169,-0.093373,-0.014946,-0.16023
0.079577,-0.13412,-0.031536,-0.17002,0.22253,0.16939,0.18224,-0.11365,-0.047392,0.038078
0.025714,-0.12989,-0.12669,0.0092046,0.045314,0.15597,-0.0013417,-0.046412,-0.062084,-0.11579
0.0018613,-0.034072,0.037002,-0.017367,0.082457,0.3625,-0.28138,0.0044314,0.17749,0.061321
0.058907,-0.14915,-0.14744,-0.09326,-0.12239,0.44565,0.12839,-0.015014,-0.039091,0.040466
-0.10328,-0.095065,-0.1931,0.022546,-0.07222,0.17613,-0.17126,-0.021042,0.16428,0.082694
-0.067815,0.0082364,-0.15052,-0.031964,-0.043436,0.029071,-0.13667,0.019509,-0.026917,0.1799
-0.12987,0.025119,0.039887,-0.027678,0.13214,0.097627,-0.08679,-0.095368,-0.021719,-0.14276
-0.18422,-0.15673,0.2134,-0.11293,-0.047327,-0.10751,-0.013768,-0.087997,0.014599,0.038561
-0.09049,0.031057,-0.05796,0.087716,-0.0033852,-0.013011,-0.1157,0.031987,-0.0067058,0.15763
-0.13206,-0.006643,0.086996,-0.092515,0.05421,0.053089,0.32115,-0.015191,-0.13308,0.0021541
0.0019929,0.062769,0.19677,0.0085565,-0.053637,0.043432,-0.087448,-0.029603,-0.10355,-0.001067
-0.039801,0.082927,0.18195,0.0082089,-0.093353,-0.073443,0.08648,-0.17216,0.040052,-0.075975
0.042537,-0.14414,0.25075,0.063719,-0.017449,0.018193,0.020987,0.01925,-0.032568,0.092244
-0.087991,0.058296,0.0066272,0.072509,-0.072215,-0.0003251,-0.13366,0.037333,0.016573,0.020059
0.036866,0.014106,0.11747,-0.13557,-0.054369,-0.11574,-0.10171,-0.13965,0.067199,0.12118
0.02421,0.10218,-0.0040067,0.12339,0.087233,-0.09438,0.16401,-0.020513,0.013957,-0.10324
-0.15132,0.0032356,-0.13531,0.054512,-0.011148,-0.043747,0.071962,-0.0026091,-0.044217,-0.08312
-0.18869,-0.073877,-0.035069,-0.094957,0.082124,0.10681,-0.11032,0.081082,-0.0083376,0.004208
-0.23337,-0.20463,0.035452,-0.098969,-0.13621,0.072501,-0.028001,-0.07405,0.13618,0.019375
-0.065503,-0.1019,0.18349,-0.040949,-0.0097424,0.13243,-0.011283,-0.064053,0.067448,-0.09488
0.0083719,-0.12079,0.089769,-0.053584,-0.12432,0.088053,0.063774,-0.081523,0.080319,0.036957
0.051141,0.015469,0.02523,0.09655,-0.0013219,0.033612,0.097697,-0.17805,0.0905,-0.027816
-0.099467,-0.13467,0.098403,0.10186,-0.11741,0.0031712,0.10029,0.0064596,0.095601,0.12719
-0.042482,-0.13989,-0.051456,0.02113,0.032167,0.020585,0.097508,0.031246,-0.076871,0.0055363
-0.22709,0.014188,-0.13107,0.10264,0.083026,0.13071,0.029774,-0.080366,0.24913,0.026325
0.17824,0.1906,-0.068732,0.010982,-0.042721,0.02686,0.16826,-0.095426,-0.015387,-0.089491
-0.078721,-0.086766,-0.11855,0.13266,0.016484,0.10241,-0.084133,-0.11799,0.0041459,-0.1675
0.037492,-0.15963,0.098239,0.12186,0.085748,-0.0033768,0.20818,-0.01978,-0.15049,-0.23246
-0.16036,-0.23187,-0.013585,-0.12708,0.065461,-0.20913,0.067916,0.10625,0.1087,0.20092
-0.053842,-0.08944,-0.11937,0.083628,0.0045933,-0.032165,0.13864,-0.28362,0.066201,0.053348
0.075366,0.052663,-0.021482,0.035167,-0.18222,0.055679,-0.03994,-0.22905,0.054125,0.12872
-0.12925,-0.023971,-0.089349,-0.02314,-0.054531,-0.02084,-0.085699,0.10307,0.059382,-0.021543
0.046506,-0.0076424,-0.035312,0.083949,-0.20878,0.027979,0.038822,-0.072027,0.066853,-0.15725
-0.11826,0.066664,0.14229,-0.045009,-0.038312,-0.15024,0.046474,-0.0064121,0.037881,-0.11381
0.089939,0.14642,0.14913,-0.056591,0.08817,-0.067391,0.048327,0.11782,-0.25292,-0.1182
0.06946,-0.19276,-0.074417,0.056642,0.04737,-0.080087,0.020043,0.15232,-0.010763,-0.24045
-0.010032,-0.043089,-0.037439,-0.010595,0.24266,-0.022826,0.067961,0.0030252,-0.016598,0.068543
0.17929,-0.071113,0.043322,0.0094742,-0.019395,0.045392,0.049747,0.065709,0.043377,-0.095201
-0.16262,-0.068854,0.02681,0.11331,0.068555,0.0462,-0.081231,0.018233,-0.032991,0.03165
0.05262,-0.25823,-0.043196,-0.050275,0.0099761,0.099349,-0.13888,0.04703,0.012849,0.014063
0.17803,-0.13871,0.12223,0.024169,-0.095239,0.10084,0.036937,-0.037078,0.0073266,-0.066864
0.031069,0.11836,-0.1376,0.076768,0.0028028,-0.043565,0.015009,-0.15067,-0.017974,0.12688
0.070804,0.068702,0.25467,-0.11653,-0.057013,0.15347,0.049552,0.056868,0.06751,0.031147
-0.0018422,0.0091124,-0.035806,0.010285,-0.092209,0.0092962,-0.14884,0.06254,0.0084935,-0.15312
0.11732,0.072706,0.039839,-0.018585,-0.060285,-0.098938,-0.065453,-0.040316,0.087219,-0.0096008
-0.16314,-0.13725,-0.07063,0.045723,-0.020052,-0.09434,0.019543,-0.056892,-0.05947,0.029646
-0.11317,-0.015595,-0.10207,0.026206,0.26436,-0.095602,0.13449,-0.14542,0.15896,-0.050196
-0.10901,-0.037259,0.1134,0.0029127,-0.052887,-0.12865,-0.11978,-0.053684,-0.08526,0.033484
-0.11453,0.074936,0.0038545,-0.082139,-0.069176,0.12959,0.013109,-0.059845,-0.028858,0.12732
0.23934,0.14814,0.023091,0.092337,-0.072368,-0.02628,0.021934,-0.037695,-0.14839,0.044361
0.17305,-0.087395,0.012573,0.14929,-0.00013246,0.10125,0.028563,0.16485,-0.064682,0.11035
-0.061966,0.10854,0.069629,0.049234,0.11477,-0.051349,-0.081062,0.035346,0.12652,0.19213
0.044178,0.0056387,0.17395,0.084527,-0.11609,0.14287,-0.081674,-0.0403,0.047323,0.1663
-0.16537,0.12792,0.066538,0.0048235,-0.24546,0.034724,-0.054848,0.029777,-0.095586,0.035132
-0.070597,0.098538,0.068753,-0.039443,-0.0085614,-0.094451,0.0068705,0.029261,0.050604,0.16306
-0.029231,-0.093272,0.1239,0.018061,0.099641,0.079787,0.048662,0.11639,-0.072019,-0.15362
0.030543,0.19151,0.089866,-0.15527,-0.24145,0.060385,0.20682,0.086627,-0.21103,0.0039289
0.12032,-0.14414,-0.11502,0.16593,0.076886,-0.15659,-0.17007,0.099181,-0.039097,0.051749
0.061655,0.021289,-0.026428,0.093052,0.125,-0.1398,0.09422,0.016271,0.20963,0.026128
-0.0019791,0.15819,-0.16252,-0.18328,0.017425,0.013869,0.10433,0.036472,0.021541,-0.02718
0.12425,-0.1505,0.058164,-0.13128,-0.19597,-0.070214,-0.010079,0.10617,-0.19819,-0.21067
-0.018406,-0.033421,0.19025,0.057538,0.0020023,-0.052049,-0.094775,0.0088825,0.071173,0.0036512
0.065495,-0.038716,0.15801,-0.016099,0.056429,0.076412,-0.034661,-0.15603,0.19609,-0.12498
0.20343,0.015993,0.092103,-0.0030443,0.083192,0.029853,-0.033626,0.017088,-0.0041662,-0.061838
-0.117,0.058325,-0.09379,-0.16021,0.070899,0.10527,0.057817,-0.094166,-0.015007,0.083119
-0.028067,-0.028464,-0.073719,0.01255,0.073331,0.029578,0.024411,-0.0075117,0.060624,-0.085002
-0.097949,0.043856,0.017978,0.018054,0.11254,0.14587,0.071628,-0.04822,-0.083196,0.084308
-0.15686,0.2175,-0.013183,0.063511,-0.11984,-0.035219,-0.0079975,-0.069186,0.030951,-0.076824
0.099011,0.15116,0.097316,-0.14727,0.10266,0.014122,0.048597,0.11325,0.2543,0.19459
-0.046149,0.18411,0.13573,0.10202,-0.17603,-0.0063811,-0.013834,-0.03839,-0.088473,0.10476
-0.17017,0.0602,-0.025115,-0.10617,0.0053415,0.013278,0.17925,-2.4497e-05,0.0074841,-0.11143
-0.10241,-0.068993,-0.007176,0.0060541,0.032688,-0.10917,-0.070486,0.0072493,0.041819,0.074086
0.09855,0.037107,0.10952,0.15133,0.10957,0.069545,0.073296,-0.14298,0.044743,0.22696
0.064679,0.067908,0.048928,0.13295,-0.097833,-0.063878,0.22555,0.11679,0.087794,-0.26488
0.011265,0.10338,-0.16802,0.038821,0.018191,-0.10116,-0.058129,-0.01473,-0.020783,-0.048723
-0.15852,0.075788,-0.081153,0.10619,0.13352,0.2563,0.0070611,0.080107,-0.074789,-0.12804
-0.052041,-0.060123,-0.075222,-0.11526,0.039371,-0.10365,0.07692,0.027148,-0.0063207,0.033787
-0.096231,-0.12914,-0.13259,0.082407,0.075557,-0.22962,0.0090374,0.11291,-0.1937,0.087916
0.13387,-0.1361,-0.018148,0.091364,-0.0031743,-0.029167,0.095402,-0.074157,-0.021899,0.01953
-0.066243,-0.054779,0.013142,-0.10292,-0.059536,-0.087843,0.029615,-0.1719,0.22319,0.00074084
