0.013124,0.20819,-0.0013513,0.074861,0.01584,0.1641,-0.016026,0.03173,0.031148,-0.058623
-0.048035,-0.082719,0.0067409,-0.12009,0.018264,-0.11852,-0.20986,-0.067565,0.14219,-0.022104
0.039407,0.079796,-0.03382,0.13801,-0.056534,0.012621,0.0127,0.096413,0.052848,-0.2296
0.023539,-0.0073048,-0.0090753,-0.093669,0.083843,-0.019492,-0.092494,-0.1018,0.018368,0.080036
-0.0391,-0.010709,-0.18991,0.037604,-0.18736,-0.13945,0.10337,0.0064478,0.033682,-0.023419
-0.12977,-0.065627,-0.019131,0.0044492,-0.16324,-0.017985,0.15817,-0.10361,0.16373,-0.16408
-0.13604,0.041954,-0.15295,-0.12491,-0.12699,-0.07023,-0.095098,-0.13922,-0.15903,0.086655
0.04552,-0.023926,0.14303,0.14483,0.06192,0.051355,0.087187,-0.042372,0.01677,-0.057144
-0.015768,-0.1032,-0.020445,-0.095854,0.083578,-0.083222,0.099347,0.18294,0.058277,-0.14925
0.092226,-0.098393,-0.025143,-0.020638,0.028435,-0.075706,-0.1117,0.013841,0.078637,0.14027
-0.17023,-0.15118,0.017788,-0.093948,-0.011407,0.026465,0.038338,0.060279,0.12382,0.14781
-0.017497,-0.15602,-0.11006,-0.17391,-0.046748,0.035896,-0.084622,0.17445,-0.31524,0.011619
-0.13401,-0.069928,-0.062238,0.1459,-0.00030273,0.040984,0.17206,-0.068451,0.10494,-0.13996
-0.12191,0.036862,-0.058641,-0.025195,-0.1269,0.04526,-0.0038867,-0.10344,0.013467,0.001422
-0.12037,-0.027264,0.044382,0.047293,0.023737,-0.15835,-0.0038535,-0.045347,-0.098797,-0.0060516
-0.069348,-0.085609,-0.047346,-0.13297,-0.10044,0.18475,-0.0081396,0.018612,0.19293,-0.15022
0.088878,0.12384,0.017266,-0.1238,0.043631,-0.024802,0.18736,-0.018576,0.033813,0.11712
-0.048465,-0.14723,0.043648,-0.16032,0.25463,0.052391,-0.11216,-0.020219,0.067896,-0.03959
-0.044782,0.0077096,0.12729,0.097352,-0.093452,-0.15127,-0.12442,0.059809,0.085109,0.073829
0.087932,0.077431,-0.13172,-0.16726,-0.0093189,-0.0068498,-0.029056,0.20711,-0.15338,0.020202
-0.017752,0.026191,-0.014239,0.024267,0.033599,0.0041294,0.067033,-0.054036,-0.15054,0.083938
0.030493,0.11014,0.19366,0.063367,0.088141,0.087337,-0.099391,-0.050234,0.085951,-0.04475
-0.10484,-0.0059659,0.051944,0.031101,-0.083993,0.0090434,-0.065075,0.078624,0.077287,-0.11454
0.1077,0.079563,0.0030482,-0.046057,-0.18072,0.0045633,-0.046981,-0.085966,0.059174,0.075527
0.085453,0.0053121,-0.020179,0.17322,-0.018213,-0.049356,-0.011366,0.10557,-0.031549,-0.1693
-0.10179,-0.05937,0.2801,0.14982,-0.1869,-0.11221,0.083714,0.06786,0.05675,-0.10659
-0.069566,0.14227,-0.036069,0.15802,-0.016134,-0.016015,-0.041354,-0.10132,0.011035,-0.015473
0.068689,-0.0051671,-0.077723,-0.021463,-0.055749,-0.078316,0.1314,0.0069737,0.074302,-0.075246
0.10416,0.0023213,-0.026082,0.10435,0.077925,-0.016326,-0.027119,-0.061103,-0.0064781,-0.017041
-0.033456,0.15056,-0.1961,-3.4003e-05,-0.067095,0.13017,0.1383,0.027447,0.1159,0.077375
0.02446,-0.051718,-0.083056,-0.093182,-0.037197,-0.022688,-0.17197,0.041539,-0.054307,-0.1458
-0.06499,-0.10812,-0.027434,-0.097137,0.040335,0.2703,-0.015493,-0.13517,-0.12429,-0.025418
0.096949,-0.029636,-0.12082,0.17271,-0.010021,0.10521,0.12797,0.14189,0.026912,0.014847
0.0070526,-0.06946,-0.046975,-0.021378,0.0037386,0.26258,0.1056,0.20129,-0.12904,0.098671
0.064653,0.045383,0.087189,-0.090158,-0.083237,0.026997,0.112,-0.17841,-0.049787,-0.060423
-0.0096593,0.047049,-0.050695,0.044224,-0.19765,-0.087522,0.026917,-0.042433,0.054882,0.028273
-0.049842,-0.089722,-0.04091,-0.039936,0.18103,0.16376,0.1828,-0.028624,-0.085771,0.060913
0.083817,-0.087922,-0.10748,-0.0058473,-0.18306,-0.14516,0.033688,0.10353,0.094573,0.10859
0.057957,0.049847,0.049632,0.010699,-0.039613,-0.0774,-0.16742,0.1587,-0.063207,0.097642
-0.0019453,4.6884e-05,-0.03128,-0.10545,-0.015446,-0.027108,-0.049207,-0.09044,-0.036525,-0.0047631
0.087641,-0.10935,0.043945,0.063591,0.059548,0.22079,-0.14985,0.079608,-0.067048,0.12602
0.069485,0.0065353,-0.028581,0.063236,-0.012539,0.0075641,0.032622,-0.11823,-0.1223,0.12521
0.1307,-0.015247,0.15175,0.13833,-0.059445,-0.0824,0.032346,-0.0069508,-0.083611,-0.084076
0.041908,-0.098444,0.23512,0.10809,-0.060223,-0.22136,0.012629,0.042305,-0.036427,0.030259
-0.082234,0.032082,-0.077543,-0.024083,-0.10646,0.10548,-0.1655,0.038773,-0.13124,0.07931
0.033223,-0.11429,-0.016285,-0.045811,-0.081732,0.15262,-0.04064,0.050517,0.22093,-0.004953
0.03772,-0.019487,0.15497,0.058643,0.013828,0.015658,-0.12473,-0.001424,0.2428,0.13871
-0.022361,0.14221,-0.039461,0.062488,0.078892,-0.039523,-0.056863,0.010529,-0.082506,0.02795
-0.050202,-0.074365,-0.089485,0.023848,-0.077722,-0.11813,0.00047423,0.086811,0.00019414,-0.14177
0.086574,-0.072455,0.064601,0.069184,0.0095348,-0.10747,0.034027,0.071439,-0.061668,0.074203
0.062141,0.1645,0.16542,0.1263,0.18183,0.075376,0.07985,0.08683,-0.1102,0.045505
-0.10664,-0.0063017,0.16407,-0.12469,-0.30209,-0.054067,0.065657,-0.11787,-0.18883,0.099001
0.10394,-0.13544,0.036983,0.10081,0.027143,-0.034243,-0.050931,-0.16215,0.11728,-0.064368
0.0084051,0.1195,0.10569,-0.109,0.03191,0.06863,0.039066,0.057165,0.029774,0.066826
0.069816,-0.059684,-0.026691,0.031066,-0.094448,0.021451,0.13612,0.033147,-0.013364,-0.088815
-0.12242,-0.0077468,0.057746,-0.075226,0.14262,0.037832,-0.0016255,0.008446,0.020208,-0.043323
-0.097452,0.042569,-0.061406,0.082015,-0.15115,-0.054659,0.14099,0.15849,-0.14406,-0.019451
0.10602,0.0042792,-0.038791,-0.14101,0.094601,-0.12583,-0.047227,0.11419,-0.13472,0.045724
0.025084,-0.047191,0.085631,0.1777,0.071562,0.082409,0.13965,-0.13524,-0.035328,-0.20819
0.12817,0.14808,-0.056834,-0.032891,-0.094715,0.075022,-0.041134,-0.016195,0.086271,-0.19901
0.069179,-0.046637,0.044585,0.040311,0.095176,0.20524,0.020167,-0.12277,-0.089282,0.12457
-0.08922,-0.18932,0.24234,-0.0082032,-0.002461,-0.038284,-0.08439,-0.080847,-0.02192,-0.02272
0.038755,-0.061147,0.029757,0.096037,-0.18815,-0.077952,-0.085287,0.035712,-0.038788,-0.090527
0.14086,0.060115,-0.086865,0.12034,-0.13113,-0.01531,-0.08551,0.060339,-0.15763,-0.0095542
-0.036334,0.14731,0.044801,-0.1621,-0.056095,0.05389,-0.16389,0.025153,0.026262,0.062948
0.090917,0.030183,-0.16813,0.050589,-0.1931,0.078176,-0.13945,0.024893,0.087534,-0.019672
0.033811,-0.05814,-0.18543,-0.010713,-0.17757,-0.083866,-0.0055885,0.28581,0.024791,0.01618
0.034255,0.039816,-0.16535,-0.069506,-0.031177,0.025073,-0.0064771,-0.015123,-0.062547,-0.11885
0.19443,-0.03374,0.016106,0.086342,-0.011315,-0.059393,0.075835,0.10486,-0.029662,0.18015
-0.19799,-0.0032825,0.11399,-0.13201,-0.030404,-0.011059,0.030161,0.062536,0.09214,0.073936
-0.10284,-0.16137,-0.079472,0.20417,0.14887,-0.050584,-0.024541,0.20277,-0.066029,-0.15921
-0.092455,0.020238,-0.036597,0.015803,0.017371,-0.056173,-0.015306,-0.05928,-0.028208,0.1089
-0.0014182,0.028692,-0.0078936,0.064314,0.11122,0.061727,-0.068666,0.069673,-0.058509,-0.024666
-0.07092,0.14594,-0.074214,-0.053278,-0.041089,-0.0055218,-0.10421,-0.20154,-0.26158,-0.12034
-0.047155,-0.066873,-0.097565,-0.035747,-0.1485,0.012269,-0.0508,-0.13667,-0.039435,-0.16421
0.042688,0.014898,-0.017049,0.028133,-0.0049882,-0.00050393,-0.091938,-0.084404,0.031156,-0.056905
-0.12782,-0.04848,-0.10749,0.094398,-0.22263,0.11371,-0.015223,-0.033317,-0.079177,0.044323
-0.10885,0.17508,0.14801,-0.024467,-0.26704,0.055615,-0.063485,0.064707,0.0086984,0.10081
-0.017416,-0.11966,0.0025321,0.084803,-0.10702,0.27025,-0.012089,0.00057152,0.063626,0.12739
-0.029938,-0.1833,-0.025152,0.063421,0.022941,-0.022204,-0.15045,0.13262,0.046321,0.12244
0.197,0.0011609,0.045487,0.040269,0.075993,-0.075626,0.029196,-0.12807,-0.12289,0.057134
0.041467,-0.019933,0.17944,0.067085,0.041018,0.049346,-0.16319,-0.14889,-0.13065,-0.0060573
0.049037,-0.056883,-0.159,-0.033176,0.097587,-0.058374,-0.062306,0.0040629,0.15288,-0.062506
0.014516,-0.039615,0.12246,-0.122,-0.080019,-0.017052,0.070963,0.018226,-0.15768,-0.071638
-0.25542,0.018687,-0.11612,0.14316,-0.032667,-0.039724,0.29791,0.020747,0.03645,0.07496
-0.10528,0.00049706,0.029521,-0.1292,-0.01331,0.098145,-0.15773,0.025685,-0.055829,-0.17015
-0.14144,-0.034146,0.066902,-0.1899,0.028687,-0.023962,-0.075192,-0.061361,-0.17969,-0.098785
-0.11505,0.0077496,-0.1249,0.17323,-0.087822,-0.15933,-0.13722,0.0011131,0.10114,0.029248
0.072562,0.091812,0.057952,0.16382,0.03626,0.13623,0.0026002,-0.10872,-0.1098,-0.10563
0.010869,-0.043405,0.056972,-0.013591,0.022645,-0.14483,-0.017789,-0.071287,0.075894,0.1378
0.032695,0.068781,-0.013916,0.036444,-0.071099,-0.0034135,0.043096,0.073363,0.15051,0.034889
-0.14129,0.097461,-0.12568,-0.013644,-0.052325,0.031434,0.021996,-0.040282,-0.058832,-0.055329
0.033907,-0.092337,0.14666,0.07006,0.1979,-0.040149,0.032591,0.0183,0.042105,-0.23219
0.028372,0.089438,-0.020057,0.057387,-0.038049,-0.027313,-0.073393,-0.0049838,0.04503,0.049946
0.0049427,0.0040412,-0.06643,-0.23034,-0.084637,-0.016323,-0.015442,-0.069312,-0.16323,-0.052188
0.083246,-0.13114,-0.12027,-0.24874,-0.034097,-0.070419,-0.10573,0.011132,-0.16487,0.15116
-0.09753,0.27609,0.047218,-0.0021787,0.033928,-0.071341,-0.20685,0.099848,-0.019162,-0.033699
-0.035125,0.06768,-0.21542,-0.15177,-0.064909,-0.047509,-0.15234,-0.0135,0.20393,0.031498
-0.11324,0.03433,-0.18153,-0.043485,0.029475,0.024689,0.073851,0.023276,-0.073503,-0.10632
0.064206,-0.1339,-0.049948,0.041268,0.07114,0.14199,0.046031,-0.074647,-0.055979,0.054801
0.11625,0.054016,0.083975,0.085624,0.091932,0.0018713,0.13022,0.07624,-0.096727,0.24993
-0.057097,-0.07033,-0.061235,-0.0017899,0.12061,-0.10081,-0.051436,-0.0070302,0.071276,-0.13802
0.00056163,-0.085674,0.0067786,-0.06418,-0.051149,-0.091199,-0.057199,-0.0047224,-0.21748,0.0091569
0.010246,-0.066062,0.024189,0.01722,-0.11919,0.062756,-0.079077,-0.045696,-0.059201,-0.094671
-0.17942,-0.11361,0.20414,-0.012945,-0.10088,0.10229,0.095746,0.10857,-0.055612,0.052613
0.10872,-0.051404,-0.0075336,-0.075662,-0.053612,-0.12776,-0.06896,-0.083271,-0.020821,-0.029137
-0.19241,0.00075931,0.03063,-0.010124,0.089676,0.0073497,-0.021813,0.16274,-0.21305,0.034818
0.073812,0.10966,-0.13752,0.095778,0.057136,-0.10667,0.020096,0.056274,0.03923,-0.05582
0.031292,-0.060254,-0.055472,-0.036197,0.2351,-0.00066942,-0.036611,-0.038612,-0.058034,-0.061981
0.13861,0.04113,0.037389,-0.021989,-0.0032872,-0.033526,0.1472,-0.02489,0.17431,-0.12401
-0.056329,0.0075027,0.087592,-0.0085197,-0.19436,0.092073,0.09096,-0.018515,0.078242,0.22021
-0.018819,-0.17118,0.059297,-0.11725,-0.14392,0.12667,-0.027114,0.045665,0.094733,0.041527
-0.0050091,0.07522,0.12013,0.21815,-0.15952,-0.061056,0.056969,0.077179,0.0072157,-0.1117
-0.016021,-0.022371,-0.13493,-0.059008,-0.14327,0.064328,0.090108,-0.026524,0.017386,-0.032149
-0.037403,-0.083707,-0.28877,-0.076005,-0.053377,-0.09409,0.01447,0.10247,0.088203,0.00036142
-0.1438,-0.046293,-0.089491,0.063471,-0.14906,-0.040069,-0.095185,0.20325,0.0019351,0.01144
-0.013178,0.088186,-0.17005,0.024586,-0.19456,0.068988,0.13231,-0.011071,0.2222,0.075764
-0.042454,0.11163,-0.065963,-0.07973,0.01148,-0.021764,0.092144,0.041298,0.05767,-0.097394
0.018358,0.11234,0.019585,0.17486,0.096733,-0.1191,-0.083765,-0.090746,0.043514,0.045149
-0.039127,0.24684,0.16204,-0.05205,0.068604,-0.054975,-0.20747,0.069162,0.064476,-0.17065
-0.16511,0.082514,-0.18601,-0.021544,-0.039439,-0.079095,-0.15263,-0.11711,-0.074219,-0.021884
-0.11126,-0.033974,0.065395,0.099216,0.036427,-0.10338,0.032272,-0.084341,-0.047747,0.000607
-0.057439,-0.06589,-0.043299,-0.065897,0.16676,-0.084734,0.086958,0.030156,0.18019,-0.091663
-0.021101,-0.085764,0.081208,-0.068817,0.040812,-0.19391,-0.12506,0.24849,0.047773,0.06091
-0.21126,-0.013388,-0.091552,0.010262,-0.0074537,-0.1153,-0.058449,0.039455,-0.050867,-0.15564
0.012593,0.11536,0.084283,-0.090192,0.13434,0.034164,-0.10382,0.0051979,-0.034041,0.0041692
-0.13583,-0.061131,-0.12751,0.017421,0.044736,-0.039394,-0.08826,0.016432,0.025976,-0.18043
-0.034938,0.0025148,-0.073816,0.029683,0.046874,-0.088867,-0.18309,-0.038676,-0.030534,-0.068194
-0.23534,-0.069629,-0.10209,0.030901,0.071949,0.050055,-0.038313,-0.02831,-0.091569,0.044866
-0.31906,-0.1525,0.090497,0.18291,-0.034361,0.010842,-0.091961,-0.018069,-0.11627,0.12345
-0.052327,-0.14492,0.027636,0.12954,-0.081306,0.082085,-0.035239,-0.059191,-0.024618,-0.12119
0.084794,0.025151,0.13,0.15044,-0.11478,-0.1475,0.073249,0.045846,-0.054966,0.0010026
0.091568,0.11501,0.12401,0.35491,-0.082766,-0.072822,-0.011143,0.15763,-0.099433,-0.051381
-0.21839,0.14694,0.20033,0.0077234,-0.03367,-0.0045769,0.02359,-0.085917,0.10342,0.12799
0.0046242,0.04089,0.086827,0.20991,-0.072624,0.075719,0.14239,-0.092256,-0.17864,-0.08697
0.092082,0.0011901,-0.0096208,0.056864,-0.17738,-0.026642,-0.10237,0.059662,-0.048534,-0.02265
-0.10043,0.023015,0.05316,0.092626,-0.041944,0.004155,-0.10268,-0.18308,-0.0229,-0.15158
0.10404,0.00012895,-0.11761,-0.090975,0.26178,-0.01863,0.09485,0.20885,0.01848,0.22969
-0.16771,0.039338,-0.034475,-0.036479,0.085201,-0.010161,-0.15988,-0.13529,-0.010669,0.075924
-0.071145,-0.10662,0.08363,0.050767,-0.04699,-0.025279,0.13544,-0.08431,0.12776,-0.0032088
-0.098967,-0.07829,-0.047327,0.30301,-0.035768,-0.097793,-0.068963,-0.057696,0.04227,-0.077978
-0.055813,0.018481,-0.010655,-0.1534,-0.18158,-0.049431,-0.076145,-0.12487,0.1015,0.02095
0.001221,-0.034094,-0.0080409,0.080746,0.09674,0.025652,-0.011088,0.0088623,0.055618,0.13656
-0.026214,-0.1881,0.0044745,0.035622,0.037936,0.042672,-0.06142,-0.11198,0.084331,0.04433
-0.10695,-0.017104,0.12536,-0.037865,0.08853,0.12231,-0.031665,0.15534,0.13056,-0.038751
0.059377,-0.073781,0.11825,-0.10135,0.19907,-0.078274,-0.22361,-0.056304,0.020039,0.058535
-0.070159,-0.015304,0.13237,0.12748,0.050758,-0.17792,-0.02622,-0.011176,-0.0034926,0.1447
0.057876,-0.11047,0.12306,0.15026,-0.023329,-0.014607,0.035115,-0.11964,-0.0083313,-0.1571
-0.071533,-0.13597,-0.19171,0.12441,0.10424,-0.069797,0.0658,0.0044405,-0.012205,-0.00040834
-0.11871,0.040279,-0.054162,0.067822,-0.19617,-0.042726,-0.015119,0.069932,-0.038745,-0.082699
-0.056399,-0.067825,-0.2936,0.011581,-0.089841,5.1795e-05,-0.21124,-0.020012,-0.085182,-0.19315
-0.15838,-0.096111,-0.23102,-0.19396,-0.14239,-0.067832,-0.10959,0.00095445,-0.019794,-0.050842
-0.043861,-0.098655,-0.026153,-0.1196,-0.066815,-0.0073841,-0.22239,-0.010085,-0.092383,-0.13712
-0.011357,-0.028116,-0.25631,-0.13063,0.14136,0.036112,0.11804,-0.064967,-0.18519,-0.23678
0.05539,-0.047055,-0.19358,-0.19204,0.20007,-0.07561,-0.025465,-0.037938,0.07385,-0.052743
0.047546,0.042503,-0.19426,0.0084748,0.033164,-0.18972,0.043823,-0.17164,0.011097,-0.078662
-0.035518,-0.058858,0.019632,-0.27315,0.012957,-0.15415,-0.089884,-0.032661,-0.19939,-0.075484
0.16291,0.049637,-0.060706,-0.051131,0.16528,-0.082898,-0.031142,0.046083,-0.039989,-0.010335
0.038711,0.10453,0.0028946,0.1502,-0.24854,0.040939,-0.19842,-0.0017178,-0.11954,-0.073958
0.10395,-0.18147,0.18781,0.21135,-0.098382,-0.18569,-0.17366,0.029493,-0.12574,-0.11131
-0.15788,-0.024085,0.34621,-0.061338,-0.0033332,-0.09928,-0.0032404,-0.1074,-0.0089806,0.028085
0.28718,0.072432,0.2085,0.31955,-0.061789,0.023129,-0.16016,-0.015284,-0.25445,0.093464
0.14426,-0.27326,0.1404,0.10904,0.021614,-0.23081,-0.044319,-0.13022,-0.17582,0.046236
0.034701,-0.12296,-0.06169,0.11608,-0.24195,-0.13015,-0.032066,-0.063572,-0.14568,0.17518
-0.15632,0.060294,0.053939,0.21016,0.18645,0.10894,0.09367,-0.071088,0.08594,0.088266
-0.094495,0.094737,-0.15564,0.053535,0.27799,-0.051622,-0.0030639,-0.059547,0.10241,0.024497
-0.045536,0.060177,-0.17255,-0.03669,0.045073,-0.064495,-0.17207,0.047967,-0.075735,0.020519
-0.060966,-0.041237,0.10554,-0.030137,-0.090325,0.15403,-0.085018,-0.10778,-0.018,0.00031842
-0.094885,-0.080023,-0.076783,0.12459,-0.046082,0.045778,-0.026575,0.14726,-0.00075554,-0.1546
0.057078,-0.2233,0.22648,-0.087997,0.055861,-0.13064,0.085643,0.087909,0.015959,0.038566
-0.25089,-0.11201,0.071923,-0.027835,0.059385,-0.0004592,-0.0022646,0.19234,0.080288,-0.048367
-0.077072,-0.02316,-0.047421,0.15449,-0.020451,0.0086694,0.09935,0.011969,-0.031252,0.013892
-0.0087656,0.28375,0.041582,0.042828,-0.0089822,0.064718,-0.036759,0.044194,-0.11073,-0.009467
-0.20318,-0.0089206,0.10645,-0.11641,0.0012042,-0.1331,-0.088457,0.11826,0.015149,-0.10143
0.037459,-0.072638,0.28691,0.075661,0.026493,0.027592,-0.011187,-0.016258,0.036698,-0.037268
-0.066454,0.11922,-0.017445,0.093507,-0.096557,-0.12114,-0.15516,-0.012255,-0.13517,0.084075
0.0089879,-0.038402,0.093026,0.028027,-0.035331,0.035705,-0.14849,-0.012837,-0.0068311,-0.051991
-0.13322,-0.036993,-0.22638,-0.20245,-0.074238,0.021642,0.024655,0.013061,0.010396,-0.13655
-0.22511,-0.13184,-0.10518,-0.26535,0.016644,0.12288,0.047629,0.12084,-0.19489,-0.049366
0.10375,-0.020518,-0.018737,-0.070166,-0.12699,0.18157,0.16407,-0.035224,-0.073445,-0.042745
0.20109,-0.092738,-0.055617,-0.3004,0.050389,-0.089921,0.020558,-0.087503,-0.087788,0.016976
-0.02426,-0.12941,-0.17402,-0.039017,0.10075,-0.057555,-0.20823,-0.23191,0.046063,-0.09983
0.18382,0.097312,-0.15913,-0.023517,0.0099361,-0.025501,-0.055844,-0.10788,-0.075739,0.095254
0.067842,-0.044966,-0.14117,-0.063222,0.034787,-0.099884,-0.22131,0.001172,-0.02613,-0.054888
0.27832,-0.14955,-0.064122,-0.1463,0.056524,-0.27119,-0.15603,-0.096058,-0.13057,-0.10782
0.27434,-0.13774,0.15822,-0.0025701,0.1961,-0.27968,-0.17162,-0.021006,-0.36866,-0.17005
0.15246,-0.0044119,0.4155,-0.025876,-0.1479,0.11107,-0.45657,-0.12833,-0.30664,-0.21948
-0.021674,-0.34643,0.25128,-0.078366,-0.31336,0.32462,-0.1691,-0.28967,-0.37642,-0.086467
0.098874,-0.094904,0.42386,0.024447,-0.052075,0.23146,-0.14517,-0.35179,-0.26846,-0.37236
0.15177,-0.23295,0.30726,0.034104,-0.18323,-0.15607,-0.17553,-0.032532,-0.12019,-0.25741
0.11426,-0.014588,0.20342,0.36798,-0.050071,0.038823,-0.17944,-0.15299,-0.027069,-0.16725
0.23437,-0.012539,0.024084,0.15566,-0.16683,-0.012965,-0.02645,0.0053353,-0.25719,-0.092873
-0.16579,-0.12957,-0.023543,0.06042,-0.095562,-0.044256,-0.043596,0.042718,-0.14342,-0.16082
0.042141,-0.15938,-0.061386,0.14141,-0.031741,-0.17131,0.21498,0.095351,0.056472,0.020254
-0.059829,-0.0063291,0.037255,0.055357,-0.078801,0.050003,-0.047043,0.1613,-0.11734,-0.03151
-0.0063932,-0.053657,-0.017602,0.18406,-0.1046,0.050179,-0.061231,0.16035,0.13337,0.10995
0.062264,0.041335,-0.016247,-0.12394,0.027376,0.10242,0.04086,-0.028707,0.040424,-0.0187
0.12111,-0.037922,-0.034426,-0.1892,0.037502,-0.18468,-0.25988,0.08704,-0.10891,0.032157
-0.073996,-0.021914,0.059104,0.059054,-0.08202,-0.23639,0.095063,0.18773,-0.02582,0.03699
0.043946,0.060699,-0.11161,-0.10105,0.051277,-0.086,-0.048726,-0.29889,0.095154,0.14786
-0.039692,0.0010963,-0.067433,-0.045623,-0.025766,0.013589,-0.17173,-0.12707,-0.060377,0.15462
-0.06399,-0.080981,0.093702,0.099302,-0.0029854,-0.0081942,-0.067981,0.062771,-0.083381,-0.068328
-0.22606,-0.13143,0.0084298,-0.080134,-0.088556,-0.1784,0.0052273,-0.063241,-0.16501,-0.029407
0.01391,0.020564,-0.00088366,0.13745,-0.062908,-0.093352,-0.10415,-0.11359,-0.24054,-0.20013
-0.1067,-0.19584,0.0013762,-0.024981,0.035814,0.014542,-0.33322,0.11944,-0.017408,-0.14989
0.030191,-0.25658,-0.013706,-0.21945,-0.094375,-0.15493,-0.052079,0.12171,0.027866,-0.17066
-0.11161,0.017847,-0.05507,-0.28229,-0.10523,0.15936,-0.017161,0.2837,0.039321,-0.22792
-0.05149,-0.018198,-0.27961,-0.23793,-0.041553,0.048123,0.014863,0.0054819,0.064008,-0.0085622
-0.020399,-0.10761,-0.32435,-0.28395,-0.013195,-0.026206,0.033593,0.07025,-0.16513,0.020464
0.17376,-0.20247,-0.24395,-0.0015866,0.11173,0.12145,0.14368,-0.20078,-0.068859,0.1089
-0.047567,0.15031,-0.42781,-0.10815,0.33859,0.10322,0.0033998,-0.24446,-0.18528,-0.037473
0.039573,0.05421,-0.25451,0.10888,0.17118,-0.31231,-0.25311,-0.33647,-0.18607,-0.19569
0.28818,0.071149,-0.26233,-0.21406,0.11286,-0.36428,-0.12624,-0.031528,-0.31229,-0.099717
0.045476,-0.20467,0.22237,-0.0051234,0.27771,-0.24643,-0.282,-0.1015,-0.22644,-0.30014
0.39026,-0.13484,0.0067728,-0.17105,-0.03371,-0.0069976,-0.1229,-0.18114,-0.11897,-0.22815
0.077417,-0.20551,0.29606,-0.094593,-0.13537,0.38997,-0.22969,-0.27532,-0.12741,-0.14797
0.033105,-0.15978,0.19228,0.0697,-0.1085,0.50521,-0.096393,-0.095995,-0.075071,-0.22218
0.20354,-0.070689,0.10263,0.00011113,-0.26648,0.1735,-0.024897,-0.32786,-0.094913,-0.14594
0.037078,-0.088128,0.066064,0.040176,-0.17082,-0.064351,-0.22312,-0.048954,-0.10549,-0.24092
0.13403,-0.042322,-0.19311,0.097497,-0.19518,0.0065426,0.087525,-0.12437,0.047115,-0.12739
-0.0096538,-0.01672,0.079342,0.063676,-0.014431,0.19193,-0.1187,-0.0011673,-0.049545,0.14677
-0.16522,-0.051839,0.11741,-0.044525,0.0033006,-0.14688,-0.063283,-0.011108,-0.02618,0.13037
-0.13867,-0.015879,0.022132,-0.042409,-0.068381,0.053549,-0.014156,-0.1598,-0.0072562,0.0051244
-0.093595,-0.023283,0.014949,0.2291,0.084972,0.086759,-0.20341,0.064548,-0.047137,-0.027761
-0.17321,-0.0051592,0.055933,0.1838,-0.019171,0.11148,-0.010418,-0.21331,0.11448,0.11552
-0.20058,0.24359,-0.17956,0.10534,-0.10612,0.096458,-0.05958,-0.0030256,-0.075927,0.044707
0.042344,-0.083891,-0.040288,0.034077,-0.0065437,-0.18648,-0.053528,-0.0061757,-0.043922,0.10515
0.11549,0.06116,-0.059484,0.13182,-0.18651,0.036194,-0.0077467,0.0019915,0.00084744,0.13952
-0.080605,-0.093093,-0.011657,-0.076896,0.11446,-0.073746,0.043701,0.0015339,0.083387,0.0085542
-0.028011,0.00060613,0.35115,-0.22302,-0.028954,0.1055,-0.097854,-0.10883,-0.16808,-0.17961
-0.26986,-0.32005,0.11544,0.15216,-0.043892,0.053221,-0.17496,-0.049398,-0.17715,-0.020563
0.049507,0.055885,0.092009,0.15974,0.006282,-0.059955,-0.23219,-0.10365,-0.14582,-0.19764
0.00834,-0.15673,0.006226,-0.1123,-0.28896,0.23041,-0.089448,0.16555,-0.014535,-0.41683
-0.098076,-0.27217,0.025263,-0.22595,-0.12593,0.051381,0.074657,0.083747,0.075661,-0.45511
-0.092809,-0.061848,-0.32842,-0.39953,0.058711,0.050099,0.0057115,0.045901,0.17223,-0.21945
-0.053928,-0.088904,-0.11558,-0.14953,-0.075904,0.14676,0.14065,-0.031389,0.061331,-0.234
-0.16194,0.0097837,-0.08894,-0.31661,0.022469,0.17122,0.081891,-0.094389,0.056589,0.15165
-0.11226,-0.069878,-0.39952,-0.13871,-0.09582,-0.12808,-0.017564,0.045089,-0.1901,0.33368
0.054594,-0.156,-0.31856,-0.24458,0.037352,-0.08487,-0.15981,-0.26429,-0.16082,0.21502
0.1609,-0.069846,-0.19792,-0.20558,0.28894,-0.16787,-0.074877,-0.34852,-0.36432,0.10076
0.31134,-0.24722,-0.1879,-0.15628,0.23848,-0.41559,0.052631,-0.24281,-0.27201,-0.20594
0.30945,-0.18894,0.30379,-0.25161,0.39905,-0.34399,0.22646,-0.1338,-0.27927,-0.195
0.26314,-0.16282,0.11734,-0.019218,0.078653,-0.072567,-0.034966,-0.17429,0.014947,-0.11536
0.19445,-0.087345,0.25293,-0.14647,-0.30089,0.093688,-0.031716,-0.063972,0.17485,-0.3397
0.096672,-0.20734,0.24534,-0.056047,-0.30074,0.27751,-0.078485,-0.22555,0.15866,-0.21338
0.22171,-0.15601,0.2077,-0.1911,-0.25217,0.064986,-0.00018683,-0.097123,-0.24829,-0.071505
0.1108,-0.11378,0.10894,-0.22062,-0.072735,-0.033523,-0.27396,-0.24309,-0.16136,0.072448
0.060068,0.11742,-0.036792,0.14362,-0.33245,-0.057941,-0.10977,-0.18172,-0.071107,-0.0035861
0.027981,0.014408,-0.079811,0.14296,0.1148,0.061683,-0.080358,0.16712,0.17577,0.036038
-0.24683,-0.17723,-0.0095971,0.0077128,-0.17536,-0.010307,0.045121,0.31185,0.070201,-0.055269
-0.065863,-0.12078,-0.056407,0.082895,-0.073897,0.05074,-0.1037,0.10669,-0.23527,-0.00012798
-0.00014713,-0.11063,-0.016135,0.026668,-0.3062,0.029244,-0.0058393,0.15771,-0.1023,0.074042
-0.0024722,0.18186,-0.094839,-0.066484,0.25355,0.043795,0.097648,-0.00772,0.22157,0.02307
0.20159,-0.04481,-0.081426,0.13555,-0.091003,-0.018041,0.054783,-0.068847,0.1092,-0.18447
-0.13739,-0.11066,-0.08192,-0.084737,0.070389,0.033299,-0.23393,0.026189,0.0038804,0.092626
0.046224,0.071203,0.041101,0.061446,0.043561,0.25107,0.060781,-0.11339,-0.1592,-0.089131
-0.023503,-0.12312,0.085643,0.031069,-0.30028,-0.060501,-0.025671,0.086334,-0.085565,0.0037541
-0.30587,-0.065021,0.23446,0.023472,-0.032413,-0.11369,0.052725,-0.183,-0.18468,-0.050428
-0.019095,-0.11712,0.049075,0.14218,0.0017123,-0.11043,-0.21391,-0.099944,-0.036468,-0.20933
0.015286,-0.07143,0.010937,0.16261,0.020542,-0.015635,-0.095686,-0.074168,-0.19623,-0.40151
-0.19237,-0.26307,-0.13967,-0.052331,0.062949,0.070947,0.027407,0.11025,0.042797,-0.27471
-0.10094,-0.16234,0.053092,-0.43595,-0.091399,0.19572,-0.11208,0.31516,-0.096608,-0.41097
0.016299,-0.068742,-0.36654,-0.36307,-0.146,0.0032675,0.033701,0.1517,0.16456,-0.077394
-0.15701,0.0062053,-0.43184,-0.24894,-0.11888,0.14696,-0.29715,-0.028573,-0.0096282,0.062185
0.011906,-0.20895,-0.4141,-0.18811,0.068059,0.08414,-0.21417,0.087439,-0.057643,0.13016
0.082949,-0.15617,-0.34467,-0.3749,0.15336,0.19345,0.0018974,-0.075492,-0.18444,0.29236
-0.043046,-0.33273,-0.34527,-0.22974,0.039349,0.48503,-0.0079171,-0.29494,-0.32954,0.24731
0.14183,-0.015989,-0.21554,-0.11536,0.22952,-0.10215,0.075375,-0.31341,-0.48424,0.10951
0.29207,-0.032472,0.17564,-0.089839,0.16505,-0.38451,0.011328,-0.30164,-0.49896,0.24973
0.40578,-0.29242,0.22797,-0.26404,0.10349,-0.57988,0.25247,-0.089844,0.097543,-0.10781
-0.0096607,-0.04322,0.045093,-0.24506,0.17819,-0.10197,0.079203,-0.19064,0.48071,-0.35759
0.18458,-0.12448,0.22156,-0.21016,-0.31385,-0.070107,0.35955,-0.31505,0.41921,-0.36839
0.16125,-0.14478,0.066434,-0.28267,-0.26221,0.081912,-0.048498,-0.24923,0.09454,-0.16498
0.0012327,-0.011031,0.1767,-0.039775,-0.13323,0.16205,0.05898,-0.2394,-0.076607,-0.35744
0.17266,0.049829,0.011763,0.18746,-0.12227,-0.032401,-0.19733,-0.084783,-0.23952,-0.0027866
0.086597,0.043911,-0.14072,-0.087022,-0.17981,-0.027258,-0.19505,-0.1751,0.020669,-0.24797
0.1107,-0.056237,-0.075983,0.21574,-0.16217,-0.12629,-0.095262,0.10965,0.18974,-0.21365
-0.12508,-0.15251,0.1852,-0.11665,-0.039124,0.15318,0.02759,0.19316,-0.085061,0.010796
0.042002,-0.035786,0.032135,-0.080433,-0.080276,0.00048587,0.12183,-0.049682,0.06604,-0.017359
-0.025436,0.16107,-0.01101,0.05862,-0.090268,-0.026713,-0.076164,-0.086876,-0.23372,-0.070952
-0.054177,-0.012022,0.093089,-0.16682,-0.03292,0.060078,-0.075529,-0.04014,0.069438,0.098909
0.020071,0.2137,0.22086,0.082782,0.085159,-0.035296,0.21709,-0.12114,0.085138,0.053453
-0.011254,-0.01375,0.15875,-0.0053993,-0.25024,0.211,0.080284,0.12192,-0.022875,-0.10486
0.010578,-0.069206,-0.0062778,0.10231,-0.25734,0.10435,0.11462,0.048125,-0.1552,0.03467
-0.13009,0.035017,0.25572,0.060089,-0.15008,0.032203,0.010181,-0.022062,-0.10497,0.051141
-0.16118,-0.074385,0.32321,-0.17407,-0.15891,-0.11325,0.064715,0.13044,-0.42754,-0.20342
0.080068,-0.23085,0.080123,-0.064553,0.033129,0.066585,-0.11196,-0.18155,-0.2357,-0.15069
-0.20333,-0.30337,0.086728,0.088524,-0.011616,-0.052044,-0.029545,0.14163,0.12994,-0.31478
0.10356,-0.27968,0.049064,0.2068,-0.016844,-0.05446,-0.11931,0.16475,0.09864,-0.40176
-0.071395,-0.11871,-0.14342,-0.12147,-0.19777,-0.062829,-0.011637,0.14139,0.16873,-0.30981
0.024236,0.0013719,-0.16105,-0.39003,-0.23084,0.093419,-0.10763,-0.027963,0.29253,0.029394
0.079131,-0.28987,-0.43026,-0.49835,-0.20024,0.07585,-0.12448,-0.24999,0.2102,0.36651
-0.20628,-0.28047,-0.47374,-0.36537,0.26087,0.34242,-0.049817,-0.1402,-0.17637,0.2158
0.20207,-0.2976,-0.38199,0.029203,0.47986,0.37994,0.047084,-0.27583,-0.29606,-0.0024578
0.14847,-0.17715,-0.24057,-0.086193,0.21168,0.41739,0.061928,-0.43303,-0.26526,0.15662
0.05913,-0.25946,-0.23562,-0.024523,0.0050526,0.16787,0.16867,-0.4631,-0.20538,0.32228
-0.027078,-0.33359,0.35819,-0.30294,0.07989,-0.3216,0.060873,-0.12658,-0.30185,0.27906
0.013707,-0.20466,0.19858,-0.3212,0.061743,-0.34628,0.23191,-0.27122,0.39038,-0.0010121
-0.060202,-0.32447,0.15603,-0.17986,-0.016861,-0.3532,0.34463,-0.21981,0.47823,-0.27104
0.12291,-0.20418,0.17732,-0.28849,-0.10991,-0.15297,0.51498,0.042168,0.55022,-0.19763
0.20209,-0.20013,0.15126,-0.37641,-0.31223,0.1375,0.18689,-0.17123,0.34254,-0.11996
0.12651,-0.063076,0.064189,-0.17015,-0.28495,0.019105,0.053236,-0.1895,-0.18284,-0.065291
-0.013788,0.10207,-0.024577,-0.010083,-0.15754,0.062887,-0.14302,0.0092591,0.032866,-0.29502
0.16296,-0.085487,-0.23291,0.09934,-0.18769,0.098486,-0.23169,-0.16993,-0.093488,-0.40288
-0.18626,-0.10034,-0.25319,0.069299,-0.0003683,0.21923,-0.08577,0.19126,0.38336,-0.1612
0.062892,0.10301,-0.14623,-0.028772,-0.10037,-0.052178,-0.0436,0.18294,-0.053095,-0.053928
-0.047854,0.0034469,-0.085437,-0.060004,-0.023459,0.027837,0.16999,0.13383,-0.039125,0.037162
-0.044342,-0.073169,-0.044948,0.090948,-0.20238,-0.065614,-0.01179,-0.14,-0.089598,-0.12207
0.022047,-0.019295,0.081124,-0.10916,0.051584,-0.10226,-0.0047351,-0.0016177,-0.031067,0.089154
-0.015967,0.05686,-0.1103,-0.00085,0.12487,0.094805,-0.016745,0.079729,0.019082,-0.024149
-0.025568,-0.090703,-0.055032,-0.16608,0.027774,-0.15221,0.25021,-0.068888,-0.024208,-0.13436
0.12469,-0.13183,0.15643,-0.0042474,-0.018066,-0.28901,0.1362,-0.1181,0.065141,0.058603
0.12573,-0.18076,0.31255,0.13867,-0.25313,0.1136,-0.066018,-0.0044935,-0.18984,0.13922
-0.13046,-0.042074,0.17397,-0.13649,-0.009718,-0.13198,-0.024457,-0.11432,-0.33798,-0.066272
-0.034041,-0.2368,0.14131,0.032493,0.05142,0.16853,-0.064953,-0.38289,-0.19831,-0.18988
0.12137,-0.35271,0.22038,0.37157,0.10192,0.12218,-0.13654,-0.051266,-0.020194,-0.55707
-0.20092,-0.32757,0.055343,-0.0010625,-0.32895,0.23836,-0.49321,0.29956,0.09197,-0.35817
0.031631,-0.38056,-0.18069,-0.22153,-0.062619,0.084299,-0.22948,0.19176,0.24251,-0.25993
-0.036116,-0.17596,-0.38817,-0.6085,-0.40546,0.19709,-0.11903,0.011501,0.26437,0.15201
0.039084,-0.30575,-0.41072,-0.28397,-0.08981,0.246,-0.12701,-0.073654,0.087992,0.32084
-0.0048985,-0.02573,-0.55261,-0.19349,0.43442,0.25201,0.05224,-0.024859,-0.015829,-0.056814
0.051335,-0.40081,-0.55245,-0.0046303,0.2556,0.28237,0.091623,-0.2455,0.12161,-0.053301
0.19068,-0.37094,-0.3431,0.37299,0.34436,0.30182,-0.12804,-0.30525,-0.086774,0.17771
-0.13074,-0.31477,0.17777,0.10032,0.17895,0.20646,0.057031,-0.33885,-0.00018978,0.33947
-0.3119,-0.19638,0.39057,-0.33843,-0.1043,-0.06402,-0.17359,-0.47746,0.30755,0.026787
-0.27463,-0.40855,0.20609,-0.28083,0.065075,-0.4091,0.030061,-0.20598,0.37385,-0.12113
-0.33502,-0.10573,0.096389,-0.33421,0.028862,-0.40914,0.14586,-0.093605,0.32354,-0.19593
0.15235,0.095337,0.037202,-0.080028,-0.13369,-0.43115,0.47642,-0.16594,0.19343,-0.1807
0.15636,-0.054893,0.0053364,-0.28347,-0.29421,0.1993,0.25769,-0.26783,0.0049248,-0.22139
0.085989,-0.0010333,-0.12022,-0.44505,-0.21323,-0.11841,0.29476,-0.0080919,-0.24724,-0.065466
0.0048718,-0.034319,0.026513,-0.14888,-0.31033,0.024189,-0.40953,0.002878,-0.051596,-0.28484
0.24212,-0.08285,-0.21988,0.098679,-0.12402,0.1348,-0.28703,-0.15977,0.16383,-0.31855
-0.11355,-0.066582,-0.14505,0.17728,-0.19833,0.019645,-0.034774,-0.085076,0.34999,-0.17723
-0.18026,-0.010239,0.21369,-0.12239,-0.064369,-0.043818,-0.00069055,0.42958,0.020139,0.15809
0.034837,-0.033874,-0.032808,-0.004219,0.1213,-0.019719,-0.092146,0.10142,0.13206,-0.010598
-0.053308,0.083672,-0.091014,0.086507,-0.09046,-0.067007,-0.10738,-0.019167,-0.0058069,0.063235
-0.1169,0.01026,0.16173,-0.016495,-0.15348,0.062982,-0.0026357,-0.12998,-0.0075698,-0.066903
0.25356,0.083694,-0.062216,-0.026725,-0.00093019,-0.06242,-0.068239,0.091635,-0.013403,0.0094573
-0.098587,0.138,-0.088895,0.056106,-0.07047,0.0056501,0.29541,0.16598,0.089059,0.096794
0.036598,-0.10086,0.22552,0.031011,-0.296,0.03727,0.050072,-0.057811,-0.16944,0.032717
-0.2422,0.14099,0.28306,0.00041882,-0.17948,-0.042822,-0.014745,-0.012192,0.05155,0.020336
-0.070177,-0.11815,0.3215,-0.1992,0.091787,0.021281,-0.07335,-0.10804,-0.2684,-0.23413
0.045566,-0.21547,0.16132,0.26417,-0.19671,-0.037746,-0.15432,-0.46439,-0.04754,-0.35615
0.019542,-0.18884,0.13556,0.36678,-0.16298,0.14206,-0.078577,0.073376,-0.056625,-0.4915
-0.27514,-0.38882,0.21536,0.15543,-0.16275,-0.074261,-0.21755,0.17954,0.12681,-0.026993
0.16105,-0.044001,-0.14801,-0.3489,-0.37091,-0.16368,-0.12753,0.051633,0.45664,0.34874
-0.023216,-0.10683,-0.2731,-0.45593,-0.36336,0.036933,-0.1263,0.16488,0.27727,0.28525
-0.074727,-0.2006,-0.5689,-0.47128,-0.041238,0.14103,0.084899,0.0059925,0.16931,0.06931
-0.11769,-0.18732,-0.57033,-0.061145,0.091639,0.42827,0.095836,0.087423,0.19757,-0.12891
-0.030448,-0.11625,-0.3163,0.052609,0.087217,0.26841,0.24458,-0.082583,0.09785,-0.1997
-0.26618,-0.21406,-0.22839,0.42366,0.064969,0.39795,0.011256,-0.43295,0.16301,0.13059
-0.50743,-0.17226,0.30574,0.094642,0.16418,0.1165,-0.0023997,-0.53894,0.19709,0.17382
-0.45116,-0.11381,0.24611,-0.28566,0.056272,-0.18636,-0.044006,-0.18827,0.36039,-0.08205
-0.41593,-0.091784,0.23319,-0.42177,0.19974,-0.30469,0.035546,-0.19768,0.45396,0.012675
-0.35414,0.019076,0.17871,-0.37179,0.086071,-0.26653,-0.014614,-0.16704,0.14861,-0.13892
-0.09775,-0.047598,0.093208,-0.43733,-0.11607,-0.23127,0.26413,0.097191,-0.23393,-0.11801
-0.0081605,-0.10028,-0.019207,-0.40871,-0.44424,-0.16507,0.406,-0.0069185,-0.33206,-0.05694
-0.27009,-0.093426,-0.015918,-0.28254,-0.2319,-0.057281,0.34145,-0.11775,-0.31955,-0.29963
0.035299,-0.04868,-0.14418,-0.12476,-0.15431,-0.0085926,-0.057196,0.17496,-0.28105,-0.31644
0.044525,-0.24253,-0.18471,-0.16756,-0.18556,-0.12303,-0.45312,0.017515,0.44755,-0.40002
0.093876,0.061964,-0.27775,0.15701,0.0015684,0.31793,-0.10357,0.063681,0.21064,-0.27384
0.07785,-0.18522,-0.098567,0.0057522,0.036078,-0.076265,0.0038508,0.18292,-0.10863,0.14748
-0.059909,-0.015887,-0.052217,-0.087669,-0.24438,-0.038179,-0.079863,0.1523,-0.018752,0.031817
-0.017217,-0.16154,-0.0041978,-0.088105,-0.11285,-0.046055,-0.013809,-0.26473,-0.016053,-0.033223
0.074119,0.063349,0.068116,0.12483,-0.019517,-0.096231,0.10401,-0.018985,-0.08391,-0.24907
0.077516,-0.098459,0.12036,-0.094358,-0.070173,0.064905,0.04582,0.042756,-0.033693,0.011244
-0.071099,-0.056623,-0.091673,0.076238,-0.0067917,-0.065444,-0.04866,-0.058671,0.13283,0.076457
-0.25814,-0.031789,0.10858,0.05783,-0.21096,0.08232,0.077512,-0.15683,-0.0048795,-0.0080444
-0.032836,-0.24168,0.33824,0.10994,-0.099268,0.030268,-0.18737,0.0067366,-0.27045,-0.11836
-0.22885,-0.013377,0.38973,-0.069657,-0.16448,-0.37126,-0.28488,-0.33756,-0.30308,-0.13381
0.27565,-0.15916,0.075621,0.20007,-0.12929,0.011083,-0.034998,-0.23992,0.049935,-0.32506
0.10589,-0.053827,0.18903,0.29392,-0.57911,0.0022508,-0.20473,0.017442,-0.0096761,-0.0012288
0.014197,-0.062994,0.088232,-0.28585,-0.43396,-0.32776,-0.077284,-0.0087835,-0.048125,-0.10502
-0.080456,-0.1624,0.022266,-0.3898,-0.61305,-0.095769,0.038094,0.094927,0.00051559,0.28524
-0.077569,0.10231,-0.42516,-0.25565,-0.18288,0.17242,-0.25004,-0.010563,-0.22411,0.12748
-0.037522,0.1032,-0.39805,-0.2015,-0.12126,0.21229,-0.061755,0.23601,-0.010467,-0.0803
-0.11013,0.19282,-0.29943,0.071035,-0.24069,0.12802,-0.10923,-0.093792,0.0044578,-0.42814
-0.36357,0.1425,-0.35025,0.34575,0.070152,0.06891,-0.0026948,-0.30936,0.050302,-0.1367
-0.26927,0.16435,-0.11054,0.33283,-0.41585,0.018112,-0.02844,-0.51276,0.06352,0.30354
-0.44847,0.12315,0.17231,-0.16903,0.14695,-0.056586,-0.11619,-0.55618,0.3076,0.06757
-0.55276,0.17509,-0.069284,-0.23762,0.16256,-0.18841,-0.11718,-0.27196,0.27024,-0.27225
-0.43648,0.4608,-0.017457,-0.56171,0.19037,-0.29415,-0.12945,-0.38339,-0.054323,0.0010112
-0.3244,0.39338,0.27499,-0.17346,0.027151,-0.43861,-0.19539,0.10189,0.041251,0.017949
-0.42756,0.21241,-0.0031703,-0.32957,0.20246,-0.094621,0.09329,-0.088203,-0.24349,-0.33357
-0.1405,0.21966,0.028565,-0.35141,-0.22782,0.07308,0.32069,-0.082493,-0.15848,-0.12749
-0.043193,-0.21824,-0.041113,-0.10663,-0.10824,-0.1339,0.41327,0.049874,-0.28694,-0.070537
0.074248,0.073411,-0.17066,-0.0959,-0.023986,0.041895,-0.091592,0.05227,-0.04846,-0.30496
0.035037,0.0077334,-0.20533,-0.069487,0.045199,0.09728,-0.36851,0.12793,0.3356,-0.37762
0.12197,-0.23627,-0.030507,0.15434,-0.22384,0.20339,-0.21472,0.091573,0.24689,-0.18564
-0.19654,-0.20426,-0.083259,0.013061,-0.21542,-0.081448,-0.088718,0.20652,0.052711,0.30006
-0.16976,0.13888,-0.029529,-0.0095449,-0.11239,-0.20875,-0.079067,-0.0075476,-0.015247,0.056755
-0.088221,-0.236,-0.021597,0.067578,-0.050334,-0.053585,-0.13708,0.0097083,0.18321,-0.11547
0.08542,-0.15939,0.004634,-0.11506,-0.16916,-0.030689,0.021489,0.067447,-0.16667,0.065184
-0.023342,-0.11042,0.01825,-0.0063731,-0.025124,-0.10607,-0.015273,0.037129,0.066584,-0.070565
-0.092667,-0.061291,0.071611,-0.015052,0.021486,0.056121,-0.029585,0.1866,-0.022673,0.018872
-0.1948,-0.13277,-0.23062,-0.0355,-0.0075261,-0.020541,0.23256,0.21901,0.053943,0.13339
-0.29126,-0.17872,0.27774,-0.028164,-0.1864,-0.23526,0.17768,-0.031833,-0.27974,-0.20828
-0.175,-0.077161,0.27576,-0.070888,0.044561,-0.12136,0.007024,-0.14469,-0.2458,-0.35642
0.09298,0.05422,0.11591,0.15419,-0.28213,-0.068103,-0.16811,-0.14005,-0.12674,-0.24307
-0.026468,-0.0034288,0.026074,0.12104,-0.5308,-0.10866,-0.046067,-0.088495,0.0043269,0.16025
-0.18622,-0.25077,0.021206,0.11598,-0.44814,-0.12088,5.1693e-05,-0.25069,-0.0012298,0.50643
0.060004,-0.15229,-0.17097,-0.47275,-0.66894,-0.037288,0.020713,0.04092,-0.13185,0.25319
0.14267,0.26133,-0.33533,-0.12829,-0.46177,-0.001574,0.033385,-0.013078,-0.17308,-0.35216
-0.26797,0.35917,-0.32073,0.16045,-0.21769,-0.039524,-0.099515,0.09352,-0.45884,-0.18529
-0.2664,0.40544,-0.26801,0.31951,-0.17221,-0.20081,-0.25225,-0.0070542,-0.3314,-0.17836
-0.31782,0.23311,-0.2511,0.23101,-0.16974,-0.037056,-0.1379,-0.29925,0.1302,0.10854
-0.31832,0.25684,-0.22609,-0.084593,-0.069646,-0.09087,-0.26998,-0.27219,-0.11905,0.034587
-0.32974,0.23557,0.060447,-0.087854,-0.12995,0.11901,-0.089248,-0.71985,0.0071236,0.070153
-0.48873,0.19703,-0.01416,-0.12488,0.10272,-0.21032,0.11238,-0.20279,0.16408,-0.19474
-0.41349,0.34798,0.0011882,-0.39989,0.18978,-0.42733,-0.081683,-0.19293,-0.029746,0.11078
-0.22577,0.13661,0.035501,-0.54369,0.29463,-0.1787,-0.27028,0.33178,-0.10216,-0.057411
-0.044691,-0.040337,0.32725,-0.28332,-0.142,-0.049112,-0.19321,0.070263,-0.35461,-0.095481
-0.26288,-0.042795,-0.08837,0.0043347,-0.1477,-0.26289,0.17376,-0.020515,-0.26047,-0.43897
0.0029655,-0.087005,-0.03991,-0.075867,-0.063739,-0.15935,0.33331,0.10821,-0.31289,-0.27422
-0.25849,0.026041,-0.10847,-0.1603,0.01201,-0.021151,0.075647,-0.17454,-0.19702,-0.20695
0.062294,-0.02479,-0.27908,0.030073,0.025502,0.21024,-0.28395,-0.17731,0.12042,-0.40523
0.19644,-0.00030071,-0.019538,-0.026107,0.28414,0.21734,-0.26548,0.19999,0.22467,-0.30829
-0.15509,-0.14403,0.13618,0.053701,-0.052973,-0.0079745,0.040456,0.46256,0.029228,0.069386
-0.22724,-0.008838,-0.11347,-0.19402,0.034991,0.056735,-0.042911,0.17073,0.020998,-0.054605
0.1508,0.10588,0.050044,-0.063549,-0.022401,-0.026625,0.089267,0.061651,0.020865,-0.032716
-0.007524,-0.011643,-0.021867,-0.084146,0.0052856,-0.15266,-0.010286,0.050807,-0.0074043,0.32466
-0.12562,0.012815,-0.054933,-0.041526,0.030933,-0.031569,-0.0089226,-0.031602,0.0055725,0.21827
-0.058623,-0.20073,-0.20096,-0.14939,-0.1811,-0.10791,-0.15148,-0.025173,-0.057159,-0.097958
0.044307,-0.014976,-0.046235,-0.17675,0.0051726,-0.048694,0.11734,-0.0013236,-0.056909,-0.046214
-0.13627,-0.064136,0.30239,-0.14496,-0.15901,-0.3434,0.28976,0.15177,-0.2467,-0.21517
0.0069373,-0.068324,0.22304,0.19535,0.085983,-0.12164,0.088125,-0.48336,-0.099797,-0.3277
0.17604,-0.13255,0.19066,0.033349,-0.29136,-0.012342,0.10913,-0.24042,0.034602,-0.3438
0.27345,-0.5087,0.23768,0.012209,-0.43842,-0.025417,0.0080856,-0.17087,-0.10379,0.58709
0.044364,-0.079199,0.080985,0.010597,-0.41191,-0.26078,-0.13143,-0.17752,0.11411,0.5237
0.011309,0.006239,-0.17163,0.021089,-0.43849,-0.25485,-0.22036,0.21121,-0.072732,0.2402
0.13366,0.11202,-0.34619,0.40426,-0.21885,-0.068077,-0.12503,0.26533,-0.30703,-0.29234
-0.26609,0.11411,-0.17504,0.22654,-0.26482,-0.1433,-0.32188,0.098196,-0.56855,-0.21885
-0.34201,0.10304,-0.25878,0.19392,-0.24051,-0.16591,-0.44078,-0.012039,-0.44011,-0.11211
-0.11016,0.21624,-0.20978,-0.074467,-0.23319,-0.020177,-0.22379,-0.31865,0.1063,-0.0059206
-0.38923,0.1169,-0.065012,0.0046736,-0.34566,0.029538,-0.018879,-0.33509,-0.080994,0.22347
-0.55868,0.083101,-0.011425,-0.1306,0.22956,-0.14087,-0.0055118,-0.2037,-0.0074688,0.019445
-0.64271,-0.036252,-0.0063823,-0.11349,0.11312,-0.16673,-0.0022921,0.0025493,0.036036,-0.096782
-0.30994,-0.27298,0.15884,-0.21632,0.28769,-0.20225,-0.25629,0.08867,-0.10097,0.0245
-0.31888,0.097122,0.060848,-0.077954,0.14373,-0.034679,-0.33707,-0.075802,-0.15253,-0.03356
-0.35041,-0.097791,0.018767,-0.19411,0.031413,0.078364,-0.092958,-0.023643,-0.10165,-0.14045
-0.31576,-0.10446,0.021425,-0.066112,-0.19985,-0.20581,0.091805,-0.13759,-0.45614,-0.18163
-0.10932,-0.031235,-0.38069,0.038727,-0.25359,-0.093214,0.13006,-0.017028,-0.22267,-0.15834
-0.0812,0.025403,-0.10121,0.050868,0.095514,-0.13443,0.0046208,0.057908,-0.24123,-0.22331
-0.069343,-0.066549,-0.11506,-0.048272,0.034592,0.10966,-0.44563,-0.05927,0.046036,-0.19501
0.062341,-0.099471,-0.074086,-0.12891,-0.1463,0.021715,0.038784,-0.081307,0.18955,-0.23338
-0.18083,-0.094282,-0.03347,0.0071576,-0.25358,-0.21164,0.076665,0.0957,-0.063938,0.16034
-0.045229,0.069828,0.20731,0.09477,-0.111,-0.0031958,0.22695,0.076146,-0.042619,0.044521
-0.021609,-0.013097,-0.15805,-0.0041237,0.074267,0.049297,-0.10093,0.012992,-0.11283,0.098385
-0.013157,-0.14019,0.020072,-0.056927,-0.15937,0.18653,-0.019332,-0.020694,-0.065652,-0.078938
-0.18893,0.037075,-0.039807,-0.053247,0.16862,0.11252,-0.027193,-0.085233,-0.11306,-0.06798
0.019995,-0.087096,0.010837,0.0022439,-0.056774,-0.044724,0.0054769,0.28605,-0.036379,0.16542
0.24099,-0.062176,-0.086714,0.01762,-0.045077,-0.13439,0.002664,-0.0073349,0.052632,-0.086399
-0.28532,-0.15455,0.055665,-0.08984,-0.15935,-0.37601,0.36627,-0.020454,-0.24556,-0.17697
-0.0074496,0.11226,0.33117,-0.15241,-0.12169,-0.3173,0.23986,-0.30003,-0.10605,-0.44148
0.032176,-0.037886,0.2122,0.046972,-0.087054,-0.28161,0.10671,-0.14599,-0.048833,-0.17885
0.29309,-0.13969,0.25989,-0.12094,-0.46068,0.14169,0.037227,-0.32112,0.09547,0.37668
0.0084484,-0.24976,-0.05079,-0.050054,-0.39865,-0.05085,-0.19719,-0.16506,-0.042133,0.30812
0.081728,-0.13685,-0.036133,0.14201,-0.14574,-0.25289,-0.16873,0.30007,-0.35521,-0.22167
0.032091,0.13118,-0.22209,0.30618,-0.022017,-0.1739,-0.45151,0.17351,-0.51141,-0.35439
-0.32927,0.012257,-0.08293,0.36604,-0.065964,-0.40293,-0.31244,0.32409,-0.51448,-0.20178
-0.39547,0.068841,-0.3791,-0.00081122,-0.004307,-0.11777,-0.18363,0.060359,0.041054,-0.082651
-0.38023,0.0023254,-0.094276,0.19948,0.027243,-0.30689,-0.09438,-0.074339,0.25401,0.076369
-0.49622,-0.20053,0.038063,0.011214,0.041529,-0.062961,-0.10724,-0.054195,0.12272,0.20056
-0.1883,-0.23989,-0.18152,0.11986,0.11639,-0.31051,0.10391,-0.10096,-0.13954,0.17811
-0.41746,-0.43149,-0.018138,0.043071,0.11645,-0.24194,0.12971,0.15175,0.023138,-0.056257
-0.30275,-0.27659,0.35394,0.063195,0.24211,-0.010719,-0.24987,-0.025661,-0.13908,-0.070733
-0.16107,0.053094,0.045161,-0.10684,0.03686,0.054331,0.014857,-0.11395,0.0068215,0.070583
-0.20382,-0.18013,-0.023322,0.13539,-0.20677,-0.37494,0.19802,0.065597,-0.22626,-0.16951
-0.17349,-0.22469,-0.16077,-0.12704,-0.14791,0.17708,0.18383,-0.025294,0.0049981,-0.20714
0.05163,-0.11643,0.064869,0.079891,-0.069398,-0.22833,-0.079178,-0.019543,-0.28649,-0.03167
-0.026647,0.10097,-0.29343,-0.019227,0.10066,-0.19795,0.14649,0.11362,-0.069612,-0.277
-0.12529,0.016879,0.10174,-0.10796,0.090893,0.10634,-0.44127,0.10841,0.030394,-0.14226
-0.13195,0.042006,0.011929,-0.16544,-0.11603,-0.050583,-0.29729,-0.023284,0.14319,0.0041411
-0.053354,-0.034607,0.015877,-0.072148,-0.26119,-0.14116,-0.11245,0.22922,-0.057541,0.088443
0.067008,-0.091701,0.12395,-0.070931,-0.085862,0.074079,-0.23338,0.12719,-0.093051,0.14878
-0.072392,0.046992,-0.15862,-0.022066,-0.020102,0.16631,0.18807,0.037542,0.082883,-0.025519
-0.065417,0.074216,-0.11261,-0.08447,0.12516,-0.18137,-0.016691,0.13156,-0.0062304,0.043979
0.040209,0.023614,-0.14302,-0.099473,-0.044067,-0.16912,-0.23364,0.10509,-0.25582,-0.069559
-0.070239,-0.14505,-0.029511,0.12207,-0.20059,-0.0047965,0.057276,0.097276,-0.099743,0.076601
-0.10074,0.041431,-0.17666,-0.24668,0.064818,-0.16489,0.32791,-0.13403,-0.055874,-0.071516
-0.19077,-0.04419,-0.17106,0.02842,-0.1941,-0.31396,0.53725,-0.0096844,-0.34908,-0.17881
-0.012137,0.14362,0.2351,-0.07764,-0.092523,-0.22356,0.092147,-0.38215,0.082627,-0.19356
0.26249,-0.046724,0.044116,-0.17148,-0.065,0.010584,0.23006,-0.30562,0.19338,-0.094916
0.060309,-0.19747,0.090175,0.017455,-0.26848,0.034767,0.0036267,-0.30621,0.19406,0.37698
0.12215,-0.17607,-0.16492,0.084119,-0.23567,-0.057917,-0.31703,-0.15184,-0.11477,0.24725
0.14212,0.017034,-0.15252,0.037088,-0.078867,0.10499,-0.40842,0.020431,-0.49084,-0.18097
0.053531,-0.095924,0.063285,0.29404,0.13537,-0.62572,-0.32365,0.54341,-0.26197,-0.39109
-0.18074,0.093625,-0.080115,0.19851,0.10044,-0.59328,-0.28625,0.18512,-0.067216,-0.26176
-0.16565,-0.24269,-0.21644,0.088916,-0.066738,-0.17887,-0.25825,0.12263,0.23798,0.24364
-0.25969,-0.20127,-0.17936,0.16103,0.089575,-0.21665,0.001056,0.078921,0.19826,0.089086
-0.33525,-0.05132,-0.16605,0.11826,0.31368,-0.18928,-0.084482,-0.055544,-0.1246,0.11659
-0.30738,-0.34588,-0.12092,0.065887,0.34163,-0.0588,0.02131,0.10838,-0.3931,0.15415
-0.10995,-0.26317,-0.069454,0.079957,0.27437,-0.15333,-0.18902,0.052066,-0.34284,0.10865
-0.32191,-0.1583,-0.095324,0.14889,0.19337,0.028926,-0.20695,-0.21122,-0.16248,0.20576
-0.1568,-0.26782,-0.070579,0.098119,-0.084616,-0.011737,-0.0084753,-0.15476,-0.22392,-0.057971
-0.05378,-0.034368,0.11046,0.21049,-0.13821,-0.086768,0.021285,0.031126,-0.31051,-0.21395
-0.12139,-0.37885,0.12812,0.0045303,-0.13721,-0.010877,0.28268,-0.28631,-0.15547,-0.22055
-0.29003,-0.27956,-0.096655,-0.20032,-0.10572,0.12636,-0.072199,-0.34915,-0.12742,-0.32018
-0.12426,0.079879,-0.042195,-0.047031,0.086636,0.081425,-0.076247,-0.2093,0.075243,-0.016088
0.11342,0.081632,0.011631,-0.18339,0.042647,0.12594,-0.15048,-0.20524,0.14567,-0.27657
0.041093,-0.047502,-0.034698,-0.18512,0.16457,-0.099861,-0.086066,0.17478,0.11581,0.083075
-0.25258,-0.098236,0.023193,0.19604,-0.050515,-0.076653,-0.11257,0.039605,-0.151,-0.0062284
0.074299,0.12587,-0.18605,-0.13317,-0.026646,-0.036922,0.042483,-0.090044,0.14313,0.085953
-0.14357,0.0047699,0.12503,0.14907,-0.079254,0.052849,-0.010203,0.07767,-0.0014026,-0.0082853
0.045151,0.11976,-0.07189,0.033653,-0.031371,0.059881,-0.083043,-0.050424,-0.00013309,0.12016
-0.095753,-0.02981,-0.070092,0.00171,-0.014863,0.028965,-0.28423,-0.20424,0.042855,-0.043673
-0.18338,-0.068494,-0.0011174,-0.055969,-0.14563,0.21684,0.028009,0.058259,-0.055212,0.1527
-0.11305,-0.14172,-0.068684,0.070926,-0.039873,-0.18364,0.55635,-0.025516,-0.10724,-0.15989
-0.14106,0.063361,0.049811,-0.055532,-0.10415,-0.17562,0.43082,-0.040204,-0.39705,-0.13369
-0.13646,-0.083678,0.19291,-0.092921,0.18202,-0.06524,0.32259,-0.35475,-0.1789,-0.48199
0.050894,-0.029106,-0.089744,-0.19156,0.095922,-0.16157,-0.08944,-0.18046,0.13296,-0.2745
0.01787,0.042398,-0.080981,-0.016488,-0.0020807,0.13562,-0.23623,-0.25917,0.091281,-0.013855
0.080741,0.11348,0.020125,0.028785,-0.068223,-0.13793,-0.39112,0.023959,-0.15264,-0.11541
0.23886,0.036999,0.010501,0.10877,-0.090952,-0.036105,-0.39448,-0.032279,-0.3264,0.044154
0.28758,0.020113,-0.033383,0.11984,0.014315,-0.19904,-0.51871,0.43357,-0.068463,-0.12727
0.16162,-0.068703,-0.031319,0.2147,-0.14334,-0.56849,-0.50963,0.13402,0.058348,0.044542
-0.13824,-0.21271,-0.14616,0.14309,-0.13581,-0.13422,0.019912,0.0097144,0.4961,0.07153
-0.17971,-0.038843,-0.011413,0.13635,-0.18393,-0.25902,-0.15059,-0.06103,0.0049315,0.29687
0.00031108,-0.29643,-0.19436,0.090726,0.024636,-0.0853,0.021658,-0.1827,-0.4116,0.10431
-0.18938,-0.38597,-0.059002,-0.022257,0.16164,-0.010152,0.10808,0.40802,-0.37766,-0.12559
-0.033626,-0.25876,-0.14286,0.16521,0.22111,0.19678,-0.2838,0.12048,-0.24832,0.021584
-0.31571,-0.2613,-0.12223,0.088336,0.20221,-0.077481,-0.14878,-0.14814,-0.16867,-0.21659
-0.1524,-0.058443,0.030905,0.046032,-0.13513,-0.069517,0.13701,-0.16395,-0.28987,-0.2685
0.055684,-0.23562,-0.01504,0.056198,-0.15351,-0.11582,0.27309,-0.18576,-0.22016,-0.39561
-0.073917,-0.081989,-0.069304,-0.063666,-0.14556,-0.045004,0.18956,-0.10523,-0.28068,-0.19304
-0.044017,-0.33554,0.16965,0.014912,0.12279,0.1342,0.083108,-0.21329,-0.10502,-0.16942
-0.1778,-0.090137,-0.044041,-0.17831,0.041522,0.19608,-0.0064302,-0.21929,0.07617,-0.18743
0.095418,-0.024037,-0.027783,-0.037306,0.14937,-0.021978,-0.19551,-0.22584,0.032394,-0.032178
-0.058158,-0.062479,-0.12625,-0.11274,0.17214,-0.081328,-0.072887,-0.15605,0.098283,0.0074711
-0.13446,0.0092251,-0.122,0.076093,-0.20909,-0.022834,0.037563,-0.090046,-0.082343,0.17033
0.11023,0.08782,0.11011,-0.021131,-0.12133,-0.12643,-0.090807,0.024756,-0.03833,0.14577
-0.0096572,0.030414,0.10853,-0.15743,0.01959,-0.13923,-0.0024172,0.10862,0.042985,-0.11455
-0.25343,-0.014299,-0.071707,-0.042929,-0.13724,0.089037,-0.11911,-0.18111,0.16194,0.22
-0.21246,0.15476,-0.083714,-0.22526,0.095264,0.089579,-0.20903,0.068525,0.11585,-0.060146
0.070942,0.092751,-0.072712,0.10679,-0.02935,-0.16789,0.12297,0.16667,0.11398,0.095701
-0.087943,-0.28003,-0.062903,0.11792,-0.044161,-0.14521,0.43813,-0.064103,-0.029736,0.070228
-0.012468,-0.12909,-0.1358,-0.14767,-0.045767,-0.083853,0.41231,0.017324,-0.30765,-0.26736
-0.015805,0.0064559,-0.2017,-0.13393,-0.0041752,-0.084144,0.25478,-0.22412,-0.31664,-0.34054
0.15068,0.18679,-0.14081,-0.089584,0.0961,0.12895,-0.12488,-0.50956,0.043526,-0.35216
0.022857,0.20477,0.033137,-0.047872,0.093108,0.16269,-0.29207,-0.14744,-0.44325,-0.26266
-0.018932,-0.022398,-0.11848,0.31738,-0.084918,0.14537,-0.37357,-0.10295,-0.13178,-0.044715
0.099396,-0.16712,-0.077786,0.17503,-0.17563,-0.17916,-0.40078,0.052652,-0.25641,-0.26363
0.080361,-0.059455,0.0029709,0.27692,0.10594,-0.16255,-0.35255,0.045233,-0.083769,-0.061707
0.095233,-0.087602,0.1147,0.0052019,-0.061902,-0.2804,-0.24415,0.10263,0.24413,0.010442
-0.00039856,-0.039637,-0.057071,0.0070385,-0.03529,-0.21045,-0.1658,0.16614,0.25365,0.51598
-0.10822,0.028272,-0.087573,-0.019643,-0.13919,-0.28558,0.18846,0.053239,0.081547,0.060948
0.0034785,-0.060092,-0.092124,0.088143,-0.035296,-0.084216,0.18731,0.15729,-0.045199,0.087942
-0.17253,-0.18132,-0.23014,0.062913,0.076649,0.070868,-0.14161,0.078897,-0.22906,-0.16246
-0.19758,-0.18033,-0.22789,0.093355,0.34117,0.024509,0.059973,0.18979,-0.32016,-0.18997
0.02903,-0.33323,-0.11489,0.055198,0.0010342,-0.12345,0.021537,-0.02544,-0.31474,-0.095756
-0.16159,-0.1395,0.10258,0.18753,-0.22948,-0.16686,0.20975,-0.16854,-0.16372,-0.097986
0.12706,-0.088301,-0.11116,0.003148,-0.24728,-0.051737,0.087553,-0.084477,-0.096481,-0.17249
-0.071436,-0.16631,-0.087875,-0.10536,-0.1876,0.039018,-0.023512,-0.14389,-0.24494,-0.35548
-0.309,-0.1817,0.09703,-0.092687,-0.070207,0.18272,-0.14584,-0.050348,-0.040323,-0.13017
-0.24602,-0.047395,0.020721,-0.071534,0.089364,0.25723,-0.36436,-0.21252,0.0081281,0.050018
0.10343,0.00016414,0.14404,0.011781,0.039109,-0.085515,-0.033173,-0.053906,-0.17313,-0.2615
0.042595,-0.12046,-0.055227,-0.14207,-0.0057164,-0.098558,-0.2281,-0.098391,0.022924,-0.10213
-0.17703,-0.13649,0.006874,-0.0080733,0.039913,-0.078507,0.035982,-0.047079,-0.057264,0.03607
-0.21942,0.03671,-0.022483,-0.086976,-0.23149,0.17378,-0.03369,0.10668,-0.15032,0.045215
0.091337,0.033709,0.042658,0.1746,-0.03162,0.15136,0.00685,0.00056292,-0.019976,-0.13916
0.1035,0.10688,-0.081073,-0.06681,0.046931,-0.0027989,-0.03358,-0.046088,0.019199,-0.035915
-0.069015,-0.050832,-0.041271,-0.065812,0.032578,-0.060844,0.11423,0.012717,0.10239,-0.20087
0.024492,-0.043275,-0.31063,0.20533,0.061486,0.052828,0.15323,0.025846,0.0029124,-0.097982
-0.00099303,-0.11748,-0.0056815,0.071208,0.074238,0.0021571,0.27609,0.031783,0.24242,0.15374
-0.032245,0.17716,-0.09867,0.1162,0.066157,0.10853,0.17019,-0.07677,-0.11032,-0.0597
-0.22907,0.15481,-0.128,-0.066321,0.27838,0.15182,0.10058,-0.19652,-0.18428,-0.079934
0.099295,0.24074,-0.20806,-0.00089089,0.18391,0.24987,-0.25954,-0.10782,0.11732,-0.29968
0.08173,0.014713,-0.042107,-0.02756,0.035326,0.044817,-0.12529,-0.22337,-0.17478,-0.18142
0.06981,-0.069752,-0.27037,-0.01757,-0.04816,0.24922,-0.42679,-0.013991,-0.18474,-0.21543
-0.15288,-0.27566,-0.03128,0.14366,0.059351,0.082881,-0.35076,-0.11056,0.13511,-0.11409
0.01587,-0.19025,-9.4528e-05,0.016991,0.13007,-0.25903,-0.52114,0.13606,0.38436,-0.20519
0.1263,-0.29626,0.095066,0.07326,-0.14933,-0.515,-0.29994,0.20901,0.33199,0.040483
0.15621,-0.013929,0.12353,-0.28019,-0.45488,-0.36592,-0.06085,0.016929,0.17442,-0.025985
0.10215,-0.086775,-0.16462,-0.2293,-0.25442,-0.20035,0.013238,0.055373,-0.2936,0.052931
0.18352,0.0019212,-0.30634,-0.13426,0.15209,0.082112,0.2358,0.09188,-0.15945,-0.22412
-0.072328,-0.13808,-0.15157,-0.34269,0.028142,-0.16101,0.18317,0.10514,-0.23339,-0.21546
0.076484,-0.33594,-0.21487,-0.11438,-0.016155,-0.081359,0.15348,-0.013279,-0.083596,-0.4429
0.24389,-0.14216,-0.20494,-0.034501,-0.073234,-0.10533,0.06902,0.020922,-0.0095894,-0.15226
-0.27147,-0.13807,0.18432,-0.096232,-0.060214,-0.043688,0.033577,-0.10814,0.060104,-0.20624
-0.061544,-0.11873,0.019374,-0.021126,-0.24928,-0.046281,0.054679,-0.20973,0.0068275,-0.29811
-0.1093,-0.17692,0.17704,-0.04753,-0.083275,0.14605,-0.10685,-0.11668,-0.068063,-0.14976
-0.11589,0.03829,-0.060447,0.023485,-0.27651,0.32666,0.0063853,-0.081728,-0.007086,0.014966
0.076485,-0.018235,0.058017,-0.026105,0.0022286,0.070772,-0.050267,-0.099329,-0.086346,0.043971
-0.097081,0.10475,0.13846,0.026994,-0.071597,-0.069834,0.048277,-0.076068,-0.2905,-0.1267
-0.1067,0.17791,-0.065845,-0.040868,0.10605,-0.015725,-0.21271,-0.053223,-0.036069,0.16795
0.22456,-0.12815,0.1551,-0.0081154,-0.15738,-0.027701,-0.07504,0.0032303,0.29387,0.12642
-0.11154,0.043886,-0.0055744,-0.058574,-0.067863,-0.092186,0.12915,-0.014758,-0.11232,-0.11989
-0.12312,0.086721,-0.0038997,-0.058237,-0.0013839,0.058647,-0.080755,-0.21187,0.027138,0.0068047
0.090404,0.097511,0.13782,-0.10234,-0.010213,0.14605,0.062286,-0.016005,0.15628,0.033897
-0.0078881,-0.05477,0.091327,-0.057969,-0.064114,-0.029501,0.13197,-0.05636,-0.043963,-0.11413
-0.014904,-0.03254,0.071561,-0.012606,0.094621,-0.10744,-0.11368,0.069539,-0.18483,0.035834
0.023374,-0.0094199,-0.0095385,-0.076489,-0.10367,-0.25588,0.13411,-0.055985,0.0095597,0.062868
-0.03219,0.050923,0.049396,-0.40096,0.066886,0.15914,-0.10159,-0.19473,0.011245,-0.047594
0.053151,0.15815,-0.043556,-0.25726,0.29042,0.18699,-0.29216,-0.14868,-0.10018,-0.1711
0.11117,-0.17069,0.055305,-0.23908,0.15968,0.35374,-0.13116,-0.15325,-0.18697,-0.23454
0.047733,-0.21558,-0.059541,0.10116,0.068128,0.18727,-0.29573,0.037446,-0.013095,-0.38648
-0.090489,-0.20427,-0.0098054,0.24235,0.13614,0.18074,-0.45465,0.0068468,0.19827,-0.11136
-0.0042419,-0.22575,-0.11769,0.2659,-0.16306,-0.033361,-0.39938,0.049745,0.090445,-0.13476
0.012686,-0.1499,0.0043555,-0.087023,-0.16862,-0.41045,-0.13512,0.10425,0.48281,-0.091555
0.17095,-0.20106,0.020096,-0.17649,-0.26923,-0.18598,-0.23158,0.15839,0.31248,-0.058843
0.090801,-0.17389,0.038088,-0.14755,0.062692,-0.22565,0.13476,0.23611,0.060494,0.056744
-0.036477,-0.073651,0.064652,0.14708,-0.062092,-0.278,0.27123,-0.08406,-0.097361,-0.31528
0.25644,0.078353,-0.10181,-0.00015959,-0.14819,-0.1457,0.12322,-0.29412,-0.17392,-0.14083
0.097828,-0.018798,-0.089543,-0.019433,0.076869,-0.30221,0.135,-0.10888,-0.16396,-0.12696
0.24928,-0.031221,0.18984,0.011552,0.0075274,-0.21899,-0.094455,-0.12694,-0.32369,-0.36588
0.008089,0.021571,-0.014712,-0.064903,-0.24308,-0.23153,-0.0047917,-0.14413,-0.0084195,-0.025443
-0.13024,0.04338,0.11118,0.035932,-0.25258,0.27109,0.051061,-0.28517,-0.047174,-0.063697
-0.020366,-0.11022,0.18349,-0.04612,-0.17,0.051859,-0.066102,-0.29264,-0.1833,-0.063669
-0.1496,-0.24469,0.27872,-0.065927,-0.073848,0.090809,-0.14569,-0.18122,-0.36623,0.033355
-0.023963,-0.10691,0.061331,-0.086005,0.10872,-0.063414,-0.18783,-0.23593,-0.1403,0.16881
-0.05667,-0.059255,0.049676,0.044883,0.021686,0.047118,0.020928,0.065118,-0.040211,0.11912
-0.18037,0.10331,-0.042983,-0.034453,-0.096519,0.11435,-0.17578,0.076516,0.054646,-0.10316
0.07858,-0.059706,0.06136,-0.021873,0.012296,-0.037141,-0.068499,0.088356,-0.055992,0.1818
0.083532,-0.28451,0.090012,0.0837,-0.23365,-0.12328,-0.086858,0.04917,0.044068,-0.010379
-0.048812,-0.075857,0.14511,-0.017852,-0.094112,0.094646,-0.11146,0.10532,0.023999,-0.082986
-0.063469,-0.084859,0.041994,0.078101,-0.041388,0.15477,-0.10673,0.14279,0.071106,-0.057701
0.068696,0.0089913,-0.010977,0.08195,-0.11083,0.040004,-0.069998,-0.16968,0.034164,0.050795
-0.011461,0.02223,-0.16855,0.020458,0.0026941,-0.17643,-0.094144,0.21878,-0.041674,-0.13743
-0.068881,0.013859,0.18493,0.0049209,0.01144,-0.079278,0.021025,-0.025485,-0.011989,0.013761
-0.20984,0.040024,0.18727,-0.010296,0.13014,0.11988,0.025237,-0.079254,-0.14353,0.1008
-0.18113,0.13464,0.12014,-0.20305,-0.01475,0.16736,-0.0037381,-0.020072,0.075054,0.015145
-0.2114,-0.18635,0.076734,-0.092558,0.0018024,0.20284,-0.24547,-0.049008,-0.27894,-0.10728
0.013931,0.035335,-0.084383,-0.14176,0.26432,0.23533,-0.20252,-0.12446,-0.1017,-0.16744
-0.29397,-0.13611,0.12474,-0.13711,0.13627,0.28927,-0.20269,-0.058681,-0.056787,-0.2086
-0.11243,-0.15271,-0.1713,0.12073,0.17106,0.2806,-0.34088,-0.17018,0.051127,-0.20085
0.03272,-0.17122,7.0105e-06,0.11097,-0.017337,0.17802,-0.20387,-0.0075669,0.32143,-0.12591
0.26888,-0.086259,0.0058641,-0.094059,-0.16817,-0.1908,-0.25309,0.12045,0.26577,-0.17955
0.25275,-0.02821,0.017926,-0.28356,0.13656,-0.56027,-0.13159,-0.073825,0.2295,-0.19992
0.23038,-0.1744,-0.12448,-0.2091,-0.20626,-0.30697,-0.059032,-0.020768,-0.022226,-0.087916
0.1362,-0.16253,-0.091066,-0.2456,-0.026626,-0.4745,-0.039815,-0.15078,-0.17589,-0.026334
0.032613,-0.074672,0.094993,-0.13184,-0.29065,-0.32174,0.070933,-0.16584,-0.018637,0.027342
0.10624,-0.10883,-0.20617,0.017949,-0.001751,-0.13982,0.093772,-0.11143,-0.23513,-0.048981
-0.088673,0.031458,-0.0023149,-0.044656,0.074398,-0.12483,0.025968,0.064467,-0.097141,0.034762
-0.13159,-0.037372,0.036463,-0.083047,-0.20185,0.032255,-0.077964,-0.095566,-0.082198,0.039324
-0.13896,-0.02103,0.25304,-0.015581,-0.13477,0.15825,-0.21567,-0.021373,-0.33343,-0.051138
-0.025125,-0.039638,0.19115,0.091768,-0.14672,0.10116,-0.0020792,-0.15698,-0.12055,-0.092292
-0.056239,-0.047708,0.04959,-0.021365,-0.23094,0.13034,-0.043715,-0.11819,0.078172,-0.19716
0.03559,0.10274,-0.090939,-0.13814,-0.0054691,-0.14533,-0.029491,-0.223,-0.0020078,-0.18787
-0.02989,0.083671,0.047514,0.16285,-0.046681,0.14222,-0.12005,-0.028784,-0.1051,-0.12647
-0.079056,-0.10667,-0.022067,-0.29862,-0.14471,-0.17592,-0.022282,0.075135,0.069001,0.11752
0.0097149,0.12649,-0.044102,-0.0049566,-0.09692,-0.19922,-0.081767,-0.10155,-0.12737,0.01356
-0.0046521,-0.045855,-0.21342,0.040829,-0.13988,0.025093,-0.14054,0.097497,-0.1309,-0.10646
-0.099945,-0.095397,0.2351,-0.092753,-0.044687,-0.0089696,0.064044,-0.013611,-0.074672,0.095692
-0.010372,0.0076512,-0.027387,-0.019951,-0.20859,0.18562,-0.053117,0.12528,-0.031578,0.025905
-0.057258,-0.0026918,0.080144,0.19373,0.012652,0.083339,-0.00069005,-0.041319,0.173,-0.15689
-0.1372,-0.038806,-0.2423,-0.22244,0.017881,-0.09268,-0.039345,0.092088,0.03439,0.16357
0.1187,-0.050838,0.038025,-0.063972,0.0076672,0.056425,-0.034138,-0.096534,0.024726,-0.13175
-0.15983,-0.020352,0.024908,-0.067203,0.0074561,-0.10608,-0.075579,-0.074456,0.043519,-0.077069
0.037804,-0.12504,-0.055441,0.014788,0.037373,-0.15341,0.030645,-0.029739,0.078964,-0.15803
-0.067005,0.027153,-0.26596,0.020831,0.070964,0.2455,-0.096449,0.05392,-0.19617,-0.005728
-0.0088692,-0.16075,-0.068229,-0.025221,0.15461,0.1048,-0.10266,-0.038008,-0.050293,-0.24017
-0.0018393,-0.16035,0.11775,-0.31161,0.1469,0.52105,-0.1295,-0.12941,0.019619,-0.11501
-0.037617,-0.021913,-0.032876,-0.11167,0.14104,0.27625,-0.10546,-0.0004749,0.10868,-0.20904
-0.038096,-0.042652,-0.20171,-0.052786,-0.038393,0.11543,0.013687,-0.15705,0.37432,-0.14511
0.09914,0.11191,-0.21885,-0.16642,-0.15386,-0.22547,-0.22424,-0.057749,0.12906,0.033701
0.098477,-0.061088,-0.11396,-0.082111,0.14245,-0.10061,0.13245,-0.028907,0.030423,0.13941
0.37728,-0.14934,0.10923,-0.13773,0.011394,-0.25999,-0.13232,0.072961,-0.03186,-0.1383
0.076959,-0.21094,-0.13253,0.039954,-0.17595,-0.21056,0.0044137,-0.10427,0.012584,0.062928
0.23109,-0.056875,-0.075876,-0.15471,-0.10351,-0.14302,0.24579,-0.13796,-0.10358,-0.22573
0.099909,-0.089536,-0.0044296,0.028455,0.0029731,-0.17946,0.023283,-0.016452,-0.14512,0.089861
0.087092,0.11282,0.084153,-0.085507,-0.14454,0.12944,-0.036021,-0.047089,-0.24875,0.085267
0.10701,-0.026265,0.094173,-0.095978,0.089167,0.072765,-0.13724,0.11677,0.16444,-0.20312
-0.076582,-0.11735,0.3319,0.027733,0.022238,-0.017731,0.028016,-0.11165,-0.043545,-0.038689
0.069493,-0.15012,0.17108,-0.020349,-0.025293,-0.082182,-0.17352,0.13344,-0.10378,-0.17079
-0.038665,-0.070885,0.1275,-0.030171,-0.077333,0.03506,-0.21918,-0.039623,-0.11606,-0.1143
-0.18423,0.03209,-0.073748,-0.051186,-0.022981,-0.046192,0.082359,0.068206,-0.12608,0.0058259
0.0047089,-0.11521,0.017409,0.025057,-0.071472,-0.013948,-0.16668,-0.026912,0.047523,0.13011
-0.13629,0.018715,0.024357,-0.046987,0.076749,0.01023,0.011442,-0.055781,0.0051233,-0.11586
0.018293,0.15946,-0.016484,0.082092,0.0023431,0.23243,-0.043754,-0.10103,-0.041572,0.013691
0.050529,-0.071563,0.096188,-0.079289,-0.068195,-0.23988,-0.070685,-0.18503,-0.027613,0.088421
0.11018,-0.08268,0.091383,-0.14605,-0.049988,0.11156,-0.024624,0.034839,-0.011063,0.18138
-0.286,-0.080243,0.20813,0.22861,0.028987,0.041642,0.079548,0.017512,0.19108,0.13357
0.050258,-0.016772,0.0039874,0.002184,0.09279,0.1371,0.11649,0.16436,-0.023571,0.057513
-0.013593,0.043773,-0.00091546,0.23559,0.048882,-0.0034594,0.15623,0.031762,-0.076654,0.087414
0.16871,0.060156,-0.012307,-0.034477,-0.011929,0.099757,0.081585,-0.071752,0.027704,-0.017781
-0.092953,-0.039074,0.074962,0.034612,-0.087722,0.057787,0.066089,0.037316,0.087512,-0.066489
0.10818,0.082348,-0.028007,-0.2092,0.019201,0.025487,0.16119,0.16505,0.17884,-0.089004
-0.1709,0.20103,-0.05352,-0.022149,0.097077,0.13592,-0.11614,-0.052478,-0.19231,-0.002685
-0.13555,-0.10689,-0.044882,0.0081663,0.13751,0.18381,-0.018154,-0.14485,0.023181,-0.015547
-0.18355,0.1148,0.020864,-0.1826,0.031255,0.35626,-0.0067144,-0.045847,0.099768,-0.29245
-0.069818,-0.11301,-0.079534,-0.12056,-0.22052,0.32908,-0.10036,-0.18515,0.095902,-0.11864
0.069157,-0.074176,-0.073076,-0.092138,-0.036031,0.21534,-0.06373,0.012732,0.054945,0.11159
-0.17907,-0.045311,0.076857,-0.13759,-0.014553,0.12684,-0.13028,-0.10714,0.039199,0.086948
0.050047,0.11226,-0.0091254,-0.18374,-0.18019,0.070563,0.12975,-0.14576,-0.040565,-0.010959
0.12401,0.016414,0.067213,-0.048333,0.047331,-0.044692,0.033721,-0.079006,-0.02225,-0.059229
0.20307,-0.037621,-0.17461,-0.13367,0.10281,-0.15199,-0.19771,-0.023361,-0.12885,0.22526
0.23645,-0.035074,0.16697,0.1548,-0.16412,0.051992,0.15385,-0.013134,-0.10401,-0.0036059
0.0031258,0.0012736,0.15619,-0.17641,-0.069563,-0.057931,0.11962,-0.087008,0.020797,0.099264
0.13643,0.05664,0.052737,0.12552,-0.094489,-0.11557,-0.066108,-0.25095,0.050493,-0.10726
-0.023965,0.015588,0.246,-0.15513,-0.0082887,0.12963,-0.11983,-0.012442,-0.042367,-0.082874
0.024039,-0.17918,0.2251,-0.18962,-0.051588,0.080576,-0.28995,0.02488,-0.041599,-0.062752
-0.054464,-0.030742,0.28197,-0.13591,0.10703,0.084202,0.078109,0.067664,-0.011352,0.065021
-0.037609,0.08296,-0.012293,-0.067626,-0.040331,0.10877,0.035399,0.15248,-0.20975,0.02238
0.0018531,-0.059924,0.13818,-0.089538,-0.062476,0.084977,-0.056576,0.094088,-0.09788,-0.067184
-0.019363,0.18293,-0.037772,0.0048669,0.080071,0.029602,-0.18186,0.17116,-0.051044,0.10974
0.066885,0.072364,0.10752,-0.0022271,-0.030964,0.013927,-0.11799,-0.21228,0.18368,-0.14197
0.033112,0.067188,0.092003,-0.10654,0.009666,-0.057449,0.15162,-0.20129,-0.10441,0.12663
-0.018866,-0.019176,-0.13671,0.11605,-0.18922,-0.0036296,-0.01186,-0.14241,0.13903,0.081168
-0.10242,0.069712,-0.0967,-0.037729,0.086525,-0.034482,0.076104,-0.14585,0.067711,-0.019869
-0.019109,-0.096817,0.1648,-0.042804,-0.12257,0.037867,0.08705,0.072625,-0.00257,0.074982
-0.14026,-0.10292,0.061026,0.099507,-0.029579,0.037052,-0.06351,0.15672,-0.061521,0.0029968
-0.17303,-0.14732,-0.1052,-0.081892,-0.13198,0.046138,-0.044347,-0.0646,-0.1558,-0.061291
-0.076432,0.029177,-0.07351,-0.024542,0.17504,-0.032245,0.016202,0.008691,0.019915,0.091823
-0.11533,-0.078654,0.078608,0.026234,-0.017514,0.047526,0.058155,0.081707,-0.11338,-0.073393
-0.079541,0.020566,0.022001,0.081958,-0.096099,0.01158,-0.23879,-0.020574,-0.168,0.15511
-0.027162,-0.035766,-0.015613,0.030283,0.12278,0.049041,-0.08826,-0.047081,-0.019647,-0.070173
-0.21977,0.09376,-0.1244,-0.0022017,0.052695,0.18382,-0.032596,-0.1344,0.077388,0.12466
0.072757,0.19107,-0.011636,0.037441,-0.077593,0.25914,-0.14518,0.026704,-0.036849,0.0058015
-0.11474,0.047542,-0.021244,-0.02557,0.14825,0.30556,-0.059442,0.037717,0.061403,-0.14675
-0.065836,-0.10218,-0.045912,-0.0060447,-0.17954,-0.072362,0.054676,-0.17075,0.033548,-0.027571
0.061022,0.02316,-0.15358,-0.074483,0.086896,0.17528,0.20224,-0.074372,0.21819,0.19345
0.04861,-0.010175,0.022218,-0.097744,0.010525,0.06186,0.042664,0.035999,0.10445,0.069209
-0.11523,0.0017062,0.086771,-0.035721,-0.024714,-0.032076,0.01041,-0.011845,-0.1181,0.034439
0.0046757,-0.090625,-0.15831,-0.014679,-0.041103,-0.010907,0.13313,-0.018368,-0.013161,-0.1269
0.1164,0.11565,0.016314,0.23659,0.068972,0.11925,-0.1548,0.042606,-0.030311,0.077376
-0.051049,-0.026953,0.13866,-0.091816,0.1403,0.0036671,0.011223,-0.040559,-0.074853,-0.02536
-0.04618,-0.061261,0.01497,-0.035163,0.047021,-0.054451,0.090791,0.019967,0.0057485,-0.041219
0.065913,0.10366,-0.057546,-0.11749,-0.035744,0.059018,-0.084735,-0.038655,0.03476,-0.02445
-0.041237,-0.20604,-0.0071292,0.046564,0.095069,0.11655,-0.013952,0.028733,0.31061,-0.047315
-0.23118,-0.10684,0.026665,0.0095592,-0.032296,0.013348,-0.11873,0.06068,0.032791,0.13385
0.073504,0.045512,-0.12793,-0.075902,0.045768,-0.014077,-0.050926,0.013663,-0.099197,-0.057844
0.24784,0.0072967,-0.076578,-0.085086,-0.034927,0.22853,0.050944,0.089983,-0.037916,0.010949
0.012765,0.10888,0.095166,0.080239,0.0095548,-0.21933,-0.10255,-0.23304,0.083584,-0.076927
0.023299,-0.066072,0.11262,-0.056106,0.12832,0.0078205,-0.11836,0.088352,-0.11385,0.20337
0.066882,-0.052525,0.013056,-0.094305,0.014098,-0.13541,-0.0819,0.058402,-0.018244,0.11534
0.2073,0.096572,-0.27304,-0.11978,0.19032,-0.17874,-0.19924,0.019079,0.078477,0.084968
0.084177,-0.049399,0.0018064,0.10392,0.062408,-0.14173,0.0019457,-0.039259,-0.015154,0.15389
-0.10749,0.078625,-0.069871,-0.082165,-0.01349,0.17286,-0.071187,0.10446,0.067433,-0.15875
-0.089614,-0.1054,0.0033332,0.069345,-0.023817,-0.13848,0.010839,0.28467,-0.072212,0.047959
-0.088513,0.050682,0.059006,0.035078,-0.0064967,0.037677,-0.047934,0.036589,-0.032459,0.11195
-0.10213,0.036948,-0.081268,-0.037499,-0.099637,-0.021144,0.13435,0.11381,-0.15897,-0.042256
0.085281,0.00735,0.1472,0.10457,-0.1423,-0.063858,-0.028448,-0.043578,0.01955,0.021352
-0.13231,-0.080641,0.040452,0.097782,0.23916,0.12917,-0.073545,-0.18554,0.10436,-0.011268
0.043138,-0.061832,0.043826,-0.13817,0.12618,0.054456,0.036216,0.033504,0.027884,0.19276
0.10996,0.10195,0.19553,0.13461,-0.0015167,0.028147,-0.047054,-0.045467,0.1242,-0.076686
-0.041089,-0.014538,-0.045637,-0.10178,-0.21804,0.091906,-0.04525,0.023309,-0.011981,0.15061
0.039758,0.0066865,-0.035408,-0.037685,0.082493,0.20844,-0.12636,-0.0061648,0.0088324,-0.18353
0.021376,-0.0050116,-0.10902,0.08982,-0.087652,0.14603,-0.20065,-0.1335,0.081251,0.0013712
-0.0038316,-0.39718,-0.064992,0.18364,-0.093446,-0.048117,-0.041226,0.01581,-0.15617,-0.17239
0.055513,0.2321,-0.26612,0.076854,-0.082915,-0.062995,0.084543,0.034512,0.015287,-0.073405
0.0083139,-0.025737,-0.063992,-0.0040812,0.14949,0.012974,-0.05213,-0.044338,-0.1337,-0.025381
0.12235,-0.091011,0.025267,0.13261,-0.031506,0.047312,-0.039593,0.052116,0.10566,0.16848
0.18093,-0.035439,0.0089348,-0.04437,-0.074875,-0.05515,-0.076429,0.057557,0.021754,0.099915
0.16824,-0.072177,0.18474,0.025025,0.07914,0.024353,-0.10245,-0.20636,-0.035901,-0.11842
-0.0030218,0.11394,0.032162,-0.079157,-0.013996,-0.019077,-0.11518,-0.037522,-0.069772,-0.14561
0.090321,0.055027,-0.030472,-0.040243,0.059534,-0.025298,0.11475,-0.16261,-0.025104,-0.17486
-0.14026,0.014,-0.138,-0.088681,-0.052354,0.10765,0.016856,0.060829,0.062736,-0.043893
-0.10902,0.089125,0.050996,-0.08662,0.062407,0.17882,-0.06701,0.048821,0.25063,-0.055325
-0.0020486,0.023881,-0.14299,0.036434,0.21553,0.092782,-0.060965,-0.05224,-0.14369,0.065101
0.19472,0.00019264,0.037442,0.082867,-0.16015,0.048625,-0.19988,-0.10773,0.040798,0.10736
0.088276,0.052147,-0.19551,0.095846,-0.12207,0.013012,0.12712,0.13896,0.0085557,0.11613
0.05348,0.033136,0.070879,0.13968,-0.10634,0.057068,-0.015298,-0.11553,0.22524,0.017002
-0.18321,0.14835,-0.070867,-0.01053,0.14774,-0.12071,-0.092205,-0.037896,0.074925,0.10357
0.24192,-0.054273,0.16043,-0.052151,0.024197,0.13347,0.22681,0.10033,-0.095749,-0.0031344
0.0035535,0.023762,0.1178,-0.12797,-0.07677,-0.017539,0.072007,-0.049426,0.076008,0.0064241
0.029775,-0.058798,-0.094887,0.11362,0.049951,-0.015919,0.10474,0.17782,-0.10403,-0.07078
0.07646,-0.07699,0.032929,0.16718,0.1006,0.072495,-0.039054,-0.060112,0.084969,-0.010322
0.070175,0.15981,-0.039321,0.098725,0.14,-0.2166,-0.022998,-0.0054702,-0.17901,0.085894
-0.035721,-0.04747,-0.060553,-0.01486,0.066946,-0.082523,-0.067744,-0.12332,-0.04148,-0.081535
-0.088865,-0.022764,-0.014274,0.11925,-0.12531,-0.025006,-0.0098837,0.071763,0.0034612,0.00083913
0.11357,0.049019,-0.055156,-0.28337,0.27376,-0.13373,0.099956,-0.059128,0.10764,0.021456
0.010731,-0.019404,0.020244,-0.11621,0.016973,0.18879,0.1738,-0.10172,-0.12887,-0.068891
-0.031788,0.15978,-0.0087055,0.00028699,-0.0056195,0.0063027,0.06038,-0.11714,0.062175,-0.10867
0.13329,-0.1419,0.094059,0.038622,-0.016826,0.079932,-0.031262,-0.034487,0.033961,-0.05383
-0.089971,-0.17195,-0.094425,-0.16395,0.11767,-0.047601,-0.11474,-0.0010519,0.12939,-0.093759
0.11089,-0.10405,0.06016,-0.084839,0.024275,-0.021798,-0.0086538,0.092301,-0.13511,0.01033
-0.089066,-0.032304,0.15043,0.11958,-0.029718,0.068852,0.062885,-0.081264,-0.019291,-0.09215
-0.1672,-0.14365,-0.023622,-0.076787,0.080185,-0.10081,-0.16048,-0.11362,-0.058413,-0.17576
-0.012041,-0.026198,-0.083603,0.01841,0.03824,0.20292,-0.17322,0.038945,-0.081248,-0.0046228
0.13166,-0.012853,0.074935,0.024594,-0.10513,0.055555,-0.12555,-0.049188,-0.012672,-0.091575
0.16684,0.036869,0.073022,-0.004443,0.067658,0.022447,0.10231,0.099469,-0.037549,0.020343
0.23779,-0.14431,-0.15135,0.05975,0.10582,0.020423,-0.097381,-0.006086,0.0086283,-0.13534
0.025919,0.053668,0.10133,0.12703,0.057024,0.15099,-0.11143,0.10465,0.0075551,-0.01328
-0.12747,-0.013401,0.11523,0.02732,0.033289,-0.090588,0.14998,0.054898,-0.035455,0.10159
-0.1931,-0.01673,0.1416,-0.21957,-0.085727,-0.144,-0.02061,-0.055205,-0.024004,0.052652
0.16993,-0.022591,-0.033761,-0.0077727,-0.082957,-0.13181,0.083775,0.18489,0.037073,0.0010571
-0.13458,-0.10447,-0.086254,-0.11576,0.028722,-0.10845,0.061367,-0.0089244,0.19938,-0.14069
-0.10815,-0.034509,-0.18807,0.016752,-0.042558,0.10722,0.075778,-0.027776,-0.041551,-0.043699
-0.022553,0.087645,0.0014416,-0.051101,0.16435,-0.14858,0.093513,-0.0166,0.13946,-0.13047
-0.064922,0.041563,0.026941,0.016952,-0.002875,0.0044032,0.042547,0.14965,-0.048526,0.043779
-0.081127,0.040332,-0.05818,-0.13397,-0.039402,-0.10576,-0.070345,-0.0057629,0.08531,0.00042115
-0.07336,0.06474,0.1183,0.13303,-0.053324,-0.021204,0.099563,0.10379,0.088042,-0.082231
0.077032,-0.042077,-0.050391,-0.082889,0.068374,-0.067757,0.040756,0.015137,-0.11305,-0.034623
0.034459,0.033403,-0.17972,0.1147,-0.07718,-0.068577,-0.036127,0.17083,-0.087558,0.058265
-0.013652,-0.092944,0.17259,0.069035,0.14904,-0.073595,-0.046993,-0.1173,-0.07841,-0.012027
