0.11749,-0.055516,0.033528,0.2416,-0.085442,0.072997,-0.16987,0.10248,0.060177,0.13295
0.021778,-0.14765,-0.05533,0.015627,-0.040564,0.025652,-0.038857,-0.018006,-0.12102,-0.17571
0.14656,0.021655,0.078125,0.036305,0.038049,-0.12141,0.089097,0.043477,0.079901,-0.10341
-0.057972,-0.062023,0.10843,-0.098121,-0.08114,-0.024875,-0.050938,0.089403,0.0066127,-0.14317
-0.0094887,0.046188,-0.022144,0.048493,-0.030889,0.090045,-0.21227,0.018547,0.00039434,0.05075
0.063552,-0.00455,-0.029794,0.051125,0.083138,-0.098385,-0.062849,-0.048491,-0.065408,0.038524
0.15422,0.14192,-0.076275,-0.080999,0.024265,0.12166,0.023287,-0.016839,0.060727,-0.023439
0.12841,0.16971,-0.094333,-0.17456,0.1441,0.11905,0.03112,0.038374,0.037551,-0.031683
0.09111,0.09615,-0.031628,-0.089656,0.023946,-0.043512,-0.10437,-0.093545,-0.066225,0.0063012
0.027337,-0.030203,0.040565,-0.02293,-0.035037,0.0048362,-0.12872,-0.076887,0.051602,-0.14938
-0.069723,0.17402,-0.11236,-0.11158,-0.1636,0.059106,0.090383,-0.0058457,0.090094,0.034336
-0.011421,-0.043091,0.16531,0.11467,0.30948,0.0243,-0.04156,0.10154,-0.071707,-0.039434
-0.14912,-0.069655,-0.23642,0.05036,-0.13867,-0.020462,-0.090888,-0.1734,-0.21652,0.024757
0.10982,0.090677,0.066519,0.17084,-0.034426,0.092461,0.0036835,0.035232,0.1582,0.11852
0.07686,0.076853,0.11145,0.044091,-0.058763,-0.1593,0.065576,0.062405,-0.18738,-0.058099
-0.15158,-0.12137,-0.12059,-0.04919,0.15428,0.016163,0.11241,-0.050007,0.10805,0.039078
0.084468,-0.051639,-0.011763,-0.059371,0.068452,0.26691,0.033624,-0.078975,-0.048181,0.035203
0.085342,0.017203,-0.15483,-0.013804,-0.081232,-0.018983,0.066836,-0.02456,0.203,-0.051623
-0.016695,-0.084342,-0.017384,0.046206,-0.097771,0.015901,-0.0017622,-0.01949,0.13839,0.016797
-0.045869,-0.022288,0.094341,-0.085186,-0.11932,0.083821,0.12363,0.15265,0.2017,-0.026767
0.020058,0.03405,-0.0023432,-0.095136,-0.041332,-0.0038246,0.10232,-0.066044,0.11224,0.16457
-0.12975,-0.14702,-0.15986,-0.014969,0.08007,0.22187,0.0053698,-0.13955,-0.084947,-0.075947
0.049975,0.22119,0.23217,0.023088,0.085344,0.12802,-0.10408,0.069682,-0.036382,-0.034972
-0.11389,0.17591,0.088007,-0.041342,0.0022593,-0.11375,0.001588,-0.24839,0.16205,0.01197
-0.0081635,0.20751,0.16966,-0.16649,0.22887,0.037493,-0.10581,0.01569,-0.094392,-0.030854
-0.17433,0.13347,0.10952,-0.090151,-0.026891,0.070734,0.059269,0.18157,-0.033873,0.16269
0.10898,0.068679,0.22763,-0.20857,-0.078083,0.13957,0.045908,-0.13411,-0.082931,-0.29689
-0.07261,-0.2341,0.059742,0.034726,0.12433,0.13854,-0.10642,0.057217,-0.038972,0.0043369
-0.0095727,0.067608,-0.077287,-0.027543,0.0029064,-0.060158,-0.065159,0.14645,0.065959,-0.05574
0.075845,0.11242,0.0079196,-0.031963,-0.26373,0.0095595,-0.038201,-0.010318,-0.023852,0.16032
0.094166,0.09507,-0.0098379,-0.11267,0.12273,-0.11368,0.02586,0.075854,0.18622,-0.0066335
-0.035577,-0.061036,-0.057449,0.0027702,-0.032218,-0.085168,-0.0066343,0.064219,0.0066999,0.023119
-0.025268,-0.0089326,-0.14617,-0.0091946,0.017116,0.14378,-0.14991,0.17379,-0.12207,0.22101
-0.10337,-0.059129,-0.091016,0.10107,0.0053219,0.020785,-0.14935,0.04478,-0.036962,0.011638
0.061104,0.079705,0.068585,0.12939,0.14388,-0.021729,-0.0071155,-0.015345,-0.089322,0.2372
0.12167,-0.024449,0.080299,-0.043258,-0.097319,0.1133,0.030974,0.088153,0.045588,0.026713
-0.070105,0.099039,0.077976,-0.013678,0.14504,-0.058377,0.035411,-0.049845,0.1172,0.043663
0.14357,-0.0059509,0.051188,0.030516,-0.06889,0.049469,-0.12335,-0.069242,-0.030104,0.080776
-0.021784,-0.16846,-0.019455,0.041975,-0.035964,-0.0094306,-0.080743,-0.030171,0.040516,0.1482
0.03541,0.052178,-0.010446,0.039467,-0.17632,-0.065777,-0.050396,-0.17277,-0.091778,0.12314
-0.11008,-0.04064,0.17164,-0.085073,-0.078085,-0.12001,-0.020893,-0.060861,-0.089843,-0.070573
-0.04154,0.041112,-0.027298,0.063701,0.095204,-0.061281,0.089383,-0.069593,0.055028,0.1411
0.042533,0.10916,0.053833,0.10628,0.019252,-0.00071831,0.1817,-0.11466,-0.11014,0.0022239
0.088773,0.082404,-0.051433,0.14829,0.087776,-0.078905,0.14091,-0.052053,0.0042115,-0.063287
0.037036,0.16229,0.026422,-0.2,-0.073498,0.11703,0.11644,0.16764,-0.050146,-0.060939
0.16073,-0.14135,0.06577,-0.22777,-0.14588,0.0037807,0.036679,-0.048939,0.09059,0.054232
-0.052179,0.03005,-0.11316,0.011421,-0.01878,-0.12361,-0.1254,-0.23608,0.043312,0.001735
0.010329,0.0064526,0.0073139,0.026625,-0.041483,0.13663,0.02544,-0.0058873,-0.0019841,0.060488
0.1994,-0.024772,-0.067685,-0.055289,-0.086452,0.030585,0.088594,-0.034034,0.10757,-0.024052
-0.037421,0.15108,-0.17483,0.019482,0.18669,-0.10665,0.033621,0.03836,0.0036519,-0.085434
0.20252,0.091148,-0.13985,-0.077943,-0.12765,0.038377,-0.066484,-0.13841,-0.063343,0.11289
-0.015037,-0.054775,0.14478,-0.030644,-0.019795,-0.23497,-0.17683,-0.022177,0.080031,0.11076
-0.15387,-0.16855,0.021892,-0.010818,0.022931,0.054659,0.057268,-0.07995,-0.0013189,0.14474
0.065636,0.028665,-0.037283,-0.0070612,0.1985,0.13468,0.022005,0.046375,0.05817,0.12178
0.059076,0.17906,0.029548,0.04463,-0.0094961,0.050497,0.003954,-0.096483,0.17505,-0.11374
-0.042536,-0.061184,0.069922,-0.10113,0.17494,-0.0049958,0.03427,-0.032224,-0.082433,-0.17533
-0.060733,0.022647,0.085963,0.19217,-0.10984,0.020091,0.057723,-0.023104,-0.12212,-0.041843
-0.10479,-0.19148,-0.059004,-0.117,-0.17791,-0.042048,0.26854,-0.16762,0.19441,0.060315
-0.13255,0.083693,0.075129,-0.069808,-0.02884,0.11717,0.03874,-0.021125,-0.16749,0.11581
0.064585,0.23667,-0.091641,0.045481,-0.022242,-0.2276,-0.090882,0.14097,0.080977,-0.064988
-0.14279,-0.054551,0.0079211,-0.01014,0.059749,-0.097018,0.0047542,-0.050047,0.058272,-0.20207
0.18239,0.031661,0.16353,0.076358,0.070383,-0.011975,0.09393,0.08813,0.043903,-0.042086
0.1052,-0.023655,0.0078033,-0.0567,0.083517,0.088536,-0.063909,0.082161,-0.020501,-0.12972
-0.0093404,0.12093,0.031582,-0.0022759,-0.14629,0.093616,-0.14622,0.086702,-0.039453,0.073909
-0.16254,0.098267,-0.0052613,0.01784,0.19542,-0.0025305,-0.073297,0.07167,0.055984,0.011026
0.012938,-0.017341,-0.018948,-0.074491,0.11094,0.13186,-0.044483,0.12046,0.057921,0.0063462
-0.056943,0.060805,-0.092268,0.081868,-0.13221,-0.13105,0.054537,-0.081109,0.069323,-0.066578
0.13668,0.019921,0.015914,0.11215,0.1019,0.043156,0.067578,0.15419,-0.14476,-0.12613
-0.1059,-0.13796,-0.031055,0.039571,0.050747,0.1318,-0.077793,-0.16173,-0.12619,-0.21484
-0.1084,0.052139,-0.072549,0.049116,-0.08672,0.05861,-0.051583,0.11089,-0.082332,0.080016
-0.037243,-0.15844,-0.15842,0.031889,-0.026111,0.087289,0.0212,0.061858,0.13482,-0.041095
-0.10391,0.080413,-0.1513,-0.065789,0.11794,0.072059,-0.031547,0.04163,-0.013503,-0.050416
-0.041499,0.021306,-0.078631,-0.087161,0.13878,0.006049,-0.090713,-0.018335,0.036753,-0.061519
-0.015299,-0.20352,-0.23795,0.11027,-0.075839,0.12401,-0.07254,-0.13613,-0.23864,-0.075931
-0.011285,-0.13149,-0.018495,-0.037317,-0.057939,0.22875,-0.16326,-0.10331,-0.025976,-0.023038
0.10409,-0.028779,-0.1203,0.012405,0.053083,-0.036864,0.11849,0.054691,0.049696,0.066667
0.032535,0.051977,-0.10279,0.030464,-0.097552,-0.070976,-0.053213,0.11995,-0.013983,0.061161
-0.22924,-0.12201,-0.10914,0.03404,-0.012764,0.0093985,-0.10421,0.0069767,-0.065071,0.062855
-0.042471,0.20088,0.054562,0.11398,0.077241,0.047317,0.14405,0.072632,0.12699,-0.13041
-0.092797,0.054487,0.0046009,0.12681,-0.069294,-0.13185,-0.012136,-0.11439,0.037916,0.065496
0.10687,0.018666,-0.11683,-0.060182,0.041014,0.00040487,-0.059593,-0.060222,0.099332,0.083451
0.047763,-0.055041,0.16327,0.11823,-0.19558,0.0034382,-0.01217,0.027528,0.061877,-0.028608
-0.024995,0.02585,-0.08717,-0.07997,0.17203,0.076277,-0.009557,0.13709,0.12688,-0.07622
-0.16787,-0.094416,-0.019179,0.10408,0.01703,-0.058887,0.074712,0.16444,-0.18892,-0.04446
-0.13222,0.055651,-0.092764,0.042391,-0.24641,-0.20554,0.11872,0.11514,-0.076357,-0.068187
-0.03635,0.045292,-0.046958,-0.091416,-0.1996,0.051597,-0.15977,-0.088289,0.13323,0.034814
-0.19121,-0.022499,0.12781,-0.15657,0.031179,0.056104,-0.072647,-0.2421,-0.069963,0.02328
0.04687,-0.105,0.19542,-0.0013003,0.034286,0.020318,-0.22712,0.052213,0.060383,0.067353
0.067286,-0.033462,0.0018502,0.044091,0.16026,-0.095966,-0.21722,-0.099211,0.1078,-0.012741
-0.027482,-0.078812,-0.31038,0.068712,-0.049424,-0.1848,-0.12428,-0.14207,-0.066317,-0.041466
0.14415,0.097736,-0.22894,0.10838,-0.16043,0.056957,0.006477,-0.20324,0.077914,-0.15044
-0.14755,-0.03347,0.040284,-0.0079766,-0.12611,-0.094843,0.11071,-0.090726,-0.085153,-0.087368
-0.044163,-0.019242,-0.22598,-0.069218,0.053002,-0.060525,-0.0021774,0.043591,0.080481,-0.13482
0.027691,0.0045114,0.042495,-0.040041,-0.13712,-0.089399,0.05861,0.024596,-0.038488,-0.10922
-0.26447,0.26457,0.014892,0.28008,-0.098026,-0.1842,-0.089961,0.098084,-0.076431,-0.11958
-0.078599,-0.04657,-0.15984,-0.016296,-0.26305,-0.11539,-0.1807,0.21692,0.074627,-0.0053983
-0.12167,-0.047144,0.09061,0.050906,0.057862,-2.3851e-05,0.025625,0.15296,-0.039096,-0.042384
0.058775,0.10438,-0.12359,-0.062348,-0.076838,-0.05756,0.070589,0.12185,-0.03842,0.053017
0.11197,-0.074581,-0.075426,-0.041196,-0.076815,-0.0033207,-0.043082,0.17855,0.088294,-0.078365
-0.040308,0.17973,0.0080365,0.043685,-0.064468,0.01027,0.14953,0.10447,0.019747,0.053267
0.090064,-0.019177,-0.03214,0.10345,0.031228,0.00049795,-0.081859,0.14617,0.13928,-0.030857
-0.26769,-0.036865,-0.086687,0.25286,0.051648,-0.14587,0.19622,0.14221,-0.093232,0.02989
-0.081074,0.088891,-0.021391,0.12901,0.016652,0.07869,0.071008,0.04694,-0.020217,-0.029929
-0.16662,0.19636,-0.1181,0.19619,-0.012023,-0.017446,-0.11199,0.093293,-0.091409,-0.12043
-0.039274,0.017782,-0.044274,0.1637,0.05958,-0.083225,-0.14608,-0.10697,-0.11278,-0.071125
0.054986,0.25331,0.25549,0.0062952,0.052828,-0.36673,0.15264,-0.00053814,0.18652,-0.064918
-0.066444,-0.054556,-0.068617,0.038305,0.08498,0.079444,0.11683,0.040565,0.071797,0.099144
-0.080874,-0.15103,-0.066084,0.11581,-0.22431,0.16498,0.076492,0.010977,0.01888,0.070188
0.11516,0.098142,0.013844,-0.10139,0.095012,-0.18082,-0.067446,-0.11176,-0.0090299,-0.054125
0.01575,0.027641,-0.12367,-0.12298,-0.10056,0.054146,0.047792,0.064515,-0.087258,-0.1019
0.080916,-0.23482,-0.013844,-0.0022734,-0.016486,-0.084622,0.13216,0.099499,-0.14779,-0.022576
-0.001902,0.083852,-0.006284,0.074441,0.12405,0.13635,-0.072685,0.1469,-0.024027,0.16627
0.018373,0.007477,0.0071484,0.074182,-0.062817,0.14502,0.18063,-0.10638,0.11134,-0.049858
-0.15799,0.1558,0.17449,-0.1478,0.055274,-0.086549,-0.053776,0.010802,0.10694,0.046546
0.066928,-0.044062,0.037746,0.068491,-0.034685,-0.06652,-0.10127,-0.097403,-0.05557,0.0015691
-0.013461,-0.069623,-0.033356,-0.18279,0.0093945,0.24042,-0.051096,0.11938,-0.11161,0.058454
0.063704,-0.077277,-0.047428,-0.039612,-0.0040108,-0.14148,0.037492,-0.035787,-0.07713,-0.068576
-0.15817,-0.00083644,0.036467,0.07108,0.039188,-0.10491,-0.0603,-0.1407,0.094833,0.10205
0.049775,-0.029523,-0.11587,0.045453,0.061145,-0.0074504,-0.012126,0.035651,0.15078,0.044332
-0.038537,0.012748,-0.020261,0.025943,0.085297,-0.21111,-0.10062,-0.13503,-0.075113,-0.065398
-0.0018196,-0.067042,-0.049299,0.17157,0.069587,-0.27731,-0.17719,0.11259,-0.055374,-0.29366
-0.17672,0.010491,-0.14058,-0.082075,0.063426,-0.058287,0.07054,0.19913,0.050974,-0.082525
-0.15484,-0.1811,-0.055713,-0.26135,-0.13883,0.075571,-0.017181,0.2774,0.094485,-0.1115
-0.031861,-0.055109,0.071819,-0.15966,-0.12017,-0.22249,-0.1665,0.091271,-0.080524,0.064666
-0.15143,0.17537,0.022067,-0.092598,-0.021959,0.0018221,-0.059198,0.089912,-0.046431,-0.18316
-0.24407,0.039039,-0.17196,-0.12084,0.093673,-0.16407,-0.14347,0.27996,-0.069561,0.060946
-0.17799,0.063863,-0.13805,-0.061643,0.20992,0.054712,-0.046199,0.12369,0.079159,-0.028158
-0.22602,-0.09055,0.061768,-0.31037,0.076297,0.049044,0.040439,-0.14832,0.16128,0.057919
-0.032225,-0.066589,0.045152,0.062273,-0.11566,-0.052622,0.048524,0.14692,-0.042875,-0.076607
0.091762,0.066799,0.041487,0.20021,-0.1857,0.2231,-0.033685,-0.060608,0.047281,-0.17231
-0.20597,-0.053851,-0.044578,0.25096,-0.1754,0.24144,-0.041695,-0.31104,-0.32819,-0.13833
-0.094436,0.1131,-0.032586,0.29237,-0.10274,0.06953,-0.0977,-0.096675,-0.20769,-0.11345
-0.11368,0.19834,-0.039796,0.28505,-0.15564,-0.056198,-0.14049,0.011124,-0.084288,0.0080445
-0.14143,0.0093456,0.01184,0.3831,-0.0037304,-0.093784,0.033514,0.07768,-0.12,-0.079734
0.14405,0.2317,0.087688,0.3072,0.16257,-0.021726,0.17116,0.0091199,-0.2782,0.018184
-0.015278,0.004798,0.21754,0.25851,-0.054474,-0.10846,0.028582,-0.11704,-0.26606,-0.012415
-0.012024,0.11805,0.099512,0.15401,0.0022548,-0.12898,-0.047991,0.054742,-0.15746,-0.08545
0.24398,0.091737,-0.22983,0.22386,-0.0047439,-0.080534,0.16506,-0.11814,0.09446,-0.15877
-0.037755,0.054159,0.23319,-0.035213,0.084984,0.022379,0.086667,-0.018402,-0.11452,-0.034345
-0.099965,-0.077323,-0.030046,-0.083224,-0.044267,-0.23267,0.14824,0.13329,0.020749,0.074684
-0.11846,0.10348,-0.055844,0.20335,-0.00088663,0.021461,0.021543,0.01831,0.10448,-0.016004
0.14621,-0.15159,0.12413,-0.0047256,0.056045,0.023553,0.1408,0.022273,0.024732,-0.08829
-0.01897,-0.019272,-0.041977,-0.2009,0.0054371,-0.0050359,-0.012677,0.16809,0.019887,0.004434
-0.0014694,-0.068034,-0.073058,-0.098335,0.051505,0.070496,-0.055189,-0.014479,-0.077591,-0.12265
0.079107,0.053327,0.017836,-0.071706,-0.10157,-0.083973,-0.10221,0.087108,-0.046583,-0.0022672
-0.18872,0.071929,0.2117,-0.10045,-0.15938,-0.085877,0.11672,-0.1153,-0.12782,-0.027998
0.00074921,-0.14912,0.0408,0.024884,0.33235,-0.19313,-0.11161,-0.095412,-0.056843,-0.040459
0.045535,-0.083504,0.22304,0.11936,0.24951,-0.40032,-0.05372,-0.13629,-0.093203,-0.34737
-0.029488,-0.080995,0.11272,0.14249,0.092786,-0.16856,-0.0038536,0.0663,-0.13581,-0.29539
-0.21201,-0.10333,-0.075174,-0.08637,-0.12067,0.053815,0.023576,0.19032,-0.10353,-0.28866
-0.098402,0.036776,-0.17357,-0.032355,-0.17085,-0.040325,-0.027558,0.15039,-0.073696,-0.086045
-0.031108,-0.11587,-0.14215,-0.28404,-0.14987,0.06117,-0.19994,0.061397,-0.018037,-0.056606
-0.0083194,0.058899,-0.19991,-0.061934,-0.061433,-0.041258,0.069218,-0.019148,-0.034142,0.27981
-0.11574,0.29613,-0.43521,-0.31145,-0.071524,0.028801,-0.16704,-0.025119,-0.052596,0.15782
0.055479,0.021809,-0.24194,-0.009006,0.012938,-0.31486,-0.070523,-0.071447,-0.20003,0.11516
0.24739,-0.30231,-0.15298,-0.16621,-0.056867,-0.21718,-0.16528,-0.17191,-0.17008,-0.036046
0.22489,-0.29139,-0.11224,0.0034002,0.01368,-0.24125,-0.055806,-0.055878,-0.16284,-0.12603
0.34017,-0.0027204,0.20735,0.020332,-0.0018426,-0.042889,-0.19192,-0.16163,-0.2604,-0.17029
-0.1392,-0.1938,0.50337,0.064776,-0.13013,0.0090393,-0.2233,-0.084906,-0.11912,-0.33275
0.074439,0.080044,0.38353,0.25828,-0.32075,-0.19681,-0.16585,-0.1609,-0.21547,-0.23036
0.036024,-0.057062,0.10789,0.2761,0.0052027,0.0090394,-0.089257,-0.1176,-0.37057,-0.12109
0.043804,-0.07815,0.26866,0.26333,-0.12258,-0.03085,-0.18,-0.20386,-0.0076021,-0.13147
0.10218,-0.096053,0.26517,0.31306,0.092748,-0.21903,-0.12023,-0.080683,-0.17407,-0.10045
0.082586,-0.15892,-0.12427,0.31167,-0.096798,-0.058549,-0.044654,0.0074338,-0.047264,-0.26284
0.16945,0.071661,-0.040791,-0.062281,0.039125,-0.092867,-0.12029,-0.059682,-0.16686,-0.24618
0.11041,-0.31753,-0.19804,0.21906,-0.025822,-0.080002,0.053444,-0.053201,-0.19815,-0.10521
-0.047295,0.070289,0.12248,0.0082911,0.071675,-0.071329,-0.18097,0.0073016,0.059665,0.046155
-0.028126,-0.033516,0.0016651,-0.071698,-0.20901,-0.022647,-0.0088876,-0.018335,0.12595,-0.0075284
-0.048107,-0.087496,0.098434,-0.091911,-0.10906,0.015447,-0.067546,0.017147,-0.0018334,-0.042484
-0.014933,-0.074622,-0.045094,0.011237,0.024796,-0.10503,0.080578,0.13641,-0.19542,0.053696
-0.057374,-0.029961,-0.041408,-0.0011912,-0.17489,-0.10484,0.040711,-0.078299,-0.0015243,0.1155
-0.061427,-0.12009,0.079014,0.067498,0.1329,0.0048997,-0.043406,0.12385,0.0067222,-0.078091
-0.038499,-0.042747,0.1652,-0.14622,0.028785,-0.013834,0.056326,0.066478,0.10084,0.092284
-0.15614,-0.054537,0.24655,-0.017875,-0.053954,-0.22581,0.12685,-0.15446,0.040042,-0.298
-0.11171,0.0165,0.18981,0.061453,0.14701,-0.12141,0.13297,0.060061,-0.16828,-0.16485
-0.195,-0.23046,0.24337,0.15544,0.028694,-0.11048,0.10746,-0.12578,-0.17752,-0.17944
-0.24121,-0.078352,-0.0048284,0.081621,-0.064317,-0.22129,-0.095087,0.12961,-0.081349,-0.31509
-0.25751,-0.29879,0.19753,0.059486,-0.16125,-0.097474,-0.18519,0.16202,-0.12505,-0.45501
-0.32914,-0.15332,-0.16234,-0.059062,0.10862,0.083761,0.019354,0.048783,-0.14567,-0.28669
-0.16805,0.050916,-0.25319,-0.318,-0.12375,-0.21963,0.094661,0.27475,0.048665,0.10661
-0.028984,0.14387,-0.66337,-0.13033,-0.2729,0.05368,0.15081,-0.069326,-0.078206,0.1483
-0.038794,-0.029192,-0.48033,-0.41676,-0.10761,0.089252,-0.044561,0.097102,-0.057163,0.39647
0.26103,-0.035387,-0.44605,-0.14517,0.14142,0.13089,0.13586,-0.15507,-0.18609,0.080122
0.065966,-0.10039,-0.22568,-0.038347,0.39921,-0.29312,0.020478,-0.20131,-0.316,-0.15487
0.428,-0.14687,0.043679,-0.31278,0.38442,-0.61645,-0.042525,-0.078509,-0.27836,-0.3359
0.26551,-0.18538,0.10652,-0.38215,-0.045935,-0.37897,-0.21208,-0.17158,-0.33083,-0.15735
0.10097,-0.25099,0.39796,-0.022231,-0.071378,0.038315,-0.22383,-0.14052,-0.42201,-0.17486
0.034493,-0.29829,0.19879,-0.061164,-0.26326,0.24789,-0.36263,-0.17964,-0.1709,-0.38485
-0.036397,-0.45415,0.34199,-0.11782,-0.17281,0.42891,-0.261,-0.34753,-0.28198,-0.2319
-0.061498,-0.11806,0.25723,-0.089668,-0.46632,0.36721,-0.23342,-0.32778,-0.2173,-0.20228
-0.028614,0.030703,0.16061,0.29355,-0.19623,0.071266,-0.10517,-0.22177,-0.067816,-0.19971
0.19685,0.15113,0.065971,0.35843,-0.020738,0.036157,0.11191,-0.10221,-0.24229,-0.26654
0.12099,0.11282,-0.13455,0.068591,-0.031083,-0.18664,-0.070083,-0.033909,-0.11395,-0.07129
-0.0031074,-0.048248,-0.044324,0.060301,-0.13573,-0.087256,-0.023392,0.10171,-0.21423,-0.073414
-0.032471,-0.090694,-0.0083985,-0.039565,-0.14457,0.018666,-0.17532,0.059396,0.022224,-0.087051
0.033202,-0.19932,-0.068843,0.16112,0.08217,0.071061,0.040434,0.022661,-0.092094,-0.010463
0.2037,-0.19106,0.13002,-0.016562,0.093421,-0.097473,0.064326,0.040347,0.17982,0.0026575
0.19972,-0.16649,0.096419,-0.0033203,0.045855,-0.009257,0.093386,-0.11385,0.17171,-0.039081
0.062193,0.0061406,-0.0088486,0.091607,-0.09663,-0.057701,-0.056737,0.003896,0.028735,-0.032503
0.018803,0.0089291,0.057173,-0.13106,-0.019698,0.026421,-0.0448,0.048255,0.061196,-0.01825
-0.072334,-0.043415,0.21859,-0.28029,0.027065,-0.022537,-0.10569,-0.033436,-0.2088,-0.031197
0.021905,0.10784,0.30361,0.11219,-0.030217,-0.25929,0.0060633,-0.11625,-0.17203,-0.32252
-0.081662,0.037277,0.26701,0.21739,0.16823,-0.24481,-0.077284,0.050235,-0.26118,-0.31459
-0.12024,-0.23239,0.19428,0.32996,-0.057861,-0.14197,-0.14086,-0.037956,-0.059087,-0.26788
-0.27849,-0.10781,-0.028853,0.22469,-0.00011306,-0.31117,-0.34234,0.33559,0.056028,-0.47144
-0.4353,-0.024789,0.079742,-0.025478,-0.063482,0.042976,-0.17264,0.46837,-0.05955,-0.49293
-0.3267,-0.094702,-0.28649,-0.43035,0.044411,-0.035438,-0.013332,0.28545,-0.17172,-0.15207
0.073475,-0.1494,-0.54969,-0.57552,-0.20979,0.048664,-0.0072826,-0.12944,-0.025458,0.075549
-0.010238,-0.26627,-0.63346,-0.47753,0.12175,0.28353,-0.14879,-0.11729,-0.15495,0.36449
-0.035076,-0.28801,-0.62057,-0.35767,0.043672,0.15703,0.16946,-0.096064,-0.50786,0.36778
0.11636,-0.15068,-0.40412,-0.24089,0.34676,0.19368,0.10114,-0.20336,-0.3074,0.34249
0.074176,-0.10816,-0.14243,-0.35511,0.44854,-0.38261,-0.058032,-0.17452,-0.38483,-0.15686
0.26055,0.019585,-0.28326,-0.083538,0.32427,-0.68278,-0.0937,-0.26698,-0.43993,-0.088739
0.27858,0.048575,-0.024545,-0.28264,0.54877,-0.54918,0.12519,-0.18577,-0.45064,-0.017347
0.34366,-0.10349,0.16383,-0.13175,0.12069,-0.19409,-0.14195,-0.23753,-0.22827,-0.0972
0.19644,-0.36256,0.41342,-0.013262,-0.2825,0.16776,-0.12877,-0.27858,-0.088816,-0.25616
0.028253,-0.3133,0.37575,-0.43439,-0.42921,0.58484,-0.30027,-0.47774,0.013482,-0.30645
0.15392,-0.22585,0.36412,-0.22767,-0.52658,0.11109,-0.16355,-0.43118,-0.30442,-0.55314
0.059711,-0.083075,0.4176,-0.0092273,-0.29678,-0.041728,-0.13253,-0.40005,-0.17074,-0.56988
0.016424,0.010438,-0.15459,0.24494,-0.21573,-0.014068,-0.26275,-0.097757,-0.33107,-0.16413
-0.031626,-0.049292,-0.15591,0.37329,-0.040358,0.098669,-0.02015,0.132,-0.44529,-0.27438
-0.053344,-0.20673,-0.11502,0.036333,-0.18987,-0.25183,-0.06634,0.19781,-0.2727,-0.068743
-0.1777,-0.19048,-0.066729,0.12669,0.00060549,-0.11127,-0.14907,0.19061,-0.012944,0.13646
-0.21576,-0.010123,0.0051834,-0.0053646,0.091384,0.073249,-0.037905,0.099556,0.05349,0.091994
0.11576,0.14703,0.18823,-0.062574,-0.0057059,0.16867,0.13923,-0.063552,0.15983,0.058653
0.12549,0.22248,0.046186,0.092906,-0.049676,0.030827,0.085438,-0.15273,0.095387,-0.010826
0.091549,0.01213,0.053677,-0.18751,0.16019,0.097711,-0.0091596,-0.20789,-0.042163,-0.19511
0.003892,-0.19168,0.10105,-0.19675,-0.20539,-0.0919,-0.026839,0.10271,0.051805,-0.18172
-0.25156,-0.13475,0.22971,0.091559,-0.13226,-0.049792,-0.02903,0.085122,-0.027467,-0.10288
-0.081651,-0.28413,0.21858,0.030331,0.011666,-0.16176,-0.18202,-0.10979,-0.16575,-0.24036
-0.11476,-0.16016,0.14961,0.35703,-0.14146,-0.31423,-0.13311,-0.0891,-0.24776,-0.34892
-0.29316,-0.31671,0.061603,0.19026,-0.082705,-0.25495,-0.21641,-0.082149,0.0084103,-0.44604
-0.17451,-0.20629,-0.062112,0.17328,-0.12557,0.055446,-0.19477,0.27759,-0.032685,-0.28986
-0.33797,-0.25721,-0.13235,-0.32003,-0.093834,0.27283,-0.12162,0.46714,0.31101,-0.54061
-0.034828,-0.10758,-0.26899,-0.5146,-0.12113,0.060003,-0.0007574,0.17291,0.14475,-0.097995
-0.14504,0.031239,-0.58619,-0.721,-0.13361,0.19282,0.064845,0.19498,0.15963,0.11426
-0.0041835,-0.10784,-0.77105,-0.32438,0.034085,0.23294,0.2282,-0.12375,-0.11925,0.30433
0.0051304,-0.10936,-0.53799,-0.14358,0.16417,0.13166,-0.016088,-0.1467,-0.29672,0.25701
0.013452,-0.18508,-0.48678,-0.010571,0.33533,0.10894,0.090385,-0.1508,-0.58776,0.073763
-0.079223,-0.060206,-0.012949,-0.31259,0.33116,-0.39518,0.099606,-0.46622,-0.62127,0.046891
0.12473,-0.12141,0.10615,-0.47567,0.4464,-0.8369,-0.18167,-0.37527,-0.795,-0.064986
0.18444,-0.24161,0.13593,-0.47542,0.51898,-0.78045,0.17772,-0.39389,-0.26557,0.039466
0.14535,-0.29831,0.23203,-0.24667,0.35049,-0.58442,0.10945,-0.19957,0.096768,-0.15156
0.21107,-0.4169,0.35869,-0.016724,-0.072821,0.0064394,0.091326,-0.16236,0.16865,-0.16063
0.22828,-0.47761,0.3551,-0.19626,-0.46126,0.48258,-0.087262,-0.5864,0.18243,-0.43984
0.065044,-0.20153,0.13143,-0.25924,-0.36046,0.39242,-0.20819,-0.36155,-0.12164,-0.55681
-0.080441,-0.10576,0.10658,-0.22234,-0.1996,0.011909,-0.26685,-0.28708,-0.43937,-0.5449
0.19577,-0.022761,-0.21826,0.10357,0.025686,0.12783,-0.034375,-0.18909,-0.23622,-0.29379
-0.0094256,-0.012409,-0.35239,0.14509,-0.064478,-0.10921,-0.014352,0.2258,-0.14976,0.059695
-0.00029953,-0.3246,-0.22193,0.18623,0.01043,0.069359,-0.16201,0.092532,-0.20021,0.15792
-0.16097,0.1186,0.026908,-0.1489,-0.15791,0.063657,0.022784,0.081364,-0.17622,0.0092825
-0.083132,-0.033527,-0.021395,0.17074,-0.019327,0.079103,0.014301,-0.076194,-0.016251,0.016848
0.077456,-0.022261,0.072706,0.10062,-0.13168,0.1287,0.10631,-0.0090773,-0.003896,0.023265
-0.14307,-0.04412,-0.20845,-0.17378,-0.0070335,-0.062517,0.1242,0.0218,0.048529,-0.054818
-0.17496,0.0062337,0.072167,0.017373,-0.019841,-0.013646,-0.012167,-0.14548,-0.017358,0.14563
-0.18019,-0.17946,-0.055816,-0.29758,-0.060916,-0.12354,-0.14079,-0.10434,-0.14758,-0.15302
0.007488,-0.20184,0.26138,0.021756,-0.17512,0.030979,-0.25928,-0.067638,-0.022536,0.15363
-0.26733,-0.1558,0.48909,0.097889,-0.26166,-0.10841,-0.13389,0.0021074,-0.47957,-0.12856
-0.15914,-0.24279,0.27801,0.15214,-0.12672,-0.25306,-0.026887,-0.3365,-0.47024,-0.57317
-0.21277,-0.23437,0.069374,0.15552,0.085347,-0.2723,-0.16891,-0.030083,-0.1479,-0.29251
-0.29132,-0.07951,0.062667,0.11267,0.018289,0.19097,-0.11126,0.22081,0.069529,-0.37855
-0.061978,-0.26077,0.060778,-0.44943,-0.36114,0.088507,-0.41117,0.092974,0.1617,-0.38366
0.026027,-0.15507,-0.33055,-0.85035,0.019165,0.36758,-0.15893,-0.065936,0.40475,-0.096995
-0.14171,-0.10026,-0.53896,-0.65004,-0.014624,0.35825,-0.13333,0.077001,0.29774,0.11115
-0.12303,-0.18513,-0.66558,-0.56815,0.1052,0.065703,-0.1364,0.073407,0.13002,0.28168
-0.0029512,-0.17322,-0.63575,-0.4126,0.22868,0.18374,0.086448,-0.12604,-0.32321,0.18157
0.19684,-0.13509,-0.16792,0.11229,0.39643,0.33111,0.10177,-0.20402,-0.67732,0.12113
0.15411,-0.14416,-0.037658,-0.13255,0.31378,0.039677,-0.05615,-0.61831,-0.91695,-0.01911
0.094071,-0.32554,0.11429,-0.36951,0.19275,-0.34149,0.14718,-0.44249,-0.73845,0.30869
0.25225,-0.37463,0.34979,-0.52128,0.43889,-0.92108,0.071372,-0.29707,0.0069226,0.50226
0.11348,-0.27514,0.22167,-0.33776,0.22226,-0.79482,0.17392,-0.24553,0.57558,0.0080542
0.15208,-0.20146,0.3941,-0.30943,-0.43951,-0.24399,0.36755,-0.41795,0.70954,-0.15038
0.11263,-0.25726,0.24488,-0.34374,-0.47687,0.2588,-0.076357,-0.31583,0.39137,-0.50713
0.12547,-0.17212,0.2516,-0.26056,-0.57379,0.27562,-0.032427,-0.2443,-0.087504,-0.77852
0.098474,-0.13712,0.31717,-0.093834,-0.41114,0.12433,-0.2478,-0.22817,-0.49459,-0.4373
0.084602,0.24388,-0.40155,0.068321,-0.11779,0.18207,-0.25163,-0.11462,-0.10752,-0.6245
0.011412,0.059305,-0.3298,0.24876,-0.15188,0.089298,-0.083214,-0.093025,0.0005734,-0.25387
-0.31274,-0.25671,-0.20559,-0.079331,0.066416,-0.019013,-0.091476,0.48439,-0.022841,0.010435
-0.22233,0.15535,-0.073376,-0.11294,-0.038577,-0.055391,-0.058368,-0.10313,0.18313,0.077011
0.021641,-0.056978,-0.032547,-0.15663,0.033643,-0.097709,-0.02554,-0.15664,0.18415,-0.19071
-0.079056,-0.31272,-0.0086837,0.096888,0.028661,0.15979,0.14344,-0.07868,-0.01587,-0.15884
-0.076043,0.13727,0.25345,0.014345,0.054016,0.045173,0.11665,0.01137,-0.085442,0.079297
0.13473,-0.078442,-0.057761,-0.068149,0.062932,0.031409,0.019532,0.10605,0.018506,0.18281
-0.297,-0.12192,0.32892,0.018402,-0.12679,-0.058115,-0.125,0.029182,0.16376,-0.020873
-0.10451,-0.088672,0.3416,-0.0094514,-0.24946,-0.12471,-0.071306,-0.095434,-0.20811,-0.035449
-0.14968,-0.35091,0.71286,0.3021,-0.055551,0.09878,0.051222,-0.028702,-0.54361,-0.45045
-0.37649,-0.18642,0.46679,0.1297,-0.13166,-0.3884,-0.18301,-0.43111,-0.18059,-0.30761
-0.18845,-0.42507,-0.0018129,0.2457,-0.187,-0.20115,-0.19646,0.023934,-0.11356,-0.13201
-0.11635,-0.17733,0.20824,0.25822,-0.017246,0.087304,-0.31541,0.28547,0.17576,-0.19069
-0.11072,-0.34645,0.084086,-0.32098,-0.24388,0.097903,-0.12644,0.20461,0.38634,-0.3835
-0.020685,-0.29179,-0.19157,-0.90136,-0.40007,0.42442,-0.31534,-0.11034,0.77127,-0.15128
-0.054226,-0.20678,-0.8715,-0.78512,-0.22005,0.17686,-0.1823,-0.032122,0.50789,0.33592
-0.13975,-0.40941,-0.78991,-0.38984,0.14403,0.14073,0.0076032,-0.097902,0.0523,0.25135
0.17465,-0.34332,-0.66596,-0.28266,0.49494,0.17197,0.31136,-0.05274,-0.20007,-0.075436
0.13209,-0.35378,-0.53692,-0.23626,0.57961,0.60779,0.37044,-0.23321,-0.6106,-0.090619
0.12846,-0.4766,-0.042744,0.029194,0.36262,0.43322,0.23549,-0.49201,-0.69192,0.098298
0.15741,-0.39902,0.19078,-0.25103,0.15292,0.10672,0.028601,-0.37389,-0.50134,0.60349
0.40669,-0.13534,0.055755,-0.72862,0.20991,-0.55359,0.22635,-0.44898,0.26424,0.52626
0.068981,-0.10495,0.11788,-0.45512,-0.12748,-0.88004,0.34039,-0.18132,0.7173,0.080315
0.23878,0.083648,0.14956,-0.46249,-0.26707,-0.47482,0.61314,-0.35837,0.58067,-0.20569
0.23083,-0.14461,0.28205,-0.49501,-0.50919,0.12317,0.46431,-0.0069025,0.10525,-0.60538
0.15848,-0.28422,0.28807,-0.4591,-0.17606,0.39064,0.25078,-0.16562,-0.070167,-0.36049
0.018061,-0.2181,0.088165,-0.15489,-0.4127,-0.032394,-0.12926,-0.009317,-0.15446,-0.60697
0.34922,0.099519,-0.33508,-0.11905,-0.12955,0.12191,-0.30316,-0.18951,0.15337,-0.46352
0.13906,-0.093702,-0.39465,0.037118,-0.078343,0.10521,-0.19548,0.066814,0.10764,-0.2375
-0.33359,-0.12214,-0.17054,0.0030584,-0.29889,-0.02674,-0.053685,0.45456,-0.43022,-0.022366
-0.0025105,-0.016897,0.028429,0.038057,-0.10112,0.13165,-0.046391,0.054281,0.013887,-0.03582
0.095986,-0.052815,0.054803,-0.045734,0.1101,-0.21627,-0.050507,-0.097724,-0.28791,-0.049522
0.0020002,-0.010092,0.094825,0.074373,0.031472,-0.055757,0.099037,0.03216,0.15889,0.063786
-0.096473,-0.024894,-0.11316,0.0086433,0.021401,0.019917,0.14859,0.055759,-0.08087,-0.071531
-0.078955,-0.12913,-0.10833,0.062311,0.0082901,0.027222,-0.068119,0.063285,0.068806,-0.03121
0.026668,0.053807,-0.071694,-0.028498,-0.077122,0.048765,0.016304,0.024662,0.12523,0.013584
-0.24046,-0.12158,0.2278,-0.038168,-0.22286,0.041281,-0.048424,-0.078719,-0.38784,0.14476
-0.20477,-0.23345,0.41482,0.13605,-0.010841,-0.1352,-0.027744,-0.19084,-0.38674,-0.47544
-0.045965,-0.21993,0.31861,0.022541,-0.011351,-0.41193,-0.18393,-0.3395,-0.049175,-0.65286
-0.17729,-0.31325,0.047636,0.15339,-0.013645,0.17099,-0.21772,0.0013168,-0.056904,-0.33156
-0.16058,-0.32974,0.1345,0.17388,-0.053391,0.23751,-0.1616,0.18345,0.0043515,-0.41428
0.03954,-0.38636,0.20698,-0.28453,-0.095454,0.3843,-0.27633,0.13933,0.14469,-0.09369
-0.20284,-0.22231,-0.1755,-0.79505,-0.40907,0.34758,-0.26206,0.11386,0.18363,0.23701
0.1335,-0.32351,-0.65316,-0.69275,-0.17886,0.42218,-0.16574,0.14906,0.13134,0.28759
-0.25196,-0.23241,-0.85636,-0.4926,0.32922,0.39964,0.044349,0.23067,0.21327,0.10261
0.041651,-0.54442,-0.69181,-0.20775,0.6144,0.24519,0.34289,-0.20656,-0.053606,-0.10253
0.10898,-0.60424,-0.38056,0.024205,0.72627,0.79086,0.20171,-0.61721,-0.17808,-0.082813
0.033672,-0.4194,0.34499,0.40699,0.29928,0.56273,-0.14053,-0.53645,-0.32179,0.37435
-0.04819,-0.28434,0.24091,-0.19,-0.20092,0.11447,-0.12485,-0.58899,-0.1299,0.48382
-0.11238,-0.39015,-0.082712,-0.78104,-0.235,-0.60109,0.13074,-0.45842,0.56975,0.36613
-0.31832,-0.11498,0.35873,-0.83861,0.005196,-0.65091,0.35923,-0.027109,0.65274,0.15411
-0.058084,-0.038022,0.055211,-0.70174,-0.48055,-0.32286,0.55229,-0.25717,0.42637,-0.4793
0.39064,-0.21917,0.0088805,-0.2878,-0.34978,0.070475,0.53065,-0.16007,0.1065,-0.27206
-0.066086,-0.14642,0.034033,-0.35932,-0.26071,0.36451,0.4818,-0.10149,-0.21922,-0.56165
0.046224,-0.20238,0.54317,-0.11283,-0.25407,0.25065,0.048578,-0.1151,-0.051768,-0.28506
0.27702,-0.021739,-0.29122,-0.23977,-0.29287,0.22125,-0.62525,-0.088906,0.36843,-0.47889
0.0093947,-0.1796,-0.34187,-0.15279,-0.26207,0.37081,-0.45935,0.21984,0.17115,-0.38059
-0.043753,-0.070951,-0.19514,0.011919,-0.33692,-0.25601,0.088829,0.22821,-0.14388,0.22026
-0.18371,-0.052895,0.091498,-0.027443,-0.015939,-0.088493,0.0040883,-0.074655,-0.1099,-0.12656
0.022835,-0.051658,0.12106,-0.03338,0.10538,-0.062348,-0.15907,0.14077,-0.011753,-0.023823
0.053993,-0.041156,0.055985,0.14249,0.14674,-0.19236,0.073926,-0.058177,-0.020886,-0.07736
-0.036899,-0.065532,0.0097866,-0.096227,-0.036495,-0.040118,-0.15573,0.062933,-0.0035511,0.051939
-0.13616,-0.097399,-0.16751,0.056579,-0.18806,-0.14728,0.065771,0.0048615,-0.014485,0.158
-0.21935,-0.20328,-0.0062576,-0.055163,-0.15989,-0.066242,0.0029206,-0.042852,0.0084086,0.074653
-0.3007,0.24563,0.30376,0.18266,-0.36283,0.067959,-0.10149,-0.14758,-0.21768,0.024114
-0.041007,-0.012679,0.51343,0.14215,-0.085992,-0.44529,-0.070218,-0.19743,-0.36901,-0.47914
-0.17526,-0.17089,0.30019,-0.045986,-0.094214,-0.30774,-0.17409,-0.49049,-0.17299,-0.46169
0.085157,0.017374,0.034996,0.13323,0.11977,0.036486,-0.025175,-0.18688,-0.038125,-0.3705
0.065078,-0.099514,0.14197,0.26842,-0.44105,0.051795,-0.44497,0.21729,-0.069128,-0.13127
-0.035556,-0.26637,0.031077,0.053434,-0.44126,0.06155,-0.12461,0.40121,-0.13178,0.54827
-0.0025405,-0.11413,-0.28581,-0.61226,-0.57048,0.36488,-0.34722,0.13383,0.016432,0.22655
0.059578,-0.36529,-0.60086,-0.60054,-0.20878,0.16505,0.28239,0.34423,0.30835,-0.18719
0.023025,-0.41053,-0.81824,-0.012731,-0.078937,0.45323,0.37638,-0.016323,0.46493,-0.024077
-0.04314,-0.4471,-0.58475,0.20435,0.23289,0.60952,0.37277,-0.53661,0.46954,-0.063863
-0.2046,-0.27842,-0.30417,-0.061997,0.55851,0.7713,0.27487,-0.57436,0.47887,0.039338
-0.39458,0.012307,-0.11789,0.51832,0.21377,0.43789,-0.13311,-0.7694,0.23569,0.24947
-0.26194,-0.19791,0.17218,0.39172,-0.021273,0.21591,-0.046815,-0.71827,0.24526,0.22296
-0.57871,-0.32317,0.1886,-0.53136,0.27125,-0.43088,-0.10332,-0.60113,0.64289,0.38815
-0.64167,-0.077366,0.18339,-0.83216,0.20045,-0.71182,0.25843,-0.018221,0.44424,-0.013678
-0.26164,-0.010834,0.3171,-0.50695,-0.37314,-0.3271,0.22389,0.052158,0.12038,-0.3264
-0.06098,0.065865,-0.045362,-0.51275,-0.28772,-0.1956,0.49376,-0.13023,-0.22762,-0.37866
-0.057266,-0.077848,-0.068548,-0.37172,-0.37842,-0.11883,0.56247,-0.056564,-0.29454,-0.097909
0.11682,-0.30771,0.16479,0.19045,-0.23048,0.069024,0.15144,0.092348,0.082005,-0.43191
0.39822,-0.25739,-0.40839,-0.19159,0.0078973,0.16845,-0.33062,-0.2266,0.62005,-0.68655
0.028999,-0.077969,-0.20541,0.030047,-0.041935,0.32911,-0.2445,0.061339,0.15733,-0.50378
-0.056841,-0.050023,-0.032038,-0.11498,-0.44364,0.12278,0.08037,0.19579,-0.086769,0.37205
-0.1768,0.00059295,0.080644,0.018133,-0.29969,0.046888,-0.094198,0.079094,0.006214,0.10148
-0.0044996,-0.031633,-0.061834,-0.14191,0.037774,0.032542,0.14313,0.17962,-0.030273,-0.13275
0.021159,0.031852,-9.3412e-05,0.02588,-0.092855,-0.075184,-0.0017535,-0.11162,0.064863,-0.058845
0.003825,0.030695,0.14129,0.025859,0.043484,-0.046022,0.20157,-0.084555,0.018615,0.042619
0.10501,-0.040771,0.051773,-0.08042,0.073059,0.011267,0.18948,-0.11255,0.09721,-0.15271
-0.011682,-0.1964,-0.13917,-0.16165,-0.065632,0.0017368,0.013187,-0.22166,0.11324,-0.072819
-0.01222,0.14042,0.01671,0.17028,-0.33433,-0.28923,-0.17343,0.12621,-0.48323,0.012625
0.04237,-0.092923,0.51922,-0.072075,-0.15458,-0.39623,-0.20001,-0.36227,-0.45118,-0.53526
0.15235,0.001295,0.29116,-0.0062511,-0.2604,-0.22337,-0.29769,-0.28507,0.045891,-0.52944
-0.093446,-0.18564,0.081124,0.39706,-0.41919,0.18333,-0.23485,-0.35691,-0.082731,0.019313
-0.25718,-0.18359,0.24759,0.32882,-0.59158,-0.1279,-0.33075,-0.10949,-0.14555,0.7256
0.17076,-0.028801,-0.020758,-0.27242,-0.60997,-0.30026,-0.11837,-0.21557,-0.29759,0.8354
-0.075706,-0.094999,-0.39512,-0.3827,-0.62861,0.00045309,0.033414,0.27972,-0.38205,-0.0096203
0.10793,0.18669,-0.79211,-0.49096,-0.54819,0.12324,0.15536,0.42144,0.3612,-0.36185
-0.21166,0.066706,-0.40288,0.26557,-0.27722,0.19079,0.14334,-0.10991,0.4096,-0.31815
-0.26699,0.21421,-0.36876,0.38249,-0.25879,0.33058,-0.1482,-0.74502,0.45006,-0.19534
-0.32851,0.10792,-0.23287,0.10797,0.1291,0.29236,-0.22243,-0.76288,0.07582,0.20946
-0.51255,0.30543,0.026849,0.50566,0.12707,0.2488,-0.28446,-0.78048,0.17792,0.025337
-0.72477,0.090655,0.0037827,0.0054863,-0.24216,0.17568,-0.22896,-0.74041,0.047585,-0.25131
-0.69425,0.39857,0.14731,-0.6482,0.41466,-0.28723,-0.053525,-0.28027,0.25063,-0.046597
-0.96627,0.41285,0.35545,-0.75074,0.51015,-0.44399,-0.27524,-0.071742,-0.025515,-0.26453
-0.41583,0.35387,0.19507,-0.65457,0.25066,-0.17151,-0.079697,-0.070567,-0.2903,-0.4093
-0.14438,-0.068805,-0.14564,-0.63409,-0.3464,-0.049612,0.35069,-0.16465,-0.43548,-0.19273
-0.32102,-0.28496,-0.15967,-0.26473,-0.36877,-0.069128,0.74901,0.076533,-0.40748,-0.15889
0.22441,0.026998,-0.003375,0.049767,-0.054043,0.16357,0.025933,-0.20653,-0.42302,-0.37442
0.16401,-0.014811,-0.33838,-0.0025203,-0.091413,0.21009,-0.39952,-0.18885,0.62809,-0.70777
-0.010182,-0.16602,-0.18231,-0.1562,0.044067,0.13029,-0.37629,0.03183,0.45427,-0.64862
-0.17697,-0.13238,-0.16618,-0.040291,-0.29505,-0.073459,-0.20452,0.20482,-0.070173,0.46164
-0.15473,-0.21681,-0.14288,0.012727,-0.23599,-0.090217,-0.10227,0.14311,-0.15749,0.11155
0.015081,-0.075142,-0.011172,0.30655,-0.070662,-0.051972,0.021176,0.041205,0.077535,0.0056609
-0.11179,-0.11226,-0.067037,-0.042721,-0.10212,0.016539,-0.15296,0.050486,0.11426,0.1152
0.089758,-0.15291,-0.10602,0.10309,0.057953,-0.042683,-0.17046,0.078376,0.11134,0.0052151
-0.091949,0.016744,-0.26679,0.048086,-0.19483,0.090985,0.23512,0.05859,-0.21625,0.13802
0.034996,-0.20743,-0.44225,0.019938,-0.41159,-0.12405,0.05273,-0.21348,-0.056789,-0.038233
-0.026528,-0.077015,-0.048781,0.14378,-0.53692,-0.19475,-0.22067,-0.16301,-0.78844,0.084021
-0.22358,-0.013806,0.73194,-0.041099,-0.47372,-0.29919,-0.16237,-0.30729,-0.24364,-0.80651
0.036708,-0.1678,0.2843,-0.34618,-0.30643,0.3802,0.067003,-0.23134,0.11629,-0.8876
-0.2374,0.0041156,0.065342,0.40892,-0.74121,-0.050575,-0.30103,-0.29871,-0.024819,0.7292
0.022072,0.012529,0.21912,0.38473,-0.88717,-0.49778,-0.36771,-0.29027,-0.11217,1.1189
0.10616,0.040893,0.070965,-0.37033,-0.85816,-0.23624,0.012812,0.17163,-0.37989,0.41574
0.14944,0.33342,-0.32436,-0.076295,-1.0055,-0.082099,-0.13459,0.41105,-0.49627,-0.34485
-0.073787,0.46292,-0.61149,0.3318,-0.63684,-0.33796,-0.22134,0.21566,-0.36389,-0.35288
-0.59064,0.45173,-0.3259,0.29945,-0.31061,-0.32924,-0.37017,-0.20941,-0.082893,-0.47556
-0.37292,0.70259,-0.46136,0.41291,-0.15561,-0.1574,-0.042635,-0.68308,-0.27351,0.22353
-0.3927,0.34662,-0.45473,0.063502,-0.08818,-0.13797,0.051136,-0.79152,-0.0086125,0.37801
-0.64196,0.30026,-0.34713,0.19234,-0.069339,-0.034984,-0.24812,-0.72795,0.0052691,0.0014151
-0.7175,0.30431,-0.35731,-0.035099,-0.043051,-0.11282,0.048425,-0.28514,0.039259,-0.3725
-0.86798,0.37506,-0.25142,-0.8345,0.30948,-0.14896,-0.14535,-0.071228,0.13889,-0.18927
-0.73866,0.34026,0.15434,-0.87574,0.27627,-0.32464,-0.046134,0.18899,-0.30819,-0.14412
-0.56109,0.20097,0.23469,-0.76701,-0.051798,0.23997,-0.20605,0.046027,-0.14868,-0.11668
-0.27233,0.0088169,0.067529,-0.39563,-0.19744,-0.093718,0.22434,-0.094345,-0.48266,-0.28498
0.020141,0.016421,-0.43341,-0.1748,-0.21122,-0.2793,0.61198,-0.039021,-0.5357,-0.28602
0.24169,0.15435,-0.21475,0.15513,-0.21047,-0.079778,0.13235,-0.094918,-0.49122,-0.3644
0.094242,-0.034715,-0.43169,-0.0011734,-0.10272,0.38884,-0.32414,-0.082877,0.31457,-0.69304
0.20383,0.031591,-0.39777,-0.12389,-0.080826,0.0082233,-0.31793,0.25077,0.6004,-0.6375
-0.080075,0.033875,-0.058725,-0.20609,-0.28983,-0.097864,0.070912,0.36163,0.011816,0.21025
-0.15002,0.17846,0.08149,0.074509,-0.096879,-0.13776,-0.1296,0.18419,-0.13654,0.025832
0.0056141,-0.0026406,-0.19902,-0.12584,-0.087572,0.044436,0.016781,0.031561,0.036994,-0.040347
0.0029103,-0.014105,0.11522,-0.06815,-0.16405,-0.11863,0.011893,0.091729,0.072008,-0.10933
0.013434,0.137,0.055118,0.091543,-0.0050999,0.019097,0.085167,0.057632,-0.070257,-0.1888
-0.22711,-0.055007,-0.032535,0.13959,-0.050515,-0.075178,-0.1714,-0.074377,0.10398,0.092543
-0.24525,-0.19343,-0.44846,-0.12661,-0.21968,-0.2452,0.27735,-0.044332,0.067454,-0.22147
-0.027901,-0.098165,-0.11976,-0.13013,-0.40398,-0.12841,0.17599,0.0025649,-0.63056,-0.22613
-0.062871,0.046794,0.59034,0.10034,-0.19343,-0.19335,0.075504,-0.39142,-0.24726,-0.9644
0.11184,-0.39331,0.24271,-0.0086847,-0.38686,0.19439,0.04086,-0.26497,0.21949,-0.57475
0.055082,-0.47137,0.083154,0.19161,-0.84007,-0.13954,-0.25377,-0.41562,-0.040309,0.87661
0.28823,-0.29786,0.36572,0.015953,-0.72321,-0.49624,-0.065207,-0.071515,0.0069233,0.9874
0.12478,-0.1389,0.060794,0.11353,-0.78561,-0.22555,0.14455,0.12281,-0.38029,0.39812
0.014078,0.23321,-0.35148,0.0055307,-0.60337,-0.25521,-0.43507,0.2289,-0.68544,-0.57903
-0.23881,0.56054,-0.3467,0.39601,-0.50116,-0.41027,-0.56122,0.13211,-0.51251,-0.14225
-0.68938,0.44488,-0.054943,0.44287,0.066238,-0.19034,-0.47768,-0.027665,-0.43351,-0.010007
-0.59339,0.13913,-0.572,0.15054,-0.2289,-0.31025,-0.20839,-0.32381,0.1393,0.23708
-0.63074,0.55509,-0.41303,-0.027444,0.043283,-0.33446,-0.10411,-0.34298,0.11391,0.54215
-0.67276,0.39137,-0.24685,-0.11359,0.15166,-0.36575,0.3358,-0.23716,-0.090854,0.031478
-0.65215,0.073994,-0.14111,-0.24425,0.11444,-0.30138,-0.028253,-0.1472,0.092583,-0.10637
-0.67481,0.042015,-0.085429,-0.43283,0.48539,0.0015254,-0.42484,-0.04973,-0.010023,-0.046295
-0.31415,0.12511,0.20678,-0.65254,0.33174,0.003281,-0.057984,-0.03352,0.097131,-0.1577
-0.31328,-0.063424,0.10383,-0.39866,0.23281,0.052144,-0.031154,-0.14486,-0.1626,-0.41312
-0.4447,-0.081403,0.22493,-0.2642,-0.070141,-0.18016,0.27141,0.11723,-0.34844,-0.11084
0.0462,0.20365,-0.10233,0.044481,-0.37033,-0.35045,0.59077,-0.2394,-0.51597,-0.13462
-0.050492,0.056811,-0.25767,0.32663,-0.12261,-0.14587,0.18693,-0.061573,-0.40626,-0.21119
-0.13112,0.14828,-0.20303,-0.15817,0.075825,0.4153,-0.37239,-0.31393,-0.033343,-0.77937
-0.14419,-0.11574,-0.15758,-0.084563,0.0009729,-0.15577,-0.28149,-0.00096467,0.64324,-0.3143
-0.16098,-0.17079,-0.19985,-0.037699,0.021842,0.31009,-0.026017,0.19582,0.048436,0.17166
-0.12575,-0.010608,-0.09418,-0.069983,-0.20284,0.021258,-0.06435,0.23465,-0.13742,-0.029303
0.013999,-0.082001,-0.062958,0.031594,-0.18226,-0.09582,0.11495,-0.054088,-0.10952,-0.067184
-0.073095,-0.0082938,-0.13767,-0.0859,0.082723,-0.20369,0.28869,0.17045,0.035607,0.030686
0.093924,0.037315,-0.010781,0.0413,-0.01075,0.11653,-0.010761,-0.071513,-0.044566,-0.083529
-0.084546,-0.13738,-0.20107,0.094438,-0.025625,-0.082315,0.14206,0.029685,0.085053,-0.022165
-0.37116,-0.00054643,-0.23462,-0.052341,-0.20445,-0.16047,0.19469,-0.03495,-0.047045,-0.0068271
-0.35135,0.063056,-0.12716,0.057084,-0.27706,-0.24883,0.34609,-0.069661,-0.68894,-0.079005
0.024461,0.045226,0.43508,0.026024,-0.15141,-0.03683,0.026782,-0.34849,-0.13724,-0.91838
0.16213,-0.080227,0.59493,-0.034246,-0.10652,0.23465,0.083044,-0.4029,0.22099,-0.45959
0.18539,-0.3457,0.1373,0.27811,-0.38599,-0.20952,-0.067549,-0.40734,-0.10157,0.6674
0.48927,-0.30876,-0.0048411,0.0010086,-0.53931,-0.40843,-0.25061,-0.26592,-0.070588,0.66819
0.15528,0.048424,-0.013793,0.094279,-0.23884,-0.13433,-0.24689,0.010648,-0.33858,-0.32602
0.0059683,0.15063,-0.31845,0.16822,-0.30939,-0.35807,-0.60865,0.52764,-0.51919,-0.55423
-0.30184,0.26643,0.13343,0.4417,-0.001445,-0.29636,-0.69944,0.4065,-0.84078,-0.35178
-0.50338,0.2355,-0.19383,0.22926,0.13755,-0.4004,-0.38212,0.36079,-0.31309,-0.084708
-0.43896,0.082221,-0.29919,0.39842,0.055574,-0.54004,-0.34386,0.066808,0.25994,0.3869
-0.60477,0.17569,-0.27265,-0.0346,0.1372,-0.38607,-0.19536,0.18532,0.11393,0.23744
-0.46292,0.061465,-0.33716,-0.33506,0.25851,-0.68819,0.21081,0.092015,-0.22059,0.092525
-0.65417,-0.26703,-0.078554,-0.23985,0.54654,-0.40213,-0.20111,-0.061101,-0.29911,-0.28954
-0.37299,-0.36112,0.084572,-0.36866,0.63262,0.12419,-0.27893,0.026529,-0.22965,-0.083525
-0.36622,-0.21842,0.20797,-0.17176,0.055902,0.033341,-0.043036,0.019798,0.0025591,-0.0022911
-0.32228,-0.20276,0.14317,0.016958,-0.050674,-0.069639,0.2766,-0.34192,-0.14794,-0.055208
-0.35216,-0.37114,0.21533,0.017227,-0.18968,-0.15216,0.19375,-0.3028,-0.31743,-0.2122
0.039638,0.049409,-0.009095,-0.065034,-0.39798,-0.16862,0.2414,-0.15951,-0.49681,-0.21858
-0.19205,0.076073,-0.29133,0.037242,-0.22629,0.044523,0.2498,-0.297,-0.49852,-0.64064
0.14013,0.37186,-0.16988,-0.072401,-0.0033218,-0.004336,-0.2767,-0.29803,0.24461,-0.69346
-0.23149,-0.088233,-0.21542,0.06346,-0.041492,-0.1246,-0.38486,0.010053,0.49954,-0.23096
-0.35263,-0.077426,-0.15811,-0.15676,-0.071481,-0.15796,-0.11257,0.4881,-0.25057,0.3231
0.063959,-0.011807,0.018549,-0.084913,-0.24879,-0.17641,0.12575,0.23962,-0.17779,0.12114
-0.013752,-0.045384,0.025295,-0.031584,0.040618,0.035465,-0.12594,0.086929,0.080983,-0.019925
-0.022301,0.095988,0.039875,0.11281,0.22787,0.041034,0.081295,0.024369,-0.0028106,-0.060096
-0.01248,-0.04659,-0.0089604,-0.080758,0.064584,-0.098777,-0.010345,-0.040756,-0.064817,-0.10839
-0.10798,-0.069004,-0.20371,-0.11206,-0.013816,0.065392,0.11871,-0.13793,-0.050314,-0.20449
-0.24774,-0.23035,-0.27097,0.091375,-0.11286,-0.12658,0.31971,-0.19536,-0.37268,-0.09911
-0.24399,0.095779,-0.13044,0.14494,-0.21369,-0.13542,0.37963,0.031889,-1.0983,-0.14439
-0.082098,-0.0023086,0.18678,-0.31496,-0.12758,0.089626,0.27753,-0.39514,-0.28552,-0.64582
0.26194,-0.27886,0.32441,0.080837,-0.083769,-0.14789,0.077007,-0.067529,0.038168,-0.46379
0.43339,-0.29973,-0.18437,0.11002,-0.19327,-0.36636,0.021601,-0.34332,-0.011467,0.19682
0.31504,-0.14527,0.11027,-0.042418,-0.54441,0.0095862,-0.47008,-0.21451,-0.41203,0.090532
0.16817,-0.17163,-0.10596,0.018479,-0.35403,0.08827,-0.70877,-0.051302,-0.45467,-0.34089
0.17104,-0.24427,-0.0086147,0.14561,-0.32886,-0.2461,-0.7753,0.78024,-0.19846,-0.43205
0.13477,-0.060003,-0.089705,0.40085,-0.17274,-0.5128,-0.68301,0.59303,-0.40022,-0.10794
-0.36024,0.11051,-0.18603,0.20017,0.07962,-0.65058,-0.17432,0.37861,0.042613,-0.010924
-0.4601,-0.0967,-0.57314,0.066992,0.22835,-0.32076,-0.36621,0.1294,0.27861,0.08173
-0.34371,-0.23042,-0.059825,-0.12635,0.27959,-0.60544,-0.030174,-0.12477,-0.052954,-0.022759
-0.41,-0.24185,-0.10585,-0.033547,0.2981,-0.56305,0.17096,0.26692,-0.61953,0.11147
-0.40002,-0.36915,-0.018102,0.24483,0.3454,-0.41592,0.063965,0.00282,-0.68854,0.047347
-0.20361,-0.3159,-0.081635,0.20069,0.19514,0.012788,-0.29099,0.11986,-0.25018,0.033347
-0.21691,-0.3674,0.022289,0.28082,0.067193,0.077004,0.088503,-0.12263,-0.13181,0.18475
-0.11871,-0.32185,0.077673,0.14568,-0.21445,-0.19631,0.10012,-0.17162,-0.46163,0.070575
-0.1684,-0.10637,0.064554,0.11831,-0.34568,-0.09237,0.066299,-0.21311,-0.37737,-0.33569
-0.15864,-0.39762,-0.0020285,0.027575,-0.42253,-0.17578,0.19682,-0.20182,-0.25235,-0.29897
-0.33962,-0.029494,-0.071917,-0.24138,0.018848,-0.0036903,-0.099167,-0.45171,-0.041797,-0.33857
0.001619,0.04547,-0.12556,0.084483,0.2641,-0.10427,-0.19376,-0.31409,0.28461,-0.49128
-0.26988,0.030685,-0.037849,-0.061787,-0.020396,-0.10046,-0.20479,-0.016641,0.29231,-0.17914
-0.015951,-0.23079,-0.037906,-0.28502,-0.30826,-0.17388,-0.14242,0.070163,-0.13037,0.48629
0.12447,-0.079034,-0.064608,0.19633,-0.20953,0.11281,-0.1265,-0.10191,0.25056,0.1782
0.046522,-0.12211,-0.047651,-0.021063,0.075135,-0.14177,0.093338,0.073444,-0.0484,0.093586
0.068809,0.18142,-0.057712,0.039338,-0.17884,-0.014713,0.0042503,-0.011883,0.088192,-0.079553
0.16745,-0.024533,-0.058621,0.015283,-0.1471,0.012832,-0.0073967,0.0024634,0.092987,0.058559
-0.048694,-0.10023,-0.30945,0.032114,-0.090483,0.14666,0.28551,0.11417,0.076906,-0.00096875
-0.17694,-0.27073,-0.39536,0.21712,-0.075033,-0.2296,0.67344,0.014388,-0.25394,-0.037968
-0.10505,-0.044702,-0.35225,-0.038684,-0.32663,-0.099174,0.66785,-0.12313,-0.7883,-0.13564
-0.059928,-0.16625,0.1047,-0.36931,0.060611,0.10645,0.38665,-0.37966,-0.097885,-0.74413
0.27899,0.058286,0.053321,-0.32241,-0.14037,-0.072523,0.1962,-0.26209,0.23367,-0.56653
0.33031,-0.15418,0.015617,0.10081,0.2258,-0.47987,-0.26137,-0.26265,0.057319,-0.38543
0.19226,0.094613,-0.011475,0.25046,-0.48882,0.12108,-0.6158,-0.044097,-0.29957,-0.26096
0.38821,0.035589,-0.07481,0.10176,-0.43206,0.24599,-0.66434,0.0054209,-0.29511,-0.0043409
0.51497,0.029393,0.0074882,0.31566,-0.28811,-0.18888,-0.55914,0.30258,-0.56508,-0.21415
0.24924,0.030821,-0.2502,0.31373,-0.36746,-0.56217,-0.59426,0.51359,0.13554,0.23541
-0.0014278,-0.24505,0.14598,-0.024537,-0.16762,-0.41736,-0.19653,0.04839,0.61177,0.019161
-0.14754,-0.28945,-0.1331,-0.0090932,-0.049303,-0.4631,-0.25297,-0.13304,0.29272,0.18433
0.022489,-0.32339,0.079341,-0.080004,0.36838,-0.2246,-0.2849,-0.026857,-0.11615,0.36509
-0.31278,-0.43873,-0.053537,0.1409,0.065924,-0.18879,-0.26903,0.19815,-0.74614,0.089248
-0.18118,-0.33195,-0.19513,0.13285,0.40193,-0.056294,0.018762,0.16971,-0.62993,-0.19716
-0.11636,-0.29231,-0.15418,0.12352,0.15083,-0.20697,-0.080847,0.082108,-0.626,0.14779
-0.23639,-0.26467,-0.18243,0.44482,-0.15666,0.050965,-0.078483,-0.19588,-0.28229,-0.01717
-0.10947,-0.30161,0.15824,0.11591,-0.54009,0.045939,0.15087,-0.37331,-0.069056,-0.014983
-0.18023,-0.31845,0.14596,0.11547,-0.47224,-0.068095,0.12508,-0.12215,-0.27936,-0.3573
-0.49371,-0.28751,0.067454,0.027039,-0.081511,0.34578,0.1527,-0.22795,-0.10633,-0.45779
-0.23834,-0.21048,0.016332,0.035565,0.070223,-0.11966,-0.062993,-0.46391,-0.19633,-0.31147
-0.0041818,0.023201,-0.082947,0.0086222,0.22082,-0.11277,-0.25265,-0.19574,0.224,-0.24822
-0.282,-0.1952,-0.1268,-0.086911,-0.20284,-0.10232,0.019283,-0.18451,-0.035231,0.14691
-0.038403,-0.065581,-0.005521,-0.071123,-0.16555,-0.024769,-0.039702,-0.0061452,-0.043469,0.76835
-0.073511,0.13106,-0.16577,-0.044187,-0.15137,0.027341,-0.014493,-0.024751,-0.017733,0.2825
0.057538,0.069844,-0.050088,0.19814,0.10267,0.11343,0.13484,0.10955,-0.023587,-0.04452
0.068819,-0.014104,0.045827,0.10031,-0.0094648,-0.139,0.18221,0.064816,-0.043766,-0.15851
0.062571,0.063213,-0.1222,-0.024458,0.0208,0.013921,0.13078,0.071167,-0.10928,-0.21527
-0.07072,0.060988,-0.21645,0.0058322,-0.020664,0.082935,-0.0079307,-0.028973,0.20434,0.066036
-0.23359,-0.10921,-0.19544,-0.061633,-0.0011833,-0.1148,0.59253,-0.16594,-0.22873,0.040082
-0.33434,-0.15117,-0.26824,-0.065565,-0.27519,-0.10521,0.75732,-0.096146,-0.5228,-0.058041
0.10105,0.086864,0.040124,-0.46157,-0.11089,0.14007,0.36281,-0.26735,-0.40166,-0.5228
0.20267,0.12625,-0.15328,-0.30919,0.05149,-0.18964,-0.019929,-0.079676,0.1924,-0.55472
0.26571,0.10756,0.31286,-0.041438,-0.061887,-0.29663,-0.26928,0.19279,0.16553,-0.44876
0.13336,-0.030598,-0.32325,0.25972,-0.1719,0.43556,-0.43282,-0.043553,-0.093249,-0.39815
0.052216,-0.1139,-0.0050962,0.016113,-0.34111,0.53079,-0.71194,0.14287,-0.39122,-0.24985
0.32486,-0.20898,-0.14242,0.20012,-0.25587,-0.36094,-0.69172,0.31691,-0.22227,0.20051
0.072817,-0.13926,0.039641,0.10992,-0.17372,-0.89094,-0.51542,0.16772,0.44671,0.096156
0.037462,-0.25162,0.14888,-0.0079592,0.046172,-0.71041,-0.11296,0.13901,0.62027,0.37387
-0.17521,0.010273,-0.11546,-0.17984,-0.055113,-0.56551,-0.01182,0.12953,0.23455,0.42586
-0.015346,-0.2266,-0.39728,-0.18914,0.27539,-0.31684,-0.25499,0.32498,-0.41109,-0.02424
-0.3114,-0.12887,-0.25269,0.036911,0.25858,0.2205,-0.15636,0.34581,-0.54483,-0.02733
-0.25911,-0.44243,-0.11424,0.11479,0.39706,-0.039633,-0.07305,0.36723,-0.6529,-0.30569
0.1628,-0.097591,-0.2896,0.069035,-0.11063,-0.31897,0.054271,0.089201,-0.49833,-0.29371
-0.13974,-0.10164,-0.076509,0.15301,-0.50738,-0.071881,0.1156,-0.10876,-0.26778,-0.18454
-0.12715,-0.20208,-0.045552,0.14376,-0.5484,-0.044328,0.23961,-0.23975,-0.42324,-0.25683
-0.27979,-0.28814,0.056319,0.16427,-0.5044,-0.053547,0.38785,-0.37605,-0.32909,-0.45447
-0.36643,-0.20319,0.27701,0.062947,-0.38178,-0.052568,-0.054213,-0.31983,-0.23638,-0.49501
-0.31832,0.05079,0.21825,0.13128,-0.10049,-0.053663,-0.16784,-0.28877,-0.076842,-0.13218
-0.30595,-0.0048635,-0.1698,-0.18574,0.34495,0.088291,-0.30015,-0.41692,0.093796,-0.16413
-0.046362,0.054322,-0.17852,-0.12497,0.089778,-0.047657,-0.17755,-0.11377,-0.066216,0.045856
-0.068897,0.049825,-0.26482,0.10229,-0.16497,0.019189,0.11123,0.039211,-0.038568,0.26984
0.072642,0.064955,-0.073883,-0.15156,-0.012986,0.083886,-0.043456,0.092468,-0.051857,0.15602
0.010764,0.008027,-0.10068,-0.15959,0.02139,0.062425,0.0060914,0.20196,-0.01662,0.05087
-0.018063,-0.034888,0.050166,-0.11271,0.040364,0.054964,-0.17499,-0.065331,0.11827,0.031492
0.1893,-0.094959,0.016283,-0.11715,0.1429,0.048928,0.050312,-0.13265,-0.19583,-0.098283
-0.076641,-0.06081,-0.12147,0.016205,0.0019405,-0.017756,0.046279,-0.040338,-0.045729,0.058603
-0.04718,0.043603,0.014728,0.043821,0.077968,-0.047511,0.37625,0.07719,-0.13183,-0.071125
-0.30821,-0.22578,-0.34543,-0.11425,0.10658,-0.25153,0.60776,0.063435,-0.39162,-0.10439
-0.17562,0.15684,-0.015259,-0.42763,-0.00084164,0.018556,0.20728,0.041856,-0.37425,-0.29497
0.063181,-0.063738,-0.015745,-0.20679,-0.10637,-0.032664,-0.0070644,-0.078119,-0.20215,-0.80879
-0.013538,0.079682,-0.04679,-0.086834,0.016494,-0.091272,-0.53469,-0.16845,-0.2391,-0.32701
-0.0020799,-0.11444,-0.28848,-0.0069591,0.044437,0.62945,-0.49816,0.036993,-0.27237,-0.6429
0.14189,-0.35439,-0.12188,0.26165,-0.14503,0.37006,-0.67163,0.2397,-0.076109,-0.14092
0.30517,-0.47,-0.1559,0.052348,0.0019914,-0.39795,-0.70159,0.28905,0.4404,0.026662
-0.0023581,-0.22858,-0.11099,-0.043116,-0.10185,-1.1411,-0.39097,0.15806,0.87471,0.30725
0.16524,-0.35939,-0.029104,-0.16883,-0.05897,-0.70679,-0.10857,0.057394,0.5483,0.36993
-0.1215,-0.12954,-0.085429,-0.13286,-0.016528,-0.10378,0.16831,0.025901,-0.2647,0.22012
-0.050568,-0.10782,-0.34244,-0.18036,0.29439,-0.25942,-0.015449,0.34908,-0.25212,0.064304
0.080002,-0.12805,-0.16122,0.024838,0.078923,-0.125,0.20867,0.18867,-0.42552,-0.21859
-0.13658,-0.18539,-0.30319,-0.16012,0.057128,-0.12479,0.17019,0.18431,-0.37446,-0.4955
-0.119,-0.0058418,-0.2358,0.044361,-0.21056,-0.16841,0.24172,-0.015614,-0.30794,-0.54776
0.066038,-0.13809,0.20932,0.099976,-0.18842,-0.056049,0.35895,-0.32528,-0.56796,-0.44979
0.0017084,0.098348,0.048075,0.088501,-0.19805,-0.14328,0.13118,-0.26227,-0.53804,-0.2967
-0.17127,-0.36091,-0.040479,0.055918,-0.45056,-0.26255,-0.013863,-0.28322,-0.42659,-0.43412
-0.21664,-0.28375,0.2027,0.082711,-0.16538,-0.12822,-0.20601,-0.24906,-0.41671,-0.28833
-0.068187,-0.10469,0.27828,0.096458,-0.0059523,0.089778,-0.29107,-0.26618,-0.50583,-0.063273
-0.21544,0.13293,0.0056993,0.042142,0.1476,-0.0020492,-0.087334,-0.19514,-0.17491,-0.0087975
-0.035537,0.018045,0.020677,-0.12748,0.039189,0.008507,-0.18628,-0.034942,0.020986,0.16475
0.090229,0.23028,0.12347,0.081218,0.027572,0.019913,-0.078038,-0.011614,0.025211,0.3379
-0.115,0.052842,0.21741,0.11308,-0.12212,0.062357,-0.10476,0.0081685,-0.15144,-0.034033
-0.019996,0.048002,0.11478,-0.037083,-0.10724,-0.00015882,-0.14098,-0.15563,-0.052258,0.1241
0.091843,0.026987,-0.052156,0.10937,-0.093481,-0.17995,0.21389,-0.012346,0.081659,0.091979
0.11472,0.10268,-0.103,0.10984,-0.20496,-0.021068,-0.14909,0.063357,0.14345,-0.066055
-0.020204,0.06511,0.18824,0.13943,-0.088504,-0.084441,0.025085,0.039253,-0.066065,0.12117
-0.024119,0.012737,-0.18587,0.090712,-0.19384,-0.03184,0.28346,0.14063,-0.012484,-0.0069812
-0.17255,0.0034453,-0.2142,-0.028055,0.11414,-0.052748,0.31975,-0.22356,-0.17935,0.12453
-0.22283,0.21989,-0.099057,-0.5477,-0.036066,0.23157,0.048596,-0.18973,-0.38916,-0.47032
0.064518,0.094022,0.042805,-0.47151,0.30177,0.079498,-0.19855,-0.12129,-0.21719,-0.51052
0.098149,0.04537,-0.01645,-0.29579,0.23053,0.33973,-0.59504,0.075761,-0.33416,-0.48712
-0.1737,-0.26629,-0.025881,-0.2164,0.24846,0.67621,-0.52858,-0.1122,-0.062124,-0.44362
0.038041,-0.27258,-0.0075661,0.23536,-0.090458,0.49988,-0.77399,0.046055,0.61079,-0.18085
0.23092,-0.15601,-0.048674,-0.02369,-0.12721,-0.43883,-0.59565,0.070994,0.51431,-0.10358
0.3042,-0.11421,0.12256,0.047204,-0.085599,-0.77609,-0.28678,-0.094564,0.43624,0.3209
0.17621,-0.094629,-0.1813,-0.45107,-0.078457,-0.81623,0.067255,0.089677,0.41777,0.40442
-0.048829,0.04095,-0.33168,-0.2336,0.026626,-0.48146,0.043052,0.10131,-0.11203,0.12541
0.020814,-0.20385,-0.54958,-0.042856,0.016805,-0.21365,0.26396,0.053857,-0.23369,0.084532
-0.15903,-0.45621,-0.32931,-0.077448,-0.033534,-0.56524,0.20091,0.20232,-0.27269,-0.14043
-0.021314,-0.065084,-0.27589,0.06981,-0.18647,-0.25071,0.17658,-0.091937,-0.59113,-0.56182
0.18046,-0.028307,0.041783,0.095631,-0.18497,-0.077861,0.039114,-0.033416,-0.41055,-0.32823
0.06247,-0.25322,0.25211,0.40039,-0.42028,-0.12652,0.10465,-0.33633,-0.36328,-0.28664
-0.21526,-0.12949,0.1588,-0.0012409,-0.39949,0.090808,-0.080472,-0.11314,-0.28766,-0.11592
-0.20361,-0.28333,0.054262,0.26053,-0.13333,-0.11231,-0.20792,-0.10895,-0.19163,-0.26372
-0.11775,-0.22561,0.30807,-0.11749,0.025828,0.14938,-0.35411,-0.19714,-0.20147,0.054837
-0.17198,-0.0077966,0.28707,-0.1889,0.076085,0.18938,-0.10085,0.017845,-0.15265,-0.064343
0.031115,0.085575,0.17392,0.039676,0.13449,0.20007,-0.035749,-0.18492,-0.042359,-0.075915
-0.19272,-0.028565,-0.20534,-0.022844,-0.014834,-0.037042,0.0013676,0.0038316,0.13856,0.23538
0.015071,0.092243,-0.12837,0.078847,-0.099563,-0.20725,0.097435,-0.30589,0.076891,0.35368
0.043467,0.204,-0.038383,-0.11142,-0.20298,-0.040659,-0.21337,0.011103,0.042128,-0.057464
-0.16967,0.0069967,-0.025393,-0.05356,-0.23505,0.09725,-0.14559,0.048991,-0.063066,0.090695
-0.0012363,-0.075101,0.018412,-0.030274,0.079633,0.062398,0.10588,0.08066,-0.033939,-0.099172
-0.046876,-0.027025,0.11686,-0.089192,-0.01828,0.022348,-0.068524,-0.073417,0.058926,-0.022908
-0.10478,0.012915,-0.16784,-0.050686,0.10028,0.01862,-0.26279,0.027363,0.05714,0.1546
0.044895,0.021213,0.026672,-0.041413,-0.050663,-0.061159,-0.049335,-0.10654,-0.18831,0.14059
-0.3064,0.20373,0.013598,-0.25601,0.044463,-0.026666,0.034511,0.021426,-0.14147,-0.14707
-0.099571,0.051449,-0.12689,-0.51453,0.00096407,0.23476,0.037409,-0.12105,-0.20311,-0.08495
-0.048747,-0.029997,-0.015814,-0.22786,0.45921,0.32213,-0.19007,-0.096369,-0.083264,-0.20928
-0.3827,-0.2222,0.081955,-0.083791,0.19014,0.4157,-0.28502,0.03902,-0.18354,-0.59232
-0.2882,-0.24707,-0.094311,-0.38134,0.24409,0.84065,-0.61445,-0.086408,0.1276,-0.50021
-0.034267,-0.089937,-0.2667,-0.048924,-0.15229,0.41523,-0.45517,0.0077139,0.77588,-0.40683
0.014752,0.016994,0.024091,-0.13747,-0.3233,-0.51364,-0.26649,0.0059331,0.44979,0.12252
0.24398,-0.13368,-0.23391,-0.18572,0.097291,-0.61497,-0.012115,-0.091312,0.53717,0.088762
0.020914,-0.011039,-0.31098,-0.033944,-0.20136,-0.67871,-0.0086153,0.0017006,0.23451,-0.08804
0.32972,-0.036294,-0.27249,-0.014807,-0.20145,-0.50022,0.052579,-0.011384,-0.058734,-0.096627
0.22464,-0.23013,-0.2945,-0.10435,0.030048,-0.44152,0.43949,-0.1908,-0.21882,-0.12117
0.086941,-0.15336,-0.32283,-0.040952,-0.12003,-0.59455,0.22227,0.15832,-0.25022,0.025853
0.061051,-0.05219,-0.10563,-0.033099,-0.11927,-0.21286,0.26874,-0.14561,-0.1788,-0.238
0.23523,0.086824,-0.051823,0.29421,-0.16887,-0.10012,0.014271,-0.30247,-0.24956,-0.30047
-0.081834,-0.069368,0.087417,-0.021013,-0.25455,-0.032522,0.064861,-0.042045,-0.28345,-0.25788
-0.15689,-0.23044,0.37164,-0.09107,-0.39396,-0.12126,-0.16614,-0.31138,-0.37848,0.010028
-0.10132,-0.079851,0.23127,-0.20961,-0.1867,-0.05353,-0.04382,-0.14698,-0.12875,-0.21935
0.060529,-0.1201,0.23539,-0.032062,-0.26373,0.10918,-0.15526,-0.079428,-0.18743,0.02129
-0.10191,0.14691,0.36735,0.15828,-0.01628,0.16484,-0.1758,0.13633,-0.098337,0.055669
-0.14139,-0.090262,0.15712,-0.21906,0.0018369,0.037437,-0.24734,-0.03036,-0.071076,0.29941
-0.0095903,-0.013796,0.039074,0.037011,-0.0037586,0.013004,0.17477,-0.093137,-0.07555,0.12724
0.0077885,0.0019884,-0.060442,0.098244,-0.092944,0.028287,-0.041184,-0.15844,0.056937,0.065262
0.10715,-0.11611,0.06495,0.1496,-0.0028758,0.018849,0.02255,-0.0089113,0.1069,0.035051
-0.012142,-0.063129,-0.071187,0.13924,-0.066246,-0.18185,-0.1057,0.065867,-0.054133,-0.015429
-0.058071,-0.069134,-0.043139,-0.12197,-0.12264,0.09366,-0.081722,0.028483,-0.047538,-0.074413
-0.057944,-0.081499,0.1059,0.056548,-0.057781,-0.066727,-0.043214,-0.14322,0.037422,-0.02964
-0.048415,-0.057748,0.11055,0.090495,-0.071959,0.083672,0.015539,-0.061131,0.0077179,-0.1566
-0.032491,-0.029455,-0.19228,0.083378,-0.13774,0.1359,0.01028,0.033839,0.067942,0.079692
-0.21246,-0.037211,0.0089294,-0.13968,0.035184,-0.096436,0.11219,0.027635,0.17544,-0.17622
-0.174,0.1307,0.027727,-0.25831,0.13226,0.06616,-0.15028,-0.2243,-0.089832,-0.31308
-0.29274,0.0060452,0.10043,-0.28957,0.46256,0.2211,-0.04154,-0.091511,0.055367,-0.22769
-0.068216,-0.16273,-0.1978,-0.39302,-0.025409,0.67456,-0.43433,-0.18787,0.1995,-0.34547
0.050323,-0.23104,-0.14223,-0.52538,0.045418,1.2995,-0.45543,-0.21156,0.20519,-0.56896
-0.25683,-0.15398,-0.26526,-0.1288,-0.43172,0.3447,-0.28595,0.054591,0.44465,-0.11738
0.1359,-0.2708,-0.087125,-0.11062,-0.047581,-0.4875,-0.22952,-0.31916,0.39172,-0.065335
0.25617,-0.14367,-0.19172,-0.096469,-0.041044,-0.55033,-0.079825,-0.12871,-0.018632,-0.01988
0.22809,-0.084217,-0.20423,-0.20844,-0.16146,-0.66237,0.0098063,0.062338,0.044211,-0.30506
0.32833,-0.093036,-0.21418,-0.12025,0.073696,-0.7574,0.28847,0.016019,0.024596,-0.23606
0.34773,0.25529,-0.33511,-0.12877,0.021256,-0.44357,0.40732,-0.027474,-0.19633,-0.32209
-0.04256,0.02496,-0.4499,-0.079359,0.13353,-0.46953,0.10204,-0.12968,-0.15683,-0.2097
0.0381,0.1026,0.015159,-0.020226,-0.061213,-0.14218,0.10943,-0.10419,-0.14835,-0.040473
-0.072021,-0.1072,0.20508,-0.19395,0.074888,-0.096006,0.09554,-0.13226,0.018014,-0.1225
-0.10848,0.0013709,0.32927,-0.20136,-0.20837,0.070669,-0.013222,-0.22612,0.034118,-0.10796
-0.083068,-0.069894,0.40561,-0.10688,-0.22181,0.11306,-0.21747,-0.25108,0.050273,-0.081198
-0.13597,-0.030984,0.30862,-0.024095,-0.23324,0.17797,-0.25225,-0.20738,0.067689,-0.080793
-0.12513,-0.075584,0.17183,0.11224,-0.25507,0.26715,-0.14329,-0.021331,-0.13399,-0.081819
0.0838,0.055842,-0.072356,0.089714,-0.13525,-0.12726,0.009583,-0.084144,-0.25737,0.03111
-0.15259,-0.061942,0.054734,-0.059011,0.072201,0.0056466,0.052151,0.084052,-0.078563,0.19107
-0.0036308,0.0061256,-0.1105,-0.12151,0.17729,0.038153,0.061272,0.048697,-0.034538,0.074762
-0.16099,-0.035698,-0.015713,0.063185,-0.021904,-0.068619,-0.19611,0.087428,0.016187,0.1102
-0.16319,-0.0083823,0.19678,0.02086,-0.14719,-0.026067,0.059663,-0.036546,0.022418,0.23685
-0.036558,-0.027268,-0.057253,-0.18765,0.12027,-0.080414,-0.054891,0.0052944,0.020435,-0.17232
0.069616,0.078381,-0.035519,-0.12731,-0.072202,0.079744,0.1042,-0.086867,-0.23501,-0.047273
-0.095716,-0.055827,0.066702,-0.043072,-0.083831,0.011439,0.061619,0.10704,0.090636,0.20439
0.1069,-0.033374,0.12801,0.03518,0.14273,-0.12352,-0.13252,0.0042707,-0.094406,-0.075918
-0.30991,-0.14201,-0.0069161,0.074551,0.14669,0.027797,-0.00050657,0.10942,0.34225,-0.085576
0.095543,0.11046,-0.080254,0.094587,-0.12064,-0.20132,0.033623,-0.11161,0.058097,-0.053931
0.088451,-0.057303,-0.11663,-0.14343,-0.053656,0.17722,0.018951,0.10865,-0.025087,-0.036997
-0.26512,-0.084103,-0.017502,-0.27651,0.13414,0.35354,-0.0029256,-0.28845,0.13108,-0.13651
-0.32164,-0.24496,-0.054489,-0.46814,0.035419,0.85477,-0.2398,-0.21718,0.012864,-0.27088
-0.22199,-0.22099,-0.21631,-0.30757,-0.099996,1.1054,-0.24803,-0.18749,0.16942,-0.16904
0.037798,-0.08712,-0.2805,-0.093873,-0.16912,0.65582,-0.27667,-0.32891,0.21703,-0.19057
-0.24995,-0.16349,-0.067964,0.09578,-0.070407,-0.041091,-0.32,0.11299,-0.079224,-0.012102
-0.085005,-0.031235,-0.073382,-0.059347,-0.039218,-0.13801,-0.043583,-0.087835,0.010167,-0.16408
-0.058354,0.11184,-0.12036,-0.23808,-0.16735,-0.13895,0.043331,-0.14449,0.18843,-0.075116
0.10406,-0.096097,-0.089368,-0.31274,-0.2115,-0.335,0.1017,-0.13821,0.13467,-0.044189
0.14621,-0.069571,-0.27426,-0.1415,-0.086238,-0.22345,0.040989,0.025172,-0.13209,-0.16319
-0.0524,-0.11716,-0.061582,-0.026201,-0.0033333,-0.13013,0.20531,-0.097906,-0.014699,-0.037817
0.12176,0.060119,-0.014031,0.099298,-0.013787,-0.14705,0.039606,0.07987,-0.067779,-0.15418
-0.11556,0.02886,0.35749,-0.18868,-0.11463,-0.078869,0.049282,-0.10966,-0.11841,-0.14853
-0.038021,-0.13725,0.28271,-0.10952,0.02822,-0.093364,-0.027168,-0.021162,-0.30867,-0.077921
-0.14094,-0.16974,0.3684,-0.19209,-0.1111,-0.22018,-0.054035,-0.17838,-0.078236,0.19709
0.016566,-0.10556,0.042008,-0.13768,-0.095877,-0.042681,0.082564,-0.17018,-0.16666,-0.15582
0.064801,0.067902,0.1814,0.012879,-0.21927,-0.12999,0.027886,-0.047421,-0.10388,0.0079096
-0.015885,0.10909,0.0019523,-0.10324,-0.036499,0.04066,-0.082799,-0.096759,-0.091477,0.039135
-0.063494,0.0031061,-0.0072451,0.023245,0.06016,-0.11721,-0.027053,-0.011309,0.0058753,0.00027584
0.21175,-0.0043213,-0.030838,0.01817,-0.18975,-0.12985,0.13135,0.10535,-0.07219,-0.016933
0.099876,-0.094008,0.11471,-0.019975,0.13378,0.0065897,0.0036592,-0.019397,-0.14187,-0.10772
0.040036,0.092314,-0.083259,0.028091,-0.079385,-0.056267,0.061314,0.025575,-0.064551,-0.017637
-0.174,0.086119,0.0982,0.097523,-0.073697,0.025899,-0.10891,0.17418,0.17863,0.070984
0.083282,-0.035332,0.1564,0.00038485,0.093537,-0.051641,-0.03597,0.075728,0.012788,-0.11765
-0.014177,0.15925,-0.047598,0.011094,0.084363,0.045794,0.092092,0.0035267,-0.18449,-0.023109
-0.14031,-0.011732,0.12428,-0.022738,-0.033117,-0.010648,0.003611,0.080559,0.12999,-0.054659
-0.069044,-0.034371,0.038697,-0.13467,0.12748,-0.046919,-0.011157,-0.019628,0.061005,0.1249
0.068408,-0.096233,-0.046929,0.081461,0.12027,0.061006,0.14591,0.07532,-0.037199,0.086964
-0.083301,-0.032311,-0.13707,-0.024244,-0.027952,0.38198,-0.25496,-0.089946,0.021147,-0.029417
-0.25118,0.16197,0.0017472,-0.028917,-0.10722,0.18521,0.071785,0.020899,0.091745,0.041329
0.014454,-0.37163,-0.035652,-0.087834,-0.014996,0.57462,-0.093527,-0.18096,0.17243,-0.10432
-0.09259,-0.20176,-0.076781,-0.10055,-0.15377,0.66741,-0.18821,-0.06642,-0.15993,-0.061275
0.077495,0.067156,0.034759,0.0092059,-0.045668,0.61482,0.050114,-0.023349,0.093789,0.022588
-0.16139,-0.11101,-0.092091,0.030548,-0.1769,0.28296,-0.014718,0.24864,-0.077578,-0.088688
0.057855,0.02035,0.10919,0.0020026,-0.011669,0.12726,-0.080955,-0.14328,0.06214,0.094064
-0.11568,-0.097414,0.060068,0.050095,-0.047873,-0.060321,-0.17308,-0.0052881,-0.12113,-0.095613
0.12081,-0.045439,0.11606,-0.084449,-0.017999,-0.075935,-0.14207,-0.041942,0.053746,0.049577
-0.039573,0.010241,0.079435,0.064063,-0.032427,0.16949,0.15096,-0.024318,0.10365,0.06254
0.044261,0.10148,0.13098,0.048326,0.011208,-0.20473,0.22341,-0.044333,0.071386,0.073691
-0.2168,0.00031637,0.090729,-0.010208,0.034123,0.15768,0.0258,0.23742,-0.028013,-0.14169
0.07807,0.0263,-0.014013,-0.13051,0.033439,0.029,-0.034822,0.16924,-0.06032,0.058973
-0.14398,-0.11476,0.12874,-0.11604,-0.15038,-0.075577,0.0092141,-0.12626,-0.16411,-0.20216
-0.11455,-0.10147,0.15319,0.080469,0.026409,-0.15742,-0.13385,0.099845,-0.072734,-0.16513
-0.017383,0.13526,0.177,-0.15074,0.002413,-0.003985,-0.19148,-0.0051483,-0.051414,-0.093328
0.093575,-0.13256,0.22561,-0.048411,-0.039887,0.0064288,-0.030471,0.056997,-0.050118,-0.020062
0.037077,-0.032281,0.057795,-0.0013291,0.054076,0.11232,0.1035,-0.17783,0.13518,-0.066436
-0.038436,-0.020318,0.0092662,-0.013685,0.013233,-0.067693,-0.03333,0.028057,-0.34893,0.081542
0.079303,-0.043655,0.038076,-0.056657,-0.042482,-0.047811,0.023426,-0.072704,-0.19822,0.059201
0.0077904,-0.050854,0.11387,0.16145,-0.012594,-0.23789,-0.19894,0.068498,0.043465,0.087028
-0.036375,0.12206,-0.014359,0.10588,-0.074499,-0.026236,0.13896,-0.067644,0.050933,-0.016766
-0.095963,-0.10785,0.022368,0.16853,0.14243,-0.070371,0.077254,0.15718,0.047142,0.028238
-0.081287,-0.19096,0.093878,-0.047679,-0.15018,-0.042323,-0.0091013,-0.049988,0.11953,0.079491
0.021813,0.024481,0.1761,-0.037932,-0.11814,-0.078573,-0.064193,-0.067045,0.062776,-0.080319
0.077946,-0.063858,0.00055838,0.10271,0.11684,-0.076914,-0.027762,0.016815,0.042379,0.014601
-0.0011267,0.081634,0.027536,0.057743,0.0018691,0.012152,-0.1938,-0.19419,0.32388,0.050497
-0.0011395,0.14697,-0.004847,-0.098653,0.10352,0.025063,-0.023043,-0.06688,-0.056647,-0.0015076
-0.071853,0.084507,0.12932,0.019607,-0.0065924,-0.0058203,0.18726,-0.069804,-0.011882,0.13567
-0.05785,0.097186,-0.060527,0.13691,0.058914,0.029433,0.096947,0.02211,-0.16549,0.17402
0.17231,-0.010507,0.030005,0.059289,-0.1218,0.070979,-0.026977,-0.08697,-0.00037086,0.10944
0.017504,-0.02236,0.10319,0.20484,-0.062234,0.14609,-0.19211,0.10334,0.14216,-0.10651
0.029509,0.018635,-0.049543,-0.0055781,-0.12657,0.007584,0.13107,-0.061289,-0.030285,0.10918
-0.12645,0.07952,-0.13323,0.16299,-0.25599,0.2022,-0.016662,0.10444,0.052071,-0.020425
-0.1122,-0.098531,-0.030374,0.039485,0.043717,0.10878,0.025704,-0.15207,0.10407,-0.042266
-0.12093,0.17666,-0.04076,-0.055449,0.025551,0.047442,-0.13795,0.044761,-0.035525,0.074798
0.0080689,0.053089,0.11281,-0.090812,0.20359,-0.069966,0.18945,-0.11803,-0.15861,0.063889
0.02276,0.10331,-0.0042385,-0.0015981,0.068064,0.075262,-0.036501,-0.09904,-0.082974,0.17005
0.18184,0.024244,-0.089632,-0.013806,-0.018246,0.068222,-0.032106,0.11538,-0.0045074,0.12025
-0.010739,-0.17921,0.18824,0.017857,-0.12903,-0.047008,-0.19633,-0.085525,-0.11783,0.1121
0.028044,0.10234,0.035116,0.010098,0.015141,-0.018084,0.10515,0.19259,0.04483,-0.089059
0.14599,0.0084158,-0.019812,-0.045118,-0.031928,0.13219,-0.00044064,0.056513,-0.11111,-0.12161
-0.071166,-0.005571,0.024728,0.049831,0.2408,-0.070791,-0.049884,0.075148,0.096268,-0.12323
0.060855,0.022709,0.028374,0.045107,0.14498,-0.074982,-0.17983,-0.027851,0.078722,0.0207
0.15029,-0.056319,0.073636,-0.13197,-0.013286,-0.012648,-0.07909,0.11057,-0.027246,-0.049336
-0.076963,0.13902,0.10031,0.059423,-0.014136,0.0016155,0.078721,-0.13027,0.27204,-0.077868
-0.11499,-0.021013,0.019142,0.19455,-0.17328,0.017058,0.14912,-0.033679,-0.046129,-0.062681
0.014077,0.057846,0.010658,-0.047821,-0.015195,0.046873,0.1695,0.01783,-0.11789,-0.086458
0.026986,-0.17296,-0.019034,-0.018855,-0.037185,0.14666,0.048187,0.051571,-0.072301,0.060362
-0.12265,0.041828,0.25556,-0.063708,0.0027144,0.13884,0.098805,-0.0025054,-0.032555,-0.0033962
-0.022282,0.079309,0.04133,-0.17897,0.042417,-0.0095618,0.12152,0.022117,-0.015114,0.098963
-0.056443,-0.1253,-0.096255,0.018881,-0.22519,0.019741,-0.0815,0.018168,0.099116,-0.15287
-0.12734,0.024659,-0.092902,-0.09886,0.17195,-0.15755,-0.082127,0.096328,-0.062942,-0.14653
0.083472,0.10566,-0.018808,0.0030672,-0.14129,-0.031528,-0.019877,-0.11454,0.029142,-0.13341
-0.11266,0.086246,0.10683,0.15484,-0.05328,-0.11174,-0.13606,-0.088653,0.031438,0.090538
-0.083899,0.14551,-0.014437,-0.087722,-0.088732,0.016175,0.25627,0.13689,0.0081157,-0.010812
-0.1596,-0.16528,-0.058753,0.038443,0.044267,0.065635,-0.024975,-0.012432,0.14263,0.055671
-0.044018,-0.060926,-0.0016059,0.031719,-0.14587,0.027786,0.028851,0.033428,-0.015067,-0.084793
0.027813,-0.013885,0.0076082,-0.013333,-0.014129,-0.014857,0.062857,0.027602,-0.076928,-0.013236
-0.18844,-0.093349,-0.060321,0.011509,0.036056,-0.033772,0.069107,0.21662,0.027423,-0.074791
-0.084295,-0.18931,0.0069982,-0.05482,0.0582,-0.045195,0.10671,0.029106,-0.25707,0.073812
-0.10865,0.063152,0.063571,0.17934,-0.22762,-0.019418,-0.041438,0.11087,0.10104,0.038562
0.041577,-0.021243,0.29252,-0.052222,-0.016459,-0.16966,-0.20648,-0.040918,0.027539,-0.042851
-0.012449,0.038415,-0.025917,-0.05728,0.089734,0.21741,0.089657,-0.092801,-0.086853,0.063615
-0.11958,-0.04635,-0.023202,0.087131,-0.099319,-0.0027334,-0.17388,-0.17501,-0.039272,-0.24151
0.013299,-0.0043188,-0.048267,0.13979,-0.092019,-0.22281,-0.094524,0.051434,-0.11101,-0.01455
4.2384e-05,0.16836,-0.089246,0.034886,0.021471,0.0094087,0.067191,0.11419,-0.10477,-0.19021
0.031774,0.033476,0.12534,0.013904,-0.081083,-0.12509,-0.12928,0.1954,-0.056624,0.10851
0.012992,0.10419,-0.12971,-0.028718,-0.14202,-0.12363,-0.19929,-0.19708,0.043245,0.058321
0.023879,0.16295,-0.10665,-0.27746,0.1828,-0.0052329,-0.010752,-0.050335,0.14218,-0.11182
-0.04357,0.072952,0.24767,0.067802,-0.13445,-0.13361,0.15057,-0.12834,0.056364,-0.032848
0.12622,-0.035311,0.24744,-0.027367,0.064925,-0.030883,-0.074012,0.0075002,-0.069017,-0.16294
0.11247,-0.033614,0.035063,0.0014546,-0.13132,0.0096076,-0.051021,0.03884,-0.13552,0.11305
0.089,0.071602,0.085,-0.095044,0.17369,0.020354,0.061694,-0.028013,0.01245,0.13208
0.11301,-0.017788,-0.024864,-0.064191,0.03917,-0.013417,0.14943,-0.027434,-0.12914,0.08763
0.19302,-0.012621,0.067288,-0.00072337,0.10287,-0.042438,0.098892,0.093878,0.15996,-0.071254
0.098812,-0.19344,-0.14044,-0.028743,0.11322,0.17679,-0.052297,0.0033678,-0.12628,-0.11422
0.26889,-0.12935,0.015865,-0.0023981,-0.04862,-0.076708,0.042775,-0.17036,-0.048833,-0.068331
0.12088,0.042426,0.072238,-0.052814,0.015988,0.16353,-0.0058284,0.092449,-0.0058387,-0.21064
-0.008562,-0.13687,0.040651,-0.070733,-0.10299,-0.10216,0.1662,0.12468,0.05018,-0.092896
